<?xml version="1.0"?>
<opencv_storage>
<ann type_id="opencv-ml-ann-mlp">
  <layer_sizes type_id="opencv-matrix">
    <rows>1</rows>
    <cols>3</cols>
    <dt>i</dt>
    <data>
      140 40 54</data></layer_sizes>
  <activation_function>SIGMOID_SYM</activation_function>
  <f_param1>1.</f_param1>
  <f_param2>1.</f_param2>
  <min_val>-9.4999999999999996e-001</min_val>
  <max_val>9.4999999999999996e-001</max_val>
  <min_val1>-9.7999999999999998e-001</min_val1>
  <max_val1>9.7999999999999998e-001</max_val1>
  <training_params>
    <train_method>RPROP</train_method>
    <dw0>1.0000000000000001e-001</dw0>
    <dw_plus>1.2000000000000000e+000</dw_plus>
    <dw_minus>5.0000000000000000e-001</dw_minus>
    <dw_min>1.1920928955078125e-007</dw_min>
    <dw_max>50.</dw_max>
    <term_criteria><epsilon>9.9999997764825821e-003</epsilon>
      <iterations>1000</iterations></term_criteria></training_params>
  <input_scale>
    8.0863180278361995e+000 -2.7282649450279433e+000
    7.3474367356255756e+000 -2.7034379498086047e+000
    6.5436667452286157e+000 -2.4475694395450276e+000
    5.1810410149993658e+000 -2.1205436505530364e+000
    3.7761337464894802e+000 -2.1172357981632675e+000
    3.6228859299780969e+000 -2.5669389643175653e+000
    3.9931097304867738e+000 -3.2472152157369512e+000
    4.0105202249016072e+000 -3.2681074420660683e+000
    5.1786717413966921e+000 -4.0437499820151155e+000
    5.6820532794047436e+000 -4.3912396388979484e+000
    5.5993708087809519e+000 -4.4004356300460641e+000
    5.3974873152571821e+000 -4.4571473784682061e+000
    5.2918298183977086e+000 -4.5448207903753497e+000
    4.9873563790018549e+000 -4.0838128397827802e+000
    4.5842627444989130e+000 -3.2674328392223755e+000
    4.7214824427674937e+000 -2.4968418887870416e+000
    4.5446431324184866e+000 -4.0510575830780871e-001
    6.9672105564038258e+000 -3.7497698079966280e-001
    8.7852539916209675e+000 -3.7902351091908731e-001
    9.2010908220937733e+000 -3.9392156348567148e-001
    5.8444190948730066e+000 -4.3335158901263204e+000
    6.1849602081940107e+000 -4.9935690933352408e+000
    6.1885018329743220e+000 -5.0280381217272732e+000
    6.2540956329122253e+000 -4.8378630433799312e+000
    6.5005562508133998e+000 -4.8191871685858487e+000
    6.5781173746071069e+000 -4.8462195635023724e+000
    6.6362370475062500e+000 -4.9035207131937142e+000
    6.6295793872028170e+000 -4.9037084984761119e+000
    5.8136510035016045e+000 -4.3687835891228417e+000
    5.6735538757871709e+000 -4.4071367897751745e+000
    5.6698059679032990e+000 -4.3778768031687454e+000
    5.6859762788701715e+000 -4.2188164552497183e+000
    5.8648433177759616e+000 -4.1938082952242626e+000
    5.9522876786670871e+000 -4.2594277208778486e+000
    5.9114655426741249e+000 -4.3089609515795422e+000
    5.8314019204969911e+000 -4.2296547751608911e+000
    5.3681540661167420e+000 -4.0294189188797036e+000
    5.2643934277887716e+000 -4.1256045510822945e+000
    5.2943067812780740e+000 -4.0523931011337559e+000
    5.4442683547376722e+000 -3.9332526335473501e+000
    3.4806414719188866e-001 -2.8367293925703368e-001
    5.1078381710422865e-002 -2.3655760187268071e-001
    1.3799790141009549e-002 -7.0382676347359729e-001
    1.0788306501271336e-002 -1.4223262966251198e+000
    1.0261427386561738e-002 -1.6536842891454135e+000
    1.1222009986686689e-002 -1.9367532647846526e+000
    1.1320420101014169e-002 -1.5581395349264191e+000
    1.5005024596202525e-002 -6.4483046317966508e-001
    5.3198316902303186e-002 -1.6905698244789882e-001
    2.5661097660047200e-001 -6.3496553687160617e-002
    2.8086539791305987e-001 -2.6772477031780939e-001
    3.9944254649527687e-002 -2.7379393135198421e-001
    1.1830577162940210e-002 -9.4336191661990043e-001
    1.0640015426024033e-002 -1.7161502441253400e+000
    1.1876662977493013e-002 -1.4521743849684619e+000
    1.1765223222810995e-002 -1.6298162121671156e+000
    1.0687547097124321e-002 -1.7910919943851027e+000
    1.2672528553895198e-002 -8.6619269091907003e-001
    4.0972572736817744e-002 -2.0383065907984635e-001
    2.1206351055894423e-001 -6.6425500434582799e-002
    3.0453569484301996e-001 -2.8723034534442682e-001
    3.5806314064639265e-002 -2.8036447908726131e-001
    1.0922064106423672e-002 -9.2577837281007380e-001
    1.0638004357704336e-002 -1.4678666072253783e+000
    1.0165373896328083e-002 -8.5466160862225693e-001
    9.8195144195767879e-003 -9.1237040494036192e-001
    1.0288989531158218e-002 -1.3971964451565722e+000
    1.1470698331642434e-002 -8.3293073059690004e-001
    3.5965700404369916e-002 -2.2184147229469006e-001
    1.9573016874370266e-001 -6.4658431801177696e-002
    2.7075087139375287e-001 -2.3444105633880077e-001
    3.5674228096848677e-002 -2.7407303487614304e-001
    1.0931307940585786e-002 -9.2450926084955509e-001
    1.0511052285383080e-002 -1.5487635355333784e+000
    1.0134828292625990e-002 -1.0677628399913526e+000
    1.0176037081509003e-002 -1.1103047202812273e+000
    1.0209480616947278e-002 -1.3392565641751071e+000
    1.1698195123199896e-002 -7.5680852173755730e-001
    3.7538580334133896e-002 -2.1429793792844526e-001
    1.8165603444254511e-001 -6.1947483395895071e-002
    2.8708944134484071e-001 -2.2070975109324287e-001
    3.9794427070254712e-002 -2.5132952083491844e-001
    1.1415091252963961e-002 -8.4515424232601011e-001
    1.0094369361619407e-002 -1.5873526478156188e+000
    1.0450051209124784e-002 -1.6143831352202809e+000
    1.1488709028534256e-002 -1.9818385768659921e+000
    1.1387852206047655e-002 -1.8511781353927632e+000
    1.2623614032038559e-002 -7.2637588672104181e-001
    4.2985642006640602e-002 -1.9172280283805354e-001
    1.7867390873583605e-001 -6.0400309847939523e-002
    2.8176461433970090e-001 -2.4714446409945226e-001
    3.8952451387808951e-002 -2.5325979805907478e-001
    1.1450324285770627e-002 -8.1113018576184304e-001
    1.0261712978677541e-002 -1.4628163207433285e+000
    1.1223788952747615e-002 -1.3442184516435023e+000
    1.0849561729567275e-002 -1.5792188564313114e+000
    1.1085535819784928e-002 -1.8509429146935730e+000
    1.2154653077927945e-002 -8.2290792471945529e-001
    4.2342168197209464e-002 -2.0966564849514790e-001
    1.9403465638704401e-001 -6.0618984707860445e-002
    2.4182066378765421e-001 -2.1928452919044636e-001
    3.5259868421658860e-002 -2.6926223677196454e-001
    1.0970454020780793e-002 -8.6545647171288587e-001
    9.9869064472234235e-003 -1.2769758748478206e+000
    1.1355061222588357e-002 -8.1744897900395752e-001
    1.0404605174311538e-002 -9.7923639924545247e-001
    1.0512641880407805e-002 -1.5510998864278729e+000
    1.1277748100961847e-002 -8.8338989664483292e-001
    3.6746847981889076e-002 -2.3885683205199626e-001
    1.9874923217769011e-001 -6.1464436116070602e-002
    2.4630272305797005e-001 -2.0633568187480406e-001
    3.2725768245398329e-002 -2.8673170110551777e-001
    1.0971790463533681e-002 -1.0264990465166832e+000
    1.0784139585787174e-002 -1.6042187267639560e+000
    1.0943690420735999e-002 -8.8953726401184097e-001
    9.6533514308249826e-003 -9.5438354448993212e-001
    1.0285582758872138e-002 -1.5033965745763809e+000
    1.1172040043264872e-002 -9.1338093332880177e-001
    3.6319798886195152e-002 -2.4525610374287696e-001
    1.9632645215802777e-001 -6.0616009032248751e-002
    2.9159968304479544e-001 -2.4542390295410552e-001
    3.6163722191699700e-002 -2.7164805312693024e-001
    1.1676786862929493e-002 -1.0166656432100485e+000
    1.0726537951488101e-002 -1.8222734096153765e+000
    1.2458613715048424e-002 -1.5493888515828111e+000
    1.2588630557980788e-002 -1.6470638974706062e+000
    9.9098046468127886e-003 -1.5829414376615347e+000
    1.2738748432637529e-002 -8.6774137629688264e-001
    4.3211514440370545e-002 -2.1305366530711550e-001
    1.8248405838562101e-001 -5.6561071007388150e-002
    3.1220757905712759e-001 -2.8015495097612686e-001
    4.8828755346251182e-002 -2.2929907051884277e-001
    1.4113977154360580e-002 -6.8454482376865333e-001
    1.1268227053721784e-002 -1.4277579334773138e+000
    1.0009011446099243e-002 -1.5324492945913386e+000
    9.9740080377964235e-003 -1.4353414984145907e+000
    1.1139323492237415e-002 -1.2958673651980752e+000
    1.4925811098075720e-002 -6.0408823049275306e-001
    5.2173611874880212e-002 -1.7323562957925245e-001
    2.2387280029963880e-001 -5.5240238891967948e-002</input_scale>
  <output_scale>
    5.2631578947368418e-001 4.9999999999999994e-001
    5.2631578947368418e-001 4.9999999999999994e-001
    5.2631578947368418e-001 4.9999999999999994e-001
    5.2631578947368418e-001 4.9999999999999994e-001
    5.2631578947368418e-001 4.9999999999999994e-001
    5.2631578947368418e-001 4.9999999999999994e-001
    5.2631578947368418e-001 4.9999999999999994e-001
    5.2631578947368418e-001 4.9999999999999994e-001
    5.2631578947368418e-001 4.9999999999999994e-001
    5.2631578947368418e-001 4.9999999999999994e-001
    5.2631578947368418e-001 4.9999999999999994e-001
    5.2631578947368418e-001 4.9999999999999994e-001
    5.2631578947368418e-001 4.9999999999999994e-001
    5.2631578947368418e-001 4.9999999999999994e-001
    5.2631578947368418e-001 4.9999999999999994e-001
    5.2631578947368418e-001 4.9999999999999994e-001
    5.2631578947368418e-001 4.9999999999999994e-001
    5.2631578947368418e-001 4.9999999999999994e-001
    5.2631578947368418e-001 4.9999999999999994e-001
    5.2631578947368418e-001 4.9999999999999994e-001
    5.2631578947368418e-001 4.9999999999999994e-001
    5.2631578947368418e-001 4.9999999999999994e-001
    5.2631578947368418e-001 4.9999999999999994e-001
    5.2631578947368418e-001 4.9999999999999994e-001
    5.2631578947368418e-001 4.9999999999999994e-001
    5.2631578947368418e-001 4.9999999999999994e-001
    5.2631578947368418e-001 4.9999999999999994e-001
    5.2631578947368418e-001 4.9999999999999994e-001
    5.2631578947368418e-001 4.9999999999999994e-001
    5.2631578947368418e-001 4.9999999999999994e-001
    5.2631578947368418e-001 4.9999999999999994e-001
    5.2631578947368418e-001 4.9999999999999994e-001
    5.2631578947368418e-001 4.9999999999999994e-001
    5.2631578947368418e-001 4.9999999999999994e-001
    5.2631578947368418e-001 4.9999999999999994e-001
    5.2631578947368418e-001 4.9999999999999994e-001
    5.2631578947368418e-001 4.9999999999999994e-001
    5.2631578947368418e-001 4.9999999999999994e-001
    5.2631578947368418e-001 4.9999999999999994e-001
    5.2631578947368418e-001 4.9999999999999994e-001
    5.2631578947368418e-001 4.9999999999999994e-001
    5.2631578947368418e-001 4.9999999999999994e-001
    5.2631578947368418e-001 4.9999999999999994e-001
    5.2631578947368418e-001 4.9999999999999994e-001
    5.2631578947368418e-001 4.9999999999999994e-001
    5.2631578947368418e-001 4.9999999999999994e-001
    5.2631578947368418e-001 4.9999999999999994e-001
    5.2631578947368418e-001 4.9999999999999994e-001
    5.2631578947368418e-001 4.9999999999999994e-001
    5.2631578947368418e-001 4.9999999999999994e-001
    5.2631578947368418e-001 4.9999999999999994e-001
    5.2631578947368418e-001 4.9999999999999994e-001
    5.2631578947368418e-001 4.9999999999999994e-001
    5.2631578947368418e-001 4.9999999999999994e-001</output_scale>
  <inv_output_scale>
    1.8999999999999999e+000 -9.4999999999999996e-001
    1.8999999999999999e+000 -9.4999999999999996e-001
    1.8999999999999999e+000 -9.4999999999999996e-001
    1.8999999999999999e+000 -9.4999999999999996e-001
    1.8999999999999999e+000 -9.4999999999999996e-001
    1.8999999999999999e+000 -9.4999999999999996e-001
    1.8999999999999999e+000 -9.4999999999999996e-001
    1.8999999999999999e+000 -9.4999999999999996e-001
    1.8999999999999999e+000 -9.4999999999999996e-001
    1.8999999999999999e+000 -9.4999999999999996e-001
    1.8999999999999999e+000 -9.4999999999999996e-001
    1.8999999999999999e+000 -9.4999999999999996e-001
    1.8999999999999999e+000 -9.4999999999999996e-001
    1.8999999999999999e+000 -9.4999999999999996e-001
    1.8999999999999999e+000 -9.4999999999999996e-001
    1.8999999999999999e+000 -9.4999999999999996e-001
    1.8999999999999999e+000 -9.4999999999999996e-001
    1.8999999999999999e+000 -9.4999999999999996e-001
    1.8999999999999999e+000 -9.4999999999999996e-001
    1.8999999999999999e+000 -9.4999999999999996e-001
    1.8999999999999999e+000 -9.4999999999999996e-001
    1.8999999999999999e+000 -9.4999999999999996e-001
    1.8999999999999999e+000 -9.4999999999999996e-001
    1.8999999999999999e+000 -9.4999999999999996e-001
    1.8999999999999999e+000 -9.4999999999999996e-001
    1.8999999999999999e+000 -9.4999999999999996e-001
    1.8999999999999999e+000 -9.4999999999999996e-001
    1.8999999999999999e+000 -9.4999999999999996e-001
    1.8999999999999999e+000 -9.4999999999999996e-001
    1.8999999999999999e+000 -9.4999999999999996e-001
    1.8999999999999999e+000 -9.4999999999999996e-001
    1.8999999999999999e+000 -9.4999999999999996e-001
    1.8999999999999999e+000 -9.4999999999999996e-001
    1.8999999999999999e+000 -9.4999999999999996e-001
    1.8999999999999999e+000 -9.4999999999999996e-001
    1.8999999999999999e+000 -9.4999999999999996e-001
    1.8999999999999999e+000 -9.4999999999999996e-001
    1.8999999999999999e+000 -9.4999999999999996e-001
    1.8999999999999999e+000 -9.4999999999999996e-001
    1.8999999999999999e+000 -9.4999999999999996e-001
    1.8999999999999999e+000 -9.4999999999999996e-001
    1.8999999999999999e+000 -9.4999999999999996e-001
    1.8999999999999999e+000 -9.4999999999999996e-001
    1.8999999999999999e+000 -9.4999999999999996e-001
    1.8999999999999999e+000 -9.4999999999999996e-001
    1.8999999999999999e+000 -9.4999999999999996e-001
    1.8999999999999999e+000 -9.4999999999999996e-001
    1.8999999999999999e+000 -9.4999999999999996e-001
    1.8999999999999999e+000 -9.4999999999999996e-001
    1.8999999999999999e+000 -9.4999999999999996e-001
    1.8999999999999999e+000 -9.4999999999999996e-001
    1.8999999999999999e+000 -9.4999999999999996e-001
    1.8999999999999999e+000 -9.4999999999999996e-001
    1.8999999999999999e+000 -9.4999999999999996e-001</inv_output_scale>
  <weights>
    <_>
      -7.0203146038015835e-002 9.2308113633859726e-002
      -3.0150326369461612e-002 1.3907973089550057e-003
      -1.4393906918119731e-002 -1.9837233219619815e-001
      1.1010301140474807e-001 1.6076333859251918e-001
      2.5739813586156866e-002 1.4688934026084798e-002
      7.0419932252066830e-002 -2.1939320385423707e-003
      -2.7967063126525971e-001 5.2840316966559992e-003
      -2.3332170229658136e-001 4.2001861929527678e-002
      1.2223426183562225e-001 9.3384350455011936e-002
      2.4685148627885933e-001 -2.4021305669718196e-001
      -1.6629898182486832e-001 -9.2215549252461469e-003
      -6.8137947995476164e-002 4.0957059653874417e-002
      -3.9698058615469066e-004 -2.1561593929395137e-001
      -2.3667301281535333e-001 3.3831433197541855e-001
      1.5178028504738315e-002 -1.2310012279836136e-001
      8.2171090207592654e-002 4.2372503351468194e-002
      -1.0094539875971677e-002 -7.3155677747641340e-002
      3.4177049084262467e-001 -7.8153340298042592e-002
      2.4309706325374400e-001 3.0853634547074887e-001
      4.4889382063749400e-002 -1.0850544899007242e-001
      -3.7197073701561272e-002 7.4857162029425023e-002
      -6.4069090641105789e-002 -4.1892092125372656e-002
      4.3490335198134882e-002 -3.3471958395946055e-001
      6.4771456148144180e-001 2.5358779427084971e-001
      1.2402985101896868e-001 -6.3780396157780680e-002
      8.3306550651535277e-002 -5.9984945545363873e-003
      -6.4648501451408380e-002 -8.4395500668326864e-002
      -7.9124499227548550e-002 -2.1034831365794298e-002
      -1.0487689735538641e-001 3.4732478741445763e-002
      -1.2019549823150684e-002 -2.1993378374168837e-001
      -3.3748016128455088e-001 3.4055585529646965e-002
      9.4021829841496568e-002 1.7468262266936010e-001
      -1.3693638575452180e-001 -2.2985127965316438e-001
      -2.3839199449342216e-001 5.3361844786087542e-001
      3.3239019569779531e-002 -9.2789459304079849e-002
      4.5972755981418541e-002 1.2698912394912393e-001
      -4.1683072813219618e-002 -1.3122373625583991e-001
      2.3194841556054241e-001 -6.3874053508441386e-002
      3.9015233109837960e-001 1.0501040790084376e-001
      2.2925834074273146e-002 -7.5455278202458467e-002
      -4.7000584889517916e-002 -2.0625752176249529e-001
      -3.2349149111494994e-002 -1.7777865916329353e-002
      -1.7103960459874523e-001 -5.7971644155878288e-001
      7.2452477894553932e-002 1.2821536719315188e-001
      1.1488524367230252e-001 -6.9918682444304200e-002
      -7.2610600700864975e-002 -1.5370981405865741e-001
      1.9458047457618241e-001 -8.8448744651238573e-002
      -1.7250843477803229e-001 3.8302727184412713e-003
      1.7997184137453490e-001 -7.1751275192840885e-002
      -2.9377357575356433e-001 -1.5047256875076645e-001
      -9.4768928960153848e-002 -1.1163811667263619e-001
      -1.2059170394258056e-001 -1.1524761566849326e-001
      6.5612605799233698e-002 -9.3274716790759535e-002
      -5.5621944705023685e-002 -2.3674882838474635e-002
      -7.8035330410845843e-002 -1.1854029301774271e-001
      2.9602935830457838e-002 3.1514846361369730e-001
      7.3019383879474486e-002 -7.1717237308028689e-002
      6.5605952901597087e-001 4.5649833486433283e-001
      4.8981781805421676e-002 8.5084072041169287e-002
      1.5276668098187643e-001 -1.3748501943655782e-002
      -1.7762277135237320e-001 -1.8299271851437168e-001
      1.8057866745898404e-002 5.1240800678566123e-002
      1.2453109006231013e-001 -1.2844476129469019e-002
      5.0399148497149604e-001 2.6180877515136636e-002
      2.0049609617418110e-001 4.4408903144404724e-002
      1.8127899982120213e-001 1.2469495812588001e-001
      1.2318643487131352e-001 1.8736947694457246e-001
      1.2491994262361547e-001 -4.8093984341904171e-002
      8.5989349735521303e-002 4.2678568705772444e-003
      3.7259129559879985e-002 -6.1039024875973596e-002
      -2.5708091333438521e-001 5.7594734541626842e-003
      -4.8734260775454025e-001 -3.8182905467239492e-001
      -5.6223845076104041e-002 -2.3329594769164655e-001
      -7.9182141743479068e-002 9.1104075078781252e-002
      -1.7533608267012783e-002 -8.7709140795627277e-002
      2.3155725983001522e-002 -1.1923946575943288e-001
      4.8447283170577449e-002 3.3010626683553207e-001
      5.0248522435202692e-001 6.4247682323005470e-002
      6.1900667444104988e-002 2.1115511142431972e-001
      6.5223111152985430e-002 1.0444843234861491e-001
      -1.0611032932744470e-001 -1.6759930056884784e-001
      -9.3511808644583996e-003 9.5856370300804628e-002
      8.2889772350592875e-002 1.8592262891889694e-001
      2.0004394755815397e-001 5.1739808431721657e-002
      2.0316497242938394e-001 1.2703892457063984e-001
      -2.2618690630631583e-001 -9.9318880781183769e-002
      7.8206157565939544e-002 -2.6914815619001213e-002
      -1.2752106619316037e-001 -1.1459536166599407e-001
      1.8146656550380214e-001 -2.5955992288408312e-002
      -1.7549063297235587e-001 -3.5903601059321437e-002
      -1.8341141704335054e-001 2.5423130392301241e-001
      -5.5118669165816959e-002 1.4817035571606119e-001
      -3.4230899478085115e-002 1.9775802401387876e-002
      -2.3617042410629036e-001 -2.7339815198305584e-001
      -1.7615276387843953e-001 -1.0903995176231179e-001
      1.4854263258394847e-002 -3.3607903934330030e-003
      1.1939233827608281e-001 -6.6564943620772379e-002
      5.4764334638424395e-001 2.2713381601607815e-001
      3.9155951276382403e-003 1.1462330732776649e-001
      2.3452219618077827e-001 4.1911827758895642e-001
      -7.5972350363786439e-002 -1.5087581133759606e-001
      -1.4796285177246861e-002 1.5351976912314516e-001
      1.2440387038109878e-001 -1.9779644985921260e-001
      -7.4505139946399804e-002 5.4832318024854013e-002
      -9.7371853259790045e-002 3.8098170686323884e-001
      -7.1504468725287804e-002 -2.7852330798653017e-002
      6.3570082040459705e-002 -8.5331253672478041e-002
      -1.3644569538410953e-001 -5.4818517969557966e-002
      2.0959046490707504e-002 1.1112756103542991e-001
      -1.6117379581937635e-001 -2.3510101641310677e-001
      -2.6722789342602854e-001 2.8431190870915657e-001
      -1.1862335211683633e-001 2.8218991080055567e-001
      -4.6880664844291533e-003 4.2738704494228022e-002
      -7.0834967231773557e-002 -6.0619748306800902e-001
      -3.6510619072660905e-001 -9.3131494751585220e-002
      9.7380245851833330e-002 -3.7353519258749392e-002
      -4.9123363782808890e-002 -1.5180752101577148e-003
      5.2956963986225480e-001 2.0691730400553485e-001
      2.7173362057704452e-002 -4.1892728073010324e-002
      -3.5973412272503530e-002 3.7568206618746225e-001
      -6.9595979455303728e-002 1.5927686953000694e-001
      3.4792089649591473e-001 -5.3083560875763623e-002
      1.2969230029029222e-001 1.0514891173015502e-001
      -3.9980786712147207e-002 -7.5041500483202850e-002
      7.0812944860698798e-003 1.7456473368880310e-001
      -1.6567314921548487e-001 1.5071658643117933e-001
      1.2454922283731219e-001 6.2943250319387037e-002
      -6.5470170443943099e-001 -1.3894544487088570e-001
      4.1465117930104059e-002 2.0254703550364309e-001
      -3.3057159094649728e-002 -1.1536310309745500e-001
      -1.1370682717708362e-001 1.0530577888764883e-001
      -4.8903930542056079e-002 1.5209302090489346e-001
      9.7245892347171914e-001 -8.5891153894887967e-002
      -8.3971200165967028e-002 -4.1277383772604698e-001
      -2.1619461079941080e-001 -9.0610774927356363e-002
      1.5324079949779816e-002 -6.0607382686542810e-001
      -3.5152039196701601e-001 7.9739409171669298e-003
      2.2044773326955391e-001 3.4030034696467365e-001
      5.5276135590313032e-002 1.5979046680071021e-001
      -8.1139592044370670e-002 3.5973373584501206e-001
      1.5280719179828397e-003 9.9255110790454085e-002
      -1.1371070810629558e-001 1.7348952309532820e-002
      9.0881777460439531e-002 3.0589419995735734e-001
      -6.9951505793196991e-002 -9.2360239285803458e-003
      1.8644873482896233e-002 7.3819441351629947e-002
      -1.4215394023878128e-001 -1.7272621046218428e-001
      2.2854781944817418e-001 3.4360927876950595e-002
      -1.8921683784945328e-001 5.9895691169402430e-002
      -1.1208086833716359e-002 2.9034961933212222e-001
      2.4317179147534663e-002 -1.9372865546478762e-001
      -4.4974651488257988e-001 1.9088623963410992e-002
      -5.3979328820354766e-001 -4.9052322887513950e-003
      2.6397175327351563e-001 6.2840043921649172e-002
      -3.1866966170234146e-001 1.7373179950233691e-001
      -6.5089699379258806e-002 -1.2076532386310598e-001
      1.2120073085037949e-002 -8.8850044384916227e-002
      6.1633148074012711e-001 1.5041375622948058e-001
      7.0434154239570779e-001 2.9115363576773501e-001
      5.0366889114030214e-002 1.8843890726634638e-001
      -2.0861781021266321e-002 6.5047251879487844e-002
      -3.7299000057781024e-003 -6.7783404194746363e-002
      -1.9587206943867844e-001 -9.0657302539502618e-002
      -2.6016370260007271e-003 2.1254564587719385e-001
      -1.5399466138498630e-001 -6.0219620587658299e-002
      4.6323905721778316e-002 8.9000253693788958e-002
      -6.0857537177499144e-001 -3.1599626598348911e-002
      1.6158846445972963e-001 -5.9862719138345830e-002
      -1.3387319835337846e-001 6.5542279870015249e-002
      -2.2571415745520682e-001 -2.0697369972385443e-002
      2.0787878264759110e-001 -4.6460634852773360e-002
      -2.4269977372456630e-001 3.5191216099940987e-003
      -2.6294906821539799e-001 8.8160916859573252e-002
      -1.1177361077069368e-001 2.9719652450286051e-002
      1.9868791901635645e-002 8.6368956893626128e-002
      -2.0391997590098554e-001 -4.0828587811395900e-001
      -1.4498108639947005e-001 -1.3587140400186248e-001
      8.8751571157859501e-003 -3.8626216532008486e-003
      3.5541593886948764e-001 -4.3995984948384734e-002
      1.1913738722156454e-001 8.7519011227703808e-002
      -1.0256229802641252e-001 7.7329789781928379e-002
      1.7025577215034626e-001 1.5554096907995248e-003
      -3.2078260525970369e-002 2.6997271481062589e-002
      -1.2858523225024562e-002 3.4125867090477433e-004
      1.0671835778536984e-002 1.9577787012530257e-001
      -2.1633672099746470e-001 2.5763549974840004e-002
      1.0878572479561444e-001 -4.0403536835521392e-001
      -5.4499660741074885e-001 -1.7445889836071735e-001
      -1.9331612688342314e-001 3.1671321173676326e-001
      2.9401707240729880e-002 -7.8454468330951432e-002
      3.8958502752542229e-002 2.5602449427104584e-001
      -1.0635590938082524e-001 4.0888541724178808e-002
      -2.0926069892144214e-001 -1.8095550944127362e-001
      3.0785548321787087e-001 -1.3435408092859577e-001
      -7.7184513859298864e-002 4.1494019000344662e-002
      3.7131225155322710e-002 1.1377921493567136e-001
      -2.7516925497239414e-002 -2.7921517626776560e-001
      2.1589852895294948e-001 7.6439760150267058e-002
      -4.7248667776039317e-002 -2.0521680811392701e-001
      2.4769067211893737e-002 -4.3847952064467406e-002
      -2.7226381778567471e-001 -4.6055788031897672e-002
      1.6567972960051738e-001 9.5431375287072809e-002
      -9.2287107295771914e-002 4.2415286166378650e-002
      -1.4016812282869368e-001 -1.7632116883122578e-001
      -1.8115798089418755e-001 -4.8110596453945269e-002
      -5.2599499438090391e-001 -2.1849426102140655e-002
      3.2413465564282784e-001 -3.8703674098244295e-001
      -4.4105654615220535e-001 -2.8492823751251434e-001
      2.1300135394693890e-002 1.7915979506900920e-001
      -7.1943597383880217e-002 -1.7747425608456677e-001
      -1.8208243637788118e-001 2.8220186038705697e-001
      -1.8043804215674028e-001 1.2186766046022718e-001
      -1.5223854893282890e-001 4.7677389478875232e-001
      4.0438081407155119e-001 -1.3338811057475256e-001
      -1.0035086726135618e-001 2.8090077090739959e-002
      3.8870317842624860e-002 3.6038665945985937e-001
      -5.1706211960823444e-002 -2.6890294259600334e-001
      3.2441582874634323e-001 -8.0453056426730840e-002
      -7.4453790830202437e-003 -1.6812562974428300e-001
      -2.7542165226511001e-001 3.0841333450712750e-002
      -2.1841478005034495e-001 -2.1928572023953749e-002
      1.4742537284352383e-001 1.2067354344150982e-001
      2.8208342701305785e-002 -1.5743271370117043e-001
      -1.2176672000062790e-001 -3.4061301863098171e-002
      1.1672719396107779e-001 -1.0186403738250131e-002
      -8.6364535539436446e-002 1.5156605825976835e-001
      1.1571679535069636e-001 -1.9679647037990158e-001
      -4.8238510748273034e-001 -5.6633349439017953e-002
      -2.5707797170133773e-001 -2.3201109028955977e-001
      -1.2373851273961048e-001 -5.1121216948407044e-002
      2.2070454492619195e-002 1.6780083663348742e-002
      -7.4652209169369022e-001 4.3212962850057601e-001
      -8.9006946333820017e-002 2.4223137451227755e-002
      2.2569727784636393e-001 2.1277424341863890e-001
      -2.2350887004715051e-002 -1.4009335826692304e-001
      8.0918351427877316e-002 9.2716383667228591e-002
      -3.1265555214969758e-002 -1.7541363849368655e-001
      1.6839034638201764e-001 4.0000156504030916e-003
      1.6703944942077154e-002 1.0179156344382931e-001
      6.9148735430195271e-002 -8.6487680786534044e-002
      9.8592262036017106e-002 1.7295879553090937e-001
      9.8705220032188443e-002 1.7333171053430055e-001
      -1.6043155572042811e-001 -7.4697371879304003e-002
      -4.1381018749384307e-001 -5.2308426253697665e-002
      2.4268961796391389e-001 -2.0294110420114789e-001
      -7.3729908421956867e-004 1.3340864055143870e-001
      1.3710181666366145e-001 -3.8695042911245658e-001
      3.9206045585379756e-001 -3.0746551035971549e-002
      -1.6422690993667788e-001 5.3543517655669381e-001
      -1.6727737540261342e-001 1.1369204522515346e-001
      9.4961149753331670e-002 2.9701754452701314e-002
      -6.4276146232061215e-001 1.4037165370961746e-001
      -4.7232371002800574e-002 -3.6178093427953956e-001
      1.0961817588835347e-001 -2.0024679418291272e-001
      4.7907095783539758e-002 -2.0966288609003184e-001
      -3.6835756280231824e-001 -2.1884037763266770e-001
      -2.1690216151535072e-001 8.4491629949728586e-002
      1.5310843173973820e-001 1.6006596252227115e-001
      5.2122137309121785e-001 2.0121829354176510e-001
      7.2814544015443392e-002 1.2728521550399646e-001
      1.8769233808674352e-001 -3.3443910695729440e-001
      -5.0401879722006208e-002 -2.3626589374772863e-001
      2.1904819384712818e-001 -7.0612844969236421e-002
      1.3779493618300892e-001 -6.6633449996468891e-002
      1.1768455471989349e-001 -2.0184652750802454e-001
      1.4802610163891580e-001 5.1737707530545879e-002
      -5.3786520638616372e-002 -4.1695017962796267e-002
      -1.1668190512901884e-001 -8.9658408476456439e-003
      -7.8545498222026888e-002 -3.6825699488002600e-002
      4.5814400112498349e-002 2.7856648269000681e-002
      -2.2320250207858219e-001 -1.4729511645440097e-001
      3.2256588897987166e-003 5.3774441914678270e-002
      4.2142677168911229e-002 -8.7170074180102614e-002
      8.4271458564213308e-002 -3.3867085037471423e-001
      -2.1531034405850430e-001 -4.3209938434045159e-001
      -3.2132677590378123e-003 -1.3215150846863860e-001
      -3.4442728874656389e-004 -3.1527618296163373e-001
      1.2186700800943524e-001 -5.3323472159164151e-002
      2.6705036336796434e-001 1.7702341311705333e-001
      9.8987865403832337e-002 1.2720786772593359e-001
      2.1349844260218431e-001 -1.9759580167124252e-001
      1.4273174419782442e-001 -1.8311531334979131e-001
      -7.1468921954300033e-002 -3.9283468717667434e-002
      -1.0198091825487604e-001 -1.5247346412177362e-001
      2.2202003994093847e-001 7.3080982904997413e-002
      3.2213088986075174e-002 8.8546506164578459e-002
      1.7600247869060218e-001 -2.9884492879013052e-002
      4.9628414699894513e-002 -3.3262814622220544e-003
      -4.6141235656596453e-002 -5.1536994735448486e-003
      -2.4476631731240053e-002 -1.3550926360893301e-001
      -1.3546294752178276e-001 -6.6135652105164221e-003
      1.1780930762402063e-001 2.8026188003602365e-001
      -1.4545210499282762e-001 -7.7522471390510564e-002
      -2.6912731781261262e-001 -2.9601247350945759e-001
      -6.6199598207795536e-003 -3.4604428203961722e-002
      -5.9552991906913981e-002 -7.2941411228515579e-002
      -2.2409451485367357e-001 -1.8180189795669763e-001
      1.4370669110569978e-001 1.3351262552092691e-001
      1.1323225579355579e-001 8.9873592410737557e-002
      2.5078675055327137e-002 -4.2665060279434522e-002
      -6.9847836532730481e-002 -8.5575949104628110e-003
      1.1131249148267948e-002 -7.2914981872738427e-003
      2.9784427871991720e-001 2.9768162349513105e-001
      2.8680343703892552e-002 1.9172216971144149e-001
      2.8191317469102247e-002 1.7000026199036491e-001
      1.7281983074255741e-002 2.4946448372028595e-002
      1.6835650807462108e-001 1.6917048018923086e-002
      1.5933792500694044e-002 1.7312097843825768e-002
      -4.3905057819908867e-002 -6.4890298190675169e-002
      7.3943144691115459e-002 -1.9191307202485131e-001
      1.0452500530668082e-001 -2.4012033881612285e-002
      6.7281539375905697e-002 6.7304489403021986e-002
      -1.7133513093832101e-001 -2.7130389164377242e-002
      -3.7869242164237218e-002 4.7000693244471793e-002
      -1.1357200638496291e-001 -8.2707252343363728e-003
      7.5775076832562793e-002 -1.2714450218239023e-001
      -1.4283880878082382e-002 -2.3693083368580684e-001
      1.2156846549174993e-001 2.2363664665392829e-001
      -2.8199234661373812e-001 -2.0684192767171788e-001
      4.7968735607406271e-001 1.1758352678308205e-001
      -1.6369103157367987e-001 2.5781004447021888e-004
      9.4158215919092195e-002 -6.7642548296585458e-003
      1.8634485917363681e-002 1.1934409482210669e-001
      -3.2105921458538683e-001 -7.4263195236273852e-003
      -1.7527102156950305e-001 2.6196595751801327e-001
      -7.1900953368284587e-002 3.3391879381297168e-001
      4.3345468431900763e-001 5.1982336168268373e-001
      -1.2010959627733223e-001 -3.9320949869304754e-002
      -2.5619030127022165e-002 -6.9722535135718397e-002
      3.7911453902417368e-002 -1.3383352338655459e-002
      -1.5251355511165285e-001 -1.1324591220554760e-001
      -1.2789007108084366e-001 -4.2052224635891290e-002
      4.1925118961130931e-001 3.3687114998264933e-001
      5.6584644077603517e-002 -8.7527414944936169e-002
      -2.1576475540043166e-001 -1.2253498272524668e-001
      -1.3200611003561835e-001 -4.7787724167054291e-002
      1.8269443956937098e-001 1.0187875838095321e-001
      -2.3992234879657001e-001 -1.7250810798234409e-001
      1.2508983730593844e-002 4.4475910807988940e-002
      -2.6990994671228485e-001 3.1463123884906893e-003
      3.1631527570629581e-001 -1.9054588546236675e-001
      -1.7419400586156476e-002 -8.2813168681706746e-003
      9.4923164892714781e-002 -2.1462447922364018e-002
      -1.9437957911240120e-001 2.9655126749986827e-001
      -1.7981593969464177e-001 3.0464925673833054e-001
      -2.2581319351136647e-001 2.1674167307001838e-001
      2.5510003114062463e-001 4.6755250790687658e-001
      -3.5072813301361977e-001 -9.7886811728514656e-002
      -1.4203749810799493e-001 1.2936123626157117e-002
      -1.3128882079531462e-001 -2.7397995602060212e-002
      6.7196689271747018e-002 -1.6286836001056637e-001
      -2.2827055700038046e-001 -5.7775113194892674e-002
      4.0915030080260301e-001 -1.9949254059311855e-001
      -7.0432066023039010e-003 2.2856872467356222e-003
      6.9824096431960150e-002 -1.2333136507681104e-001
      2.9901116579386985e-002 -3.6923527714288001e-001
      -2.6615752731888459e-003 1.0951094342064550e-001
      -2.8805476953927017e-001 -3.1528132551962912e-001
      2.6671266870876520e-001 4.5562460070169904e-002
      -2.7452416744791963e-001 -1.4497234105333434e-001
      -2.1009433073179978e-001 -1.9848815034459166e-001
      9.6919099154465574e-002 -1.6928414236881198e-002
      6.8774434270331961e-002 -6.7206253031663488e-003
      3.1569796546754259e-001 2.8777175387187959e-001
      -1.6228065146199327e-001 2.8675037093352007e-001
      4.1811295560699985e-002 1.9052387595674322e-001
      6.2637233234914846e-001 5.2010629564125488e-001
      -2.2520289397834220e-001 8.0682003741728320e-002
      -8.7935934754498721e-002 -1.7608991503157426e-001
      -1.6967442486482462e-001 1.2426399239616900e-002
      8.2899519513684045e-003 7.7684471509359504e-002
      -4.3110935817651053e-001 -1.9391558379082217e-002
      4.2008716778583516e-001 -1.4694987335878107e-001
      -7.0371313674539360e-002 4.9444505116921465e-002
      -3.7366122760200288e-001 -1.4714175153103368e-001
      -1.4783614485384684e-002 -2.6503419887908741e-001
      -3.2566927558351146e-002 1.1073609233956214e-001
      -3.0592146113793856e-001 -1.6810320173276869e-001
      2.9356365814267227e-001 -4.0612086095827265e-003
      -3.2674987877209249e-001 -7.6352380233646877e-002
      -3.0697561432492687e-001 -2.3828773305029419e-001
      5.5518007618575997e-002 -3.7362781097807253e-002
      9.8677275121530142e-002 1.2386927710297327e-002
      -9.5969316051646936e-002 1.4556088993810265e-001
      -1.5332228565666886e-001 2.8006218051623821e-001
      -7.3619924519686755e-002 1.8842621403798057e-001
      5.4591517376566712e-001 4.8293230287513650e-001
      -3.5112868662964108e-001 -7.8551374045603278e-002
      -2.2700092931349315e-002 -2.1390163130863146e-001
      -4.3101731964504270e-001 4.7816878060876346e-002
      -4.2231732572502630e-003 -1.2175064420771345e-001
      -4.3121174441374793e-001 -5.7126146829837993e-002
      4.2931691734617733e-001 3.3705050309862877e-001
      -2.1567181509449873e-001 5.0843533131589971e-002
      -3.6690578218788605e-001 -1.3690260139441104e-001
      1.3713190676165460e-001 -2.8524520656305952e-001
      3.2520998692445784e-002 1.1406647768413680e-001
      -2.3847018860268901e-001 -1.0830018590644838e-001
      2.0555784051517451e-002 1.8848119115656935e-002
      -9.3812711918616704e-002 1.2471407764197905e-001
      -6.0411618499667884e-002 -2.0413210211302413e-001
      4.0735009884401735e-002 1.7349217801195485e-001
      1.7363764881550333e-002 3.6509055420008402e-002
      2.1085386588060540e-001 1.5280422578113598e-001
      -4.5607438012918403e-002 -2.4462458331749981e-002
      4.7672056353632315e-002 -1.4377921959412948e-001
      -7.6633984952708414e-002 -2.0865832183893238e-001
      4.3312846818683970e-001 -3.9089125025617988e-001
      1.4956108465526244e-001 1.2998339381395208e-001
      4.2700770309122602e-002 -1.1585251594488752e-001
      -3.2533707526710871e-002 4.3682929820874586e-002
      6.6323731837590960e-001 1.1329205978720441e-001
      4.9545681710699875e-002 3.0477644244529667e-001
      2.7738530222505425e-002 2.3193306065674130e-001
      4.1446698345644781e-002 -1.7238713344544351e-001
      1.0534155351777302e-001 3.3760188326426449e-001
      -1.6205586526303747e-001 1.3368923801554058e-001
      1.2097064247158636e-001 1.2351851557680268e-001
      5.6206632158924845e-002 7.6505861083385071e-002
      -4.4680785068474879e-002 2.2895443860999484e-001
      -5.4859030654846527e-002 5.6374681172061750e-002
      -1.1813077595024493e-002 -4.4168083820389809e-002
      -1.9988376339896183e-002 2.7085388624493739e-001
      -2.5344762454193087e-001 1.0050578658354882e-001
      1.1478595517392912e-001 -9.5578221092240886e-002
      -2.0851639795458712e-001 -2.9362686801735843e-001
      -3.6272443140033722e-002 2.5423004364572088e-001
      4.9879468385787007e-001 -2.4180981312497637e-001
      2.7570877446735009e-001 -8.7486088086454042e-002
      4.1632458454244334e-002 -5.7891053151335040e-002
      5.6569949516384048e-002 -4.9269348279133894e-002
      2.8544647208544799e-001 1.2184229013253595e-001
      -1.9541316154372261e-002 -8.9490299348412156e-002
      1.7322373258410734e-001 2.6970667286591621e-001
      -2.1240925567401692e-001 9.1290664197856017e-002
      -1.2466723353705561e-001 4.0659627580717700e-001
      -2.4783905209764007e-001 7.3392574542080757e-002
      2.0804551853666534e-001 1.4055762759354973e-001
      -1.6994057105695312e-001 4.0495452838273260e-001
      -5.3127695985714596e-001 2.9427421298268613e-002
      -7.2576096349592237e-002 -2.1209367753340347e-001
      -5.9064744721270782e-002 -3.0600132429923865e-001
      -1.7022556042871756e-002 -5.1199355017904111e-002
      -1.4287666541050379e-002 5.5317038785920793e-002
      9.1889575304074267e-002 -3.7970831351350831e-001
      -1.9446565007937455e-001 1.2205598746582730e-001
      -4.1097287971056584e-001 2.1377075124746656e-001
      4.0008848474505887e-001 -1.3146616721637877e-001
      7.0029481176797276e-002 -6.2527129874087622e-002
      2.5958109095508317e-002 8.4941689182933579e-003
      -3.4009073673265305e-002 -7.5778800166560509e-002
      1.6294755239507949e-001 2.9246060467045815e-001
      1.6322604692158435e-001 2.7318825033887214e-002
      -7.0942515829510625e-002 1.0391228550924363e-001
      -1.2188059461749939e-001 3.2670605367484652e-002
      -1.7145348651376235e-002 -1.2589063391991784e-001
      1.5440684251161343e-001 -1.1218958423869156e-001
      1.2410586961008151e-001 1.3171458252409410e-001
      -2.4275274276210129e-001 2.6439255863588013e-001
      -1.5738583388508712e-001 1.6586001619671101e-001
      -5.2541392935279652e-002 -1.1035791384436708e-001
      -1.0642911561269518e-001 -2.4254464509437865e-001
      1.0413915929556039e-001 7.4388815411258417e-003
      9.1863335423195219e-002 2.9524101067583047e-001
      1.7228462583615473e-001 2.1752417942135140e-003
      -1.1206814461120156e-001 2.5006899594237414e-001
      9.7678334725747246e-002 3.8113277017816544e-001
      -6.9489973374953329e-002 -1.1947588217237556e-001
      4.9567483781407629e-002 -3.5962137236264041e-002
      -2.8346032799023213e-001 9.7589838817853783e-002
      -8.2881417006795036e-002 4.3906419979319676e-002
      1.3227501177197110e-002 1.9390588008882558e-002
      -1.0955600404746024e-001 -1.1582292323400248e-001
      -4.9991169784223313e-002 2.8247876059566343e-002
      -6.3267934334783615e-002 3.9275196924165479e-002
      1.9648421765505725e-001 -8.9806781215598305e-002
      -2.5111536684344439e-002 1.8526766587000743e-002
      8.9780971359742098e-002 1.5045813298830207e-001
      -2.5175383687527148e-001 2.8320685589614947e-001
      1.1451001435489518e-001 -4.2433289390098553e-003
      -4.4883931562571089e-002 -3.4109477818488426e-001
      -4.2581291625500409e-002 1.0640126042729528e-002
      1.6121236112676218e-001 2.7690635155916975e-002
      9.7173548382845615e-002 4.3763031083023812e-001
      -3.0630892625310352e-002 -1.5533720204508647e-001
      -1.3566098704293503e-001 1.1850394485894722e-001
      1.6220515978917976e-001 2.6002464111387708e-001
      -2.5792005289492487e-001 -2.0632785970275633e-001
      2.6893746476807806e-001 5.3561647097840476e-002
      -8.7646978180751012e-002 -1.4109214318853344e-001
      1.3927771610144657e-001 8.4862623553684874e-002
      -9.3442379172280262e-003 -2.0342939505719854e-001
      6.4872588557310831e-002 6.7769587133570994e-002
      -1.0686062139023393e-002 1.8540079033887283e-001
      -1.5900822197343542e-001 9.6476713823005822e-002
      -1.6511935604610317e-001 -2.0946059396195790e-001
      -1.5103400541043815e-001 -5.3031163809386682e-002
      -4.8204433190234521e-002 -3.1147789098356041e-002
      -1.5232572405975456e-001 -1.0677797590956938e-001
      1.4318156204088231e-001 3.4618211263998548e-002
      -1.9642539294058331e-001 -8.2827353875037160e-003
      2.9722282192790614e-003 8.7702513696551715e-002
      -4.7820158064713014e-002 -8.5425582220819848e-002
      -2.5295302357424859e-001 1.4747045355968619e-001
      -1.5133778174016152e-001 -8.0973846488360687e-002
      -1.9221915716862498e-001 1.1562758115745063e-001
      2.3428309874174152e-001 4.5281463489227319e-002
      -3.4400190687160553e-001 5.4652707399632669e-002
      3.3918482864238181e-002 6.4936198985840646e-002
      -1.1493952074935894e-001 -8.4672133367831748e-002
      1.0844562494464992e-003 6.5850240345752986e-002
      3.7470413156244997e-002 1.9682118687348628e-002
      7.8176391816845159e-002 5.2859335623989694e-002
      7.5629136346168066e-002 -4.8653325991676821e-002
      8.8620491157272427e-002 1.5677518201410992e-001
      -4.6444963240454717e-002 -1.1924590673155308e-001
      7.0109329743127044e-003 -3.9985965972032793e-002
      7.3612981209305622e-002 -1.8442642457730904e-001
      -1.3355875563033159e-001 6.6448494017405810e-002
      1.5358638858410334e-001 -5.7383187226383296e-002
      -3.1822595610892297e-002 6.0271912496058747e-002
      9.6235014276986303e-002 9.9117437596550451e-002
      -4.7404319333498326e-002 -1.2336349595104350e-001
      -1.9859897763023854e-001 1.1004939831516536e-001
      -9.3011217427513573e-002 -1.3612049836930998e-001
      -3.2044598063639088e-002 -7.0740581007729897e-002
      -7.2830737017257660e-002 -7.6095712192677731e-002
      -6.4310915805434976e-001 2.2773037494047868e-001
      4.2796722029984002e-001 -6.9214003054282616e-002
      -1.7360494465765214e-001 -3.7264628441363724e-002
      1.1840173553500460e-001 -2.8540803462609326e-002
      -3.5008397116469490e-002 2.0482365538889979e-001
      -1.1542508594952899e-001 7.1253495628066987e-002
      3.0502894760582717e-002 1.2694422126106944e-001
      3.7291891159195300e-003 -1.2322141042159779e-001
      -1.0125137412533329e-001 -7.9328476504465936e-002
      7.3624213771586899e-002 6.8263786722988620e-002
      -7.0988512300976560e-003 -1.7918829604841874e-001
      -1.3232900180059545e-001 2.4752200102999178e-001
      1.1131346416551544e-002 7.6285707719704471e-002
      -1.6409763152944075e-002 4.3471679342481639e-002
      5.3889846838352670e-002 1.0521788866791701e-001
      4.7041958381479627e-002 -9.0905021212846007e-002
      4.0871853742709227e-002 -6.3906270093636613e-002
      -3.8664283321825532e-001 -1.1248904503881436e-001
      6.7586919503431708e-002 4.9840328915408266e-002
      -1.4845456506519972e-001 -7.0095845655176542e-002
      -1.9381490094973339e-001 -2.2132564346179114e-002
      2.8496345615420487e-001 9.8967651427097382e-003
      1.8802032031651584e-002 4.2258681021321593e-003
      1.9288748665183892e-002 -6.5933854574823661e-002
      3.8811557665906699e-001 2.6653111221465442e-001
      -2.1978779974506455e-002 -2.3182181772103148e-002
      -1.3078843551381963e-001 -5.1694294643036549e-002
      -1.7648111757714663e-001 -2.2738512629539076e-001
      -9.6346245569199754e-002 4.5224803404862457e-003
      -1.4550611561007527e-002 1.5225241736160700e-001
      1.7794118192714942e-002 7.1013824125671686e-003
      4.6066377377324726e-002 -5.8605389080438518e-002
      -1.3700193786827644e-001 8.7419234611710903e-002
      1.7866193369483106e-002 9.3635823808511723e-002
      3.7871346899583110e-002 1.2587469519511701e-001
      1.2408773785838846e-001 -9.6371762240673592e-002
      -3.8492455896772831e-002 1.5697714711480801e-001
      1.8913510603733874e-001 -1.9378029540918815e-001
      3.9847295683033891e-002 3.1568088539489247e-001
      -1.9549376913040078e-002 -1.2218184022883689e-001
      -1.0076679449249271e-001 2.1052367292703336e-001
      -2.4200696279668815e-001 -2.8826847937455702e-001
      1.1755845385912972e-001 1.2413367784936152e-002
      4.7850723268090881e-002 1.9865894181939188e-002
      3.0171087878110320e-001 2.3432353560008426e-001
      7.4572760059687937e-002 9.0603810189713516e-002
      -1.0645473174922350e-001 -2.1159358152499780e-002
      -7.3216519644980438e-002 2.6730083473966732e-002
      -3.2265816053441848e-001 -2.3899905097053413e-002
      3.1116617289609059e-003 -1.7046171328000653e-001
      -7.2629837584613471e-002 -1.0920720252901793e-002
      2.7162307340375652e-001 9.3447292278517100e-002
      8.2099099762682010e-002 -4.7975359724668543e-002
      6.0515221709640930e-002 -2.0593681641370309e-001
      -3.9265387586932564e-002 1.1685794058665398e-001
      1.7691085370066995e-001 -1.2275037995441737e-001
      -2.5853912516698201e-002 1.6750899534331434e-001
      -2.3259270689983846e-001 -1.1353256207291525e-001
      2.5516233914538406e-002 -9.8594541337144084e-002
      1.4361535700906303e-001 -1.1943579169000564e-001
      1.9240177883112650e-001 2.5024666732003265e-001
      -2.5252761761853260e-001 -8.2360253218017501e-002
      -1.7736270547322819e-001 -6.7276645497700877e-002
      1.6187180495620301e-002 -1.6455285751405282e-002
      4.4840049588186681e-001 -1.1101953876720852e-001
      -5.9981702963639331e-003 1.0469962205537549e-001
      2.2340944484705926e-002 -7.2079170227670242e-001
      -2.0177592266036137e-001 -1.7341043553790417e-001
      -2.4143208098125229e-001 -9.2605482677830198e-002
      1.4326766524793987e-002 -8.9870977579141231e-001
      -1.0984602941395852e-001 3.0536268175908168e-002
      1.4514526290310212e-001 1.3026304597845662e-001
      3.2310335308137719e-002 -4.8084107985859624e-002
      7.7248346022604580e-002 -3.4874996385625046e-001
      -2.9497534320898487e-002 3.1010193581176189e-002
      -3.5149192947589954e-002 -8.6331576638847149e-002
      -6.3673487522499742e-003 1.5572521134065237e-001
      3.2645365343176386e-001 1.5173230424071088e-001
      5.7072114739043934e-003 9.6406379643781903e-002
      9.8228148480503805e-002 -1.8766540202960794e-001
      1.0045894691759691e-001 1.3011566173790648e-001
      -2.7324395693559517e-001 -1.7478534335742568e-001
      -1.5751491803070977e-001 -1.8817945865750717e-002
      2.6657781411032963e-002 -3.4026634338429305e-002
      8.2991530807520544e-002 1.3461106617167509e-001
      -1.9683809152583384e-001 3.8399544703650583e-002
      -2.5124184397498878e-002 -4.6275873110606736e-001
      -2.0163409275775124e-001 3.8826036082316018e-001
      -1.3453456031317576e-001 -1.3028167680810646e-001
      1.5863420604210327e-002 -1.9581580275646063e-001
      -1.3077435916694530e-001 -1.6923482761789888e-001
      -4.9398432929486896e-002 4.0316181903342102e-001
      1.1003392933926506e-001 -3.9546873336786852e-002
      4.9021085408617791e-002 8.2626102471077115e-002
      -8.0039046137925215e-002 1.0513844437142997e-002
      -4.0454627723506331e-002 -2.0520575845186839e-001
      1.8182966426103658e-002 3.8801789878517778e-001
      1.6776967278867724e-002 -1.2222119665984972e-001
      -2.2163475372688182e-001 1.2841087875425351e-002
      1.3506104323984466e-001 4.3088164966592325e-002
      6.5388686798182452e-002 3.6056102493826479e-002
      -3.7238304467840613e-002 -6.6570794441411354e-002
      -2.2685732400634115e-001 -1.9074546887036478e-001
      2.0051640287970110e-001 7.6617194157287863e-002
      5.3405520901596393e-002 -1.6270060171901624e-001
      -8.8832592911198396e-002 1.6496733289666521e-001
      2.1696283233979187e-002 -1.1017210910215008e-001
      -2.3575302177444513e-001 1.2512379710635663e-001
      -1.5056875746660656e-001 -7.3455750585961696e-002
      -5.9845338233231925e-002 1.8196673490668727e-001
      -1.6747195355624095e-001 -2.4116512194404353e-002
      -9.6799109697856510e-003 9.8310164702516592e-002
      3.4375012571233647e-002 6.6980308542363587e-002
      -2.0518507161049800e-002 6.9821700463047240e-002
      -9.2076280620169162e-002 7.0663276966627137e-002
      3.9685973402127456e-002 -2.0873699004122234e-001
      -4.9254745688790229e-002 1.8452626079158199e-001
      -9.4068373671683914e-002 -1.0848096080241250e-001
      -3.3676029775139465e-001 -6.3849435375511215e-002
      9.6660351665555894e-002 1.0032576842639461e-003
      -1.6458775125510988e-001 4.9466383833584759e-002
      -1.6206043110167261e-002 -4.6964097618903952e-002
      4.4794283825305453e-002 -1.8138016425371423e-001
      -1.2495592937058930e-002 -1.3050971822226828e-002
      -3.5803667888573504e-001 -1.3138729258838672e-001
      -2.5698630280663701e-002 -1.1265818132869110e-001
      3.2533675312434368e-002 2.3696027252247773e-002
      -1.5249880222724575e-002 3.9136945773922772e-002
      1.6448015527858417e-001 2.9620141560108743e-001
      1.1337842983383769e-002 1.1231397202282816e-002
      -1.2783670029354571e-001 -1.2393486744093449e-002
      3.0235170339986389e-001 1.1333311254497691e-003
      2.5980168008854075e-002 2.7788073728907042e-002
      -7.7005624643104037e-002 9.5979727699398623e-002
      -7.5279945145976537e-002 7.2101988105453138e-002
      6.5684767259409096e-002 -4.9697839411442742e-002
      -1.4116916294042084e-001 1.1349979405617129e-001
      -2.7454044628675317e-002 -1.2483785770210323e-001
      -2.2238073314223833e-001 -2.7003763977190454e-001
      -7.9949770084799573e-002 -9.6864646984056446e-002
      -2.3259981772203045e-001 -9.6675538408843548e-002
      1.8162664728096113e-002 -1.3579436284314625e-001
      -9.4836755302026010e-002 -6.2337120515290903e-002
      5.3907699720805918e-002 1.2368951593665614e-002
      -3.2535495864899261e-001 -8.1016316846460323e-002
      2.5758839962535784e-001 -2.7698321944759624e-001
      5.5796469896476679e-002 3.5944531607606633e-001
      -3.7427827956977168e-002 1.0661476866481251e-001
      6.0260281117804265e-002 -3.1003675550504685e-002
      -3.3840751203770073e-002 -1.4007731788139853e-002
      -2.7208326453027781e-001 -5.2548619041070103e-002
      3.7907607733721699e-001 3.0347864210613244e-002
      -1.3041246044903498e-001 -4.4994086746515366e-002
      8.4956059267728617e-002 2.9697369460345235e-002
      -6.3199546794821759e-002 2.1965553651679341e-002
      -2.3722413185118599e-002 -1.7107911592276406e-001
      -3.8722649219226316e-002 4.8326063190191455e-002
      7.9198332638330413e-002 -1.5669282523840155e-002
      -5.3978451591467067e-002 -2.6637708558913942e-002
      -1.4113537287028594e-001 -7.4524459590579822e-002
      1.1765921612917482e-001 -1.3509940991270206e-001
      -3.2000599144445495e-002 -1.5873745672953246e-001
      8.2696267058083722e-002 -2.2873929135656616e-002
      5.7859791513345893e-001 6.5005309509425249e-002
      -2.8697695346293689e-001 -5.1671111058400609e-002
      -8.1291684787356197e-003 -2.0906860561652268e-001
      2.0034359799321089e-001 3.3368125549984667e-002
      -1.7002144153085513e-002 7.3158952634275146e-002
      1.7632297879954070e-001 -4.3386156721266868e-002
      5.9490856177535625e-003 -1.3891630433182844e-001
      -3.4232570486626196e-001 -6.6728776852817320e-002
      3.1888236071367754e-001 -5.7116677291831688e-002
      -3.3905443696625258e-002 -1.0388278243665230e-001
      -3.9646827658890028e-002 8.7942746926322257e-002
      -7.0870421178043819e-002 -6.3616769873136345e-002
      -4.9733089226245367e-003 -7.8973103183016605e-002
      -3.8548652070872713e-002 -3.2093683648614363e-001
      -5.0216851406483284e-002 8.3172139421810939e-002
      -7.8912902611275204e-002 -3.6621136174921895e-002
      1.3101691675708446e-001 2.7469308262948720e-002
      -7.4343754818493896e-002 3.5682933103130365e-002
      -1.5336885469265715e-002 -1.0139962765099896e-001
      3.3357932658334616e-001 3.3132116821609975e-001
      9.1879520324518249e-001 6.4770478961837977e-002
      -2.0014211650666111e-001 -1.0995815317656980e-002
      -1.1928556742266046e-001 -9.1209929904707721e-002
      5.6885152899331146e-002 -2.4309437435614381e-001
      -8.1667278569059285e-003 -4.5726399576603134e-002
      1.5594365463524268e-001 -2.0968398704775093e-001
      4.1295467759506809e-003 8.3496809173415724e-003
      -1.6181521299165433e-001 -7.7513344147504279e-003
      1.7020996423938908e-001 -1.2020761621020337e-001
      -5.0084245402199745e-001 -8.5959396233201840e-002
      -3.8587679711716977e-002 1.9753065146127075e-001
      9.7617566659905688e-002 3.7394138917495656e-002
      -1.0967513030575802e-002 -1.6322871527385263e-001
      -1.1929817298463447e-001 -1.9807122767277097e-001
      -1.2662906861822512e-001 -1.4691312871408091e-001
      -1.1799204272954293e-001 1.9551792498814538e-001
      -2.1439329986194666e-001 1.4762219262414422e-001
      2.0844280137032399e-002 2.9541886306676635e-001
      -8.9365641215770134e-002 -8.3802519342241991e-002
      2.4842876340657527e-001 1.8278276060147094e-001
      1.2891294743808995e-001 2.3080520838375296e-001
      5.4846335775982621e-002 2.5301932332161541e-002
      -7.7668979666720719e-002 -1.6029736764755212e-001
      -3.4118024252451246e-001 -4.4568909627426745e-001
      -2.8419032702365433e-002 -1.1684969459510303e-001
      -1.1371628792817025e-001 2.1931935961375917e-001
      7.9808931687466427e-003 8.0285091456476540e-002
      -7.2245310264628659e-002 -1.5211112055315579e-001
      1.9613696876543446e-001 1.3934977811962436e-003
      3.2449131609209181e-001 -9.4075861015936076e-003
      7.1363712751814010e-002 1.5614950010941933e-001
      -4.0168024663809317e-002 -1.6298199923923062e-001
      -7.3946666193201293e-003 -4.6705310483980043e-002
      -1.3163558982469678e-001 -2.8999888105374603e-002
      -1.0664331795727056e-001 -7.4087387827300455e-002
      -1.0153024012541451e-001 1.0557593886803121e-001
      -1.4986867655010416e-001 2.4322881361233804e-002
      5.0070758885836036e-002 -2.8163429678797959e-002
      -8.3326788387551420e-002 4.4613152078566060e-001
      -6.6139166419430344e-003 4.6422811460400626e-001
      -2.2264340097300842e-001 1.0820371951163740e-001
      -9.6403786675538936e-002 -1.1032747503641172e-001
      -5.9260087439363389e-002 -1.1758117564129954e-001
      1.6910552401435350e-001 -1.2519793316328784e-002
      -2.0285578389741477e-002 -9.8349508563219973e-002
      -3.0396539256852040e-002 1.8257433901528933e-001
      1.1294405274586261e-001 -1.8193309185213211e-001
      -3.5653961861972699e-001 5.8801152329782731e-002
      1.2278197855828925e-001 -3.2377834933230681e-002
      2.6441848959019754e-001 -3.5194602900441414e-002
      -8.2791328972511791e-002 -6.6851429324894643e-002
      -4.9600891196023372e-002 2.9114051928485424e-001
      3.8252121696119218e-002 -4.5167037056242643e-002
      -1.7775675691823511e-001 1.7447371493807473e-001
      -9.5347189750959530e-002 -5.8946415086624016e-002
      -2.2773748867772867e-001 1.3295196653353633e-001
      -9.9150102885306249e-002 2.1421712653505235e-002
      2.5891689004511070e-001 -8.5346821735633946e-002
      -2.6845916083622690e-001 2.1830196284493769e-001
      1.9857927463964398e-001 1.9755794229243598e-001
      -3.1314866069351986e-002 7.2695942557732415e-002
      -3.4218126794657466e-001 -2.7750388842775860e-002
      -1.5315863741094851e-001 -1.3170675239391708e-001
      3.8486290666656608e-001 -2.8227553518662400e-002
      3.9505785669443870e-002 -6.5218410558844961e-002
      -1.1483505070166837e-001 1.8200453831392266e-001
      -4.2102357316173192e-002 -6.4020483996343483e-002
      -1.7198274330791072e-001 5.9120860561189856e-002
      1.4021402605274078e-001 9.2375310552403583e-002
      3.8860739437617364e-001 -2.1344109916970691e-001
      -3.4853083759777477e-002 -9.8085665237653927e-002
      -3.7220179985512872e-002 1.5278565600334731e-001
      1.5003558411905396e-001 1.2076823582873708e-001
      -1.4498999411802035e-001 3.3958069670107470e-002
      -1.4458791947897173e-001 -2.0903391002635507e-002
      -1.2311055219599329e-001 2.5166333832925242e-001
      -1.3478229592700491e-001 1.3276417889061307e-001
      2.1685494050506057e-001 5.6898659704973575e-003
      -3.3170535413654684e-001 3.1460357102721292e-001
      1.5106884268913523e-001 7.1517564819200366e-002
      1.3927995159919429e-001 -6.1380723940799756e-002
      -3.8369465336505310e-001 2.5324111063520515e-002
      -7.2496064688056736e-002 -1.2647674456591873e-001
      -4.5325950944524402e-003 5.6939795937142858e-002
      1.0988262641182965e-001 -9.7115839001031698e-002
      -7.0771961712458989e-002 1.8364320146167060e-001
      -3.2164297312370381e-002 -2.9237708628891301e-002
      7.4939720169004756e-002 -7.2471568128805106e-003
      -1.1565152370438127e-001 4.0245249724922501e-002
      1.7310648851679530e-001 -1.6282687236208776e-001
      -3.8132227106172284e-002 -9.3323820003074084e-002
      -4.4841694373242330e-001 -3.7842190051934338e-001
      -1.6066710741675483e-001 -6.9183595747452878e-002
      -2.7422187138599790e+000 5.7676200781447313e-002
      -1.3474314954972448e+000 -7.5172405752765370e-001
      2.4501962128160443e-001 3.1999545012628483e-001
      4.0090744376979159e-001 -3.0070455540823104e-002
      1.2493855269033884e+000 4.7186534992713514e-001
      -5.2048542506566409e-001 5.0358120526884498e-001
      4.7673491409361141e-001 2.4594930258759815e-001
      5.6469799001612386e-001 6.0256041909486149e-002
      1.6018125895233057e-001 1.3178137816967900e-001
      -4.1886932681241784e-001 1.3418773347187959e-001
      -1.7317226435902375e-001 1.9475510749866945e-001
      -2.6603993414917138e-001 -8.8667704660099789e-001
      3.6397411550227188e-002 1.4536063897539420e-001
      -9.0796598939467155e-001 -8.7059106304393466e-002
      -3.3138401543689328e-001 -1.5906895034356985e-001
      8.8928976194238085e-001 -4.7289749140878579e-001
      1.3531372318456558e-001 -4.3707427792906400e-001
      1.7312281110661059e-002 3.1082604532455149e-001
      9.0125910852817917e-002 -2.6768296744540659e-001
      3.9993642465098365e-002 -2.4934327277656851e-001
      1.7995710787353788e-002 1.0948193994291702e-001
      -1.9850093652422290e-001 -6.4869455675366533e-002
      1.3898475024149581e-001 -1.7273184845587661e-001
      6.5915047536957783e-001 1.6548386446973978e-001
      -1.1990942679971328e-001 -7.5339102918349471e-002
      1.2461073396937093e-001 6.2358298932202925e-002
      2.7561356959091271e-001 3.4111997894243962e-002
      -1.0442626410081504e-001 1.8483655241087940e-001
      -2.1864382402852593e-002 8.9714868798652370e-002
      2.1901827182011355e-001 3.3835799289277810e-002
      7.0678640864766010e-002 -6.5423975328490480e-002
      -2.6563786253682053e-001 -2.0235989470775662e-001
      -4.1154739043932942e-001 -2.8544813911276690e-001
      -3.8599259217929516e-001 1.6676449611765673e-001
      -5.3409449265309272e-002 1.4345675246633280e-001
      -3.0210261569537787e-002 8.6076322917103196e-002
      -4.6559836558125667e-001 2.2746878258232703e-001
      -2.1959491661494208e-002 2.2259834941973614e-001
      -3.1222346558555492e-001 1.3674124628327549e-002
      -1.9098294097264244e-002 7.4396231198986112e-002
      2.6931508496011453e-001 -2.2268411685215764e-001
      1.5514795315654311e+000 1.9787043591256881e-002
      2.3605915883501050e-001 -9.2831555185305836e-002
      3.9964854963053097e-002 1.8887850671812936e-001
      -3.8470660877859122e-002 2.3594981751000419e-002
      1.1285045411626478e-001 6.9598919506394977e-002
      -1.2218903800614134e+000 4.5392885496575282e-002
      -2.9217100991168771e-001 -6.2273380179740004e-002
      4.5879252438988849e-001 1.7705938407847577e-001
      1.0598375238404474e-001 5.3926153751751235e-002
      -1.8164440915587185e-001 1.5171930687360388e-001
      -1.1842605941386503e-001 -4.9177560632903287e-002
      4.0992119735082755e-001 -4.3245129813721150e-001
      1.4875863410145976e-001 -1.1871182526288712e-001
      1.9471371025625260e-002 3.0979022756829194e-001
      -2.7504003532653526e-001 -5.8030961933344927e-001
      -1.5850454836867511e+000 8.5548490632983665e-001
      1.3369190627082325e-001 -1.3966618517195031e-001
      6.1529753480255175e-002 1.2384576760719149e-001
      -5.9191051825341900e-002 -7.2267189818109548e-002
      1.0878255382311736e-001 6.4593721482761213e-001
      8.8445213744613416e-001 -1.0845922514302148e-001
      1.9271381258716078e-001 -2.4364152197837741e-001
      -4.9681749229742701e-002 3.5926016608445702e-002
      4.4437208069248435e-001 -2.4703026335160375e-001
      1.2364989558679021e-003 1.6249488534868031e-001
      4.9318324631669984e-002 -2.1602288300600367e-001
      6.3469122986279713e-002 -1.7105472420972298e-001
      7.1521403680495987e-001 1.1538569998725742e-001
      -1.4313446554585699e-001 3.1744029409627228e-001
      -1.7084853635910899e-001 3.2634455504272064e-001
      -2.9183873258342174e-001 -6.3615523369103755e-002
      8.0454113452060505e-001 -6.8898606098709414e-001
      1.2495653764047245e-002 3.2365295896049015e-002
      8.9616133285156580e-002 2.1364609446502419e-001
      3.6650102492233133e-002 8.8058244537030095e-002
      -4.5169338126221220e-001 1.4701351527423766e-002
      5.1247273880844668e-001 -3.8746064451181416e-003
      4.8412201794937720e-001 -1.9454413659324418e-001
      -1.3358840227680987e-002 -1.5977488130750916e-001
      -1.4380274819546787e-002 -5.6952369020395181e-002
      -1.2080669455635629e+000 1.1891259813177915e-001
      -4.9433435193705505e-001 2.3423311816926554e-001
      -2.8575137776461657e-001 -2.6189476936408251e-001
      -5.8872544806639471e-001 2.8904725146048144e-001
      2.0658255795137237e-001 2.1684204630999201e-001
      -1.3352254710752356e-001 6.7295821069070685e-002
      1.3361092538927200e-001 -6.4919929522797057e-002
      2.2380305804158662e-001 6.6649457978981164e-001
      6.4965230011494818e-002 -2.0998758009015389e-001
      2.4726149800400474e-001 8.4327537778806805e-001
      5.1154563259459063e-001 -4.0231509857389958e-001
      3.5658621221940523e-001 5.0095367926653045e-001
      -3.0944339132619854e-002 1.2668871101210802e-001
      2.0540755735315291e-001 7.6260262541844218e-002
      1.3820537114480755e-001 -1.8264728705967617e-001
      5.5295797639764910e-001 -1.6971684506020859e-001
      -1.2601207501095982e-001 1.4143650180215722e-001
      6.7413076055500432e-001 4.1315082503703698e-001
      1.6647525762176107e-001 -7.1131647695595851e-002
      -2.6165149685307580e-002 -5.3891738255051946e-002
      -2.1186794317954069e-001 1.8230463442126921e-001
      -2.2172641925441380e-001 2.9663618239397038e-001
      -2.5906068454484710e-001 -5.3497731828155169e-002
      9.9793985362554738e-002 6.0539625667753921e-002
      3.5734267969764055e-001 -3.1455318149135136e-001
      -1.2071641768672432e-001 2.9819460356694988e-001
      -2.0187293246022484e-001 1.3706260128432332e-001
      1.0085492884949034e-001 1.2157155729602268e-001
      -4.3706454786687075e-002 -1.0824871011857716e-001
      -2.7186268358955756e-001 5.6308428973506064e-001
      7.3766651485585699e-001 -1.3345839899052148e-001
      -3.0215267205533147e-001 3.4063467320704743e-001
      -4.0904245114046334e-001 1.6202698677904998e-001
      3.2110460156421305e-001 1.2076100968301134e-001
      -3.8921478622251965e-001 1.2652125658874389e-001
      8.6850269096822108e-001 -3.9100619811667923e-002
      -1.0848524632166724e-001 4.0175686187929494e-002
      8.1889051243368635e-002 -7.8377360185932915e-002
      -3.3645475359725258e-002 6.3086591380622781e-001
      1.7359825418765340e-001 -4.0981938692005415e-001
      7.2045255978771938e-001 -1.5638640041603308e-001
      4.7418530834558725e-001 -9.7482661002584653e-002
      -1.5118135203213162e-001 5.6274307454095777e-002
      1.2389050293785703e-001 -6.1843563115372790e-001
      4.5333857796827431e-001 -1.0906414856946534e-001
      -2.1125970731536530e-002 -6.2726157332875995e-002
      -2.1366657148752849e-001 3.0131089321278842e-001
      5.8044074373685151e-001 -1.7058727623041789e-001
      -1.0547481145925047e-001 5.1236998040431225e-001
      -3.0284236349210153e-001 -9.9106739349889242e-002
      -4.3777759555272860e-001 -1.8591239549941033e-001
      6.1872876548932743e-001 -2.0492015310675496e-001
      -5.6102364946421885e-003 5.3508406365593275e-001
      2.1291502274722157e-001 -3.0397233443013399e-001
      5.0542101782072212e-002 3.1681363221887637e-001
      -1.8681975450126864e-001 4.5000654915209479e-002
      3.9295166420194888e-001 5.0892408030944997e-002
      -4.7878548075052950e-002 -4.4174617602034427e-001
      -1.0899545298270509e-001 1.3880732172389643e+000
      -7.2930052711658866e-001 -2.8129109276967640e-001
      2.2372990434380621e-001 3.0209627419297552e-001
      4.1657838226764499e-001 -6.4489071740493425e-002
      -5.2144032008918073e-001 3.4527770217089204e-001
      7.5186066498852677e-002 -1.5363729316259572e-001
      5.7877233979517340e-001 -1.3143855315730457e-001
      -1.5128005516050289e-001 -2.1773932870406454e-001
      -7.7023061379414293e-001 2.0754514003260127e-001
      1.5794372464326656e-001 -5.0947096383893109e-002
      -2.0268955624848944e-001 6.7051155076874439e-002
      -8.8197397273518580e-002 -1.3763066292977966e-001
      -1.0373661164497945e+000 2.1270304927284305e-002
      7.5742992160144684e-001 5.8869178623359197e-001
      -3.3209289138022399e-003 -2.1649428764144796e-001
      2.2568813202494106e-001 -5.2578827037615933e-002
      -3.7230800870390046e-002 -2.3121673823342709e-002
      -4.8407113477480618e-001 1.3362038083237507e-001
      9.9224442239630561e-002 -1.5742597360079646e-001
      -1.1039934850634114e-001 -1.1029296006572945e-001
      -4.5089639474327994e-002 4.7021434331151546e-001
      -1.6561915548221845e-001 5.6868957276191845e-002
      -1.7417804310521584e-001 9.1874978663816248e-002
      6.2400787105638851e-002 -6.1799310470933622e-001
      -2.8994821442326241e-001 -4.2451981300765579e-001
      -1.2718038559528691e-001 8.1032230405217676e-002
      2.8017877756895337e-001 2.5195179336826179e-001
      -6.3170542148098391e-002 1.2877723706397934e-001
      -8.6394446330616659e-001 2.3555509037346808e-001
      -2.2339327968905684e-001 1.4026272446142141e-001
      -1.1823374520035337e-001 1.0063511105059197e+000
      -1.0155620677653621e-001 -6.6344404342485813e-002
      -7.5817738402691692e-001 -2.2787226294571841e-001
      1.3309899853480744e-001 4.8352360698458174e-001
      -4.4735434726619738e-001 6.2504526290207724e-002
      -8.3421576968637251e-002 -9.2797528426931369e-002
      -6.2947314651765202e-002 -2.4448598877731806e-002
      4.3492277674133072e-003 1.6396702507247816e-002
      1.0340926188808976e-001 1.1947071534784302e-002
      1.3448791770712254e-002 -1.3976177616311986e-001
      -9.7668639165268606e-002 -1.2828109969299459e-001
      -1.4465200504462623e+000 1.3374248825604163e-001
      -1.2304596821416971e+000 -1.6014408307195080e+000
      4.7730522049333562e-001 -3.3273629893583690e-003
      -3.8343112345324898e-001 -7.0402479804007234e-001
      4.4456962526061361e-001 8.7509434164960986e-001
      -1.6583357694349901e-001 5.2249405878312438e-001
      -1.3438940051501866e-001 4.2938937420844425e-001
      4.2823240079578923e-001 -2.5750179445704614e-002
      -9.0835354345079056e-002 -1.1412508226397387e-001
      -5.9943908103339449e-001 -5.7444367842882071e-001
      3.0618408206538583e-001 3.7455055554697542e-001
      6.8021413557095745e-001 -2.3135149607545311e+000
      -6.4694868430674413e-001 1.0933971796705335e+000
      -4.7150450853385026e-002 2.5380260313502767e-001
      -1.0981821742328630e-002 6.5516084520858586e-001
      1.0819881445767554e-001 -6.6836616135736293e-001
      7.0416484580351790e-001 -1.4319651651624419e+000
      9.3030200506311209e-002 7.7181602129918037e-001
      1.3092189017002678e-001 -1.6295130515916786e-001
      3.5566806063891510e-002 -7.7977611957016046e-001
      -1.7367128378335024e+000 -9.5237282444523403e-004
      -5.3895620430762636e-001 -9.3154879713326852e-002
      2.3045136260247656e-001 3.0636488493350900e-001
      5.8554823301434167e-001 -1.2837190838208185e-001
      7.0109182225666045e-001 2.0887731653828501e-001
      -5.9938875384655976e-001 5.2680658962065119e-001
      4.0953348318700594e-001 1.1011514614021387e-001
      -2.3683481389764834e-002 -1.1807835521026225e-001
      1.5101423233948141e-001 1.0056223798712158e+000
      -5.3407234559325500e-001 -4.4224566705109841e-001
      -4.6494857437349374e-001 -1.9242562807484737e-001
      -2.8871391614142783e-001 5.6331988382548881e-001
      -1.5131749654917546e+000 -2.1424389704530050e-001
      -2.6242714234853853e-001 -7.2229360917535193e-002
      -2.3486066899364855e-001 1.0290802171849853e-001
      1.1690419769255764e+000 1.3653115990250569e-001
      3.2245236937103161e-001 -7.7519296737480792e-001
      -1.9417637274532779e-001 -3.3781154147272946e-001
      6.7955915617522775e-002 -2.1921647319585186e-001
      2.4172556147157048e-002 1.4603526081321108e-001
      6.3078445175154685e-001 5.0592667799103368e-002
      1.5646756531002892e-001 -4.3321730266209180e-001
      -9.7978019575527903e-002 -1.0568940823267745e-001
      -1.1614537509084980e-001 3.8853966549754163e-002
      5.6975393268240269e-002 -1.8139741534017040e-002
      -1.8362072002950248e-002 -6.7491444397420575e-001
      2.5804467942501336e-001 -2.1387727103607637e-001
      8.4273542397988810e-001 -1.3013563876531695e-001
      1.2080467728301242e-001 9.2269882758316980e-003
      -1.2835153563634363e-001 -1.1428171717384913e-001
      1.5285901403220692e-001 2.2036760415283846e-001
      7.4912714945758074e-002 -9.0675694365574849e-002
      5.2388388179753526e-002 -1.4400275219278050e-001
      -4.8184095260147092e-001 8.0169164158534451e-002
      -1.3780397067208627e-001 -5.8705666849000825e-002
      5.8470416540903264e-002 -4.1506037385311767e-001
      -5.0294997949843975e-002 1.6374208663908617e-002
      -8.8883009103826564e-003 -1.5847559476084036e-001
      -1.1987469366577830e-001 -2.3989952802669308e-002
      9.5423319326352812e-002 9.3113208682012866e-003
      7.5884757186904656e-002 7.3256599076146406e-003
      5.8004789127942924e-001 1.6454609824077540e-001
      -8.3135018882956435e-002 1.0544494384961934e-002
      -3.8900510534926193e-002 1.4509075425031073e-001
      -3.1511778792397604e-001 -2.3647149055156642e-002
      -2.3766756591483384e-001 -1.8641648259880250e-001
      -1.7412658266608864e-002 -9.8699881385399701e-002
      -1.7300612158033010e-001 5.2217563788293734e-003
      -2.6063338303809097e-001 -3.8867755201528853e-002
      -6.6659191890132286e-001 1.4801004840486987e-001
      9.7824620152084674e-001 1.8273692697840208e-001
      8.6358555420746524e-002 -7.2264262740014485e-003
      1.0975764975708320e-001 2.4659131833951664e-001
      -1.6925415530987899e-002 -9.0713447274550718e-002
      -1.6916414904343594e-001 -2.1744442025920457e-001
      5.7853180895997458e-001 3.1802628848028862e-002
      -1.1267574588186785e-002 3.4105207313877356e-001
      9.9311888030950146e-002 -5.0891627754487456e-001
      -4.3789693962720658e-002 -1.5059740189736787e-001
      1.3926986975080896e-001 -4.9773429566892430e-002
      -2.5840446262686417e-001 1.0341408792554044e-001
      2.3177939998446279e-001 -3.6746755039396756e-002
      2.5019043915801731e-001 -4.3531009401656234e-001
      -1.1962838930827796e-001 1.7612455685653133e-001
      2.1826680671846066e-002 -3.3091499417578815e-002
      9.3124689053440107e-003 -2.5521148904970653e-001
      9.9885108214487636e-002 -2.9606252183743642e-001
      1.1728394337407422e-001 2.0998226471399151e-001
      -1.3116779752626398e-001 4.9533762692402901e-002
      -1.1478078137615491e-001 -1.6815835043350012e-002
      4.3909010298860207e-001 1.4501243815493225e-001
      9.8511985344079844e-002 1.8377873881274914e-001
      7.2306248546252772e-001 1.0004934409513651e-001
      -1.0022642859864912e-001 -5.1515060392582773e-002
      -2.7120081499088883e-001 5.8411664278036207e-003
      -6.0140902861544512e-002 1.1242083437706762e-001
      3.4151067001913715e-001 -1.2658951016653772e-001
      -9.3767481910301459e-002 -2.6775525410206852e-001
      1.5814998206432052e-001 1.5388448348003540e-002
      -2.3181794511692422e-001 2.4082624593231389e-001
      -1.3318050250323699e-001 3.4642297371867324e-002
      -1.1247776744256328e-001 9.2804603143562509e-002
      2.5810181452402420e-001 9.4676503662910816e-001
      -7.3857010464319395e-001 -3.4036540928841086e-001
      9.5221639292664706e-001 -1.4228908515436406e-001
      -3.5662957145890090e-001 -2.4851275950879825e-001
      1.3062382834088826e-001 1.7437313226170240e-001
      3.1910583170811541e-001 -2.9154865656516066e-001
      -1.0345306513430652e-001 2.8868562459154607e-002
      -2.2352672615641045e-001 -2.3257690782034263e-001
      3.2330665478641524e-001 1.2969682637751725e-001
      -3.7374323739102916e-001 -4.4239193240986485e-001
      3.0741975429187163e-001 2.9379898304928670e-001
      5.3848270108857302e-002 -1.8015763213119820e-001
      9.8526348854098444e-002 1.6955949630140174e-001
      -3.6132545290560769e-001 -2.1345879996335967e-001
      -4.7442069310251966e-001 -1.3009402655833760e-001
      -7.2693176990457548e-002 2.9897167324908297e-001
      -1.5841555127611963e-002 -3.4573455389478591e-003
      -1.0029677841880325e-002 -5.2836626832194075e-002
      6.1722889730339514e-001 1.3123120525512647e-001
      2.2335276747261528e-002 -1.6045254695580335e-002
      -2.2336091525221452e-001 -8.5754033788328687e-002
      1.5348852846839908e-001 -8.7011341581927373e-002
      3.0251170314033471e-001 -2.7046457011892844e-002
      -3.5238355301893676e-003 8.2271255965461781e-002
      -1.5743860035880591e-001 -1.7929612906408612e-002
      4.2092730776854675e-001 1.6832844318617970e-001
      1.0115514700492466e-001 -3.3828942631624469e-002
      -6.2802384115766730e-001 6.9633764002344500e-001
      -3.7232058659839090e-001 1.0500527877125031e-001
      7.2291538687870124e-002 1.4689873118261215e-001
      8.0820227995940047e-002 2.1879539867552730e-001
      -6.2047073574392730e-001 -9.5227382070868324e-002
      -1.3690939524909046e-001 -1.0570429674359817e-002
      4.3039451493351491e-002 -5.7438073954156732e-001
      -2.6870259101569849e-001 -1.6595694774524700e-001
      2.0336981968064516e-001 1.4772388645565762e-001
      -2.1335425446252809e-001 -2.3752528763264377e-001
      1.2070830395535669e-001 -5.3205628225424635e-002
      -3.4124593471552078e-001 -2.8087330772476016e-001
      3.0552742110469600e-001 5.3776941513553411e-001
      -1.9498697302016316e-001 7.4664568581429794e-002
      2.0420927037553679e-001 2.2996443218981796e-001
      -6.4198855513340458e-001 1.9249225807426015e-001
      2.5928579887185671e-001 2.6884746353770500e-001
      -2.4718686254631703e-001 3.0545748251244886e-001
      4.0759324433196256e-002 9.2234783240815188e-002
      3.1364078480123479e-002 -9.8798293371435322e-002
      5.5440726068339730e-001 -1.2011013611049254e-001
      -6.6795886651774328e-001 6.3478485467676996e-002
      7.6123532902729718e-001 8.9375402666992010e-002
      -1.4501649679487555e-001 -3.5082935835952789e-001
      -4.6985003043272744e-001 2.0990558574525173e-001
      1.1583062360941217e-001 -4.3427242421239194e-002
      -2.3548189151847271e-001 -1.4199771465611868e-001
      2.5256089142355204e-001 -5.1592614314460794e-001
      -1.6212716104881120e-001 -2.1407450846968124e-001
      -2.7891768211923607e-001 -5.3425066165300750e-001
      -5.3229373264819628e-002 1.0403192405119026e-001
      9.1727471936127369e-001 9.6921729428660605e-002
      7.8114989916099956e-002 6.1979853764555469e-002
      -2.2427348554159129e-001 -5.7872007216557519e-001
      4.1609844392699213e-001 4.6079148541928461e-002
      -4.0822873919531977e-001 1.5224000596979839e-002
      6.6699883504174232e-002 2.9505350852911241e-002
      -5.8076369707514586e-001 -1.8231201741016617e-001
      -5.4724598841505094e-002 2.5144572950721078e-001
      2.8734567325270127e-001 9.2665217678366274e-002
      1.5723803411186555e-002 -7.4999164723786482e-002
      -5.5685927029096260e-001 3.3788535851923575e-002
      3.4907855852987341e-001 -5.5094189797338343e-002
      -2.7900944883018520e-002 -1.1641993976333871e-001
      -2.4959072671905044e-001 -1.7969523951035737e-001
      1.2799833632374585e-001 1.6242179946361199e-001
      2.2464872282103798e-001 -7.8403681136294895e-002
      2.5956542803114265e-002 -6.7986842867908417e-002
      -1.6695044867242326e-001 -5.7664244952681565e-001
      -9.0011068077231485e-002 -2.2658439791678328e-001
      1.3847939767203338e-001 4.3590809952683510e-002
      -1.6013769898198122e+000 5.0244628488089388e-002
      -1.2124147789010145e+000 2.6700807238326418e-001
      -1.2394453961426943e-001 2.2479010422034529e-001
      1.5236628515238571e-001 1.0929900989458292e+000
      -1.9143243021203657e-001 5.5581098054149000e-002
      -6.4641836454821966e-002 3.0506064617358197e-001
      -1.6884792262652568e-001 5.5552830837417778e-002
      -4.0540146545782879e-001 4.5253887230706419e-002
      5.2273164658182236e-001 1.6826171826738359e-002
      -1.5008407049276182e-001 2.9795956282754360e-001
      1.2224102933277282e-001 4.2303408827582503e-002
      4.9937102598199529e-001 -6.7255047060179041e-001
      -3.0729738179811306e-001 -3.3163753978797123e-001
      -1.6670855048688840e-001 1.2437345690528552e-001
      -1.3290929090652642e-001 -1.6634551031282799e-001
      3.9972633975171262e-001 -3.4157693157315774e-002
      2.1816013190209965e-001 -7.1545829193775901e-001
      -7.3790075446711068e-002 1.5792048374720549e-001
      5.2935979232994958e-002 -9.8232723908243849e-002
      -1.3192351305144775e-001 -3.7830536615078202e-002
      -1.4783454338875399e+000 1.3260626954602281e-001
      -1.2516364704869007e+000 -2.1224243752909633e+000
      4.8606211446036734e-001 3.0502517679442870e-001
      -1.1387531911451012e+000 -6.7743302979040232e-001
      7.4393155713030523e-001 4.7882331783872417e-001
      -1.6212849826539516e-001 -3.0110690760992050e-002
      -5.0819253583608026e-001 1.1167387125885252e-001
      1.3721037964216647e+000 -5.6593179994666520e-001
      8.0688151610059744e-001 -6.2941940013246378e-002
      -8.5589093112121672e-001 -5.6850618511934081e-001
      1.8563841685013558e+000 2.8947447823493450e-001
      7.2328742425835146e-001 -2.0319673469422086e+000
      -8.8950114773748978e-001 4.6665079549954058e-001
      -5.4347650631502202e-002 6.0439445964726557e-002
      -1.4544985952314457e-001 1.1258880088128611e+000
      5.3647407765014629e-002 -3.1531018679170780e-001
      1.1383752006024253e+000 -2.4855989342393450e+000
      -1.5520294713129476e-002 1.3384445084897620e+000
      6.2485420267185787e-001 -1.7543848895495973e-001
      -1.2105618747938657e-001 -4.6245990296663142e-001
      -1.7468833132937795e+000 -1.2856068085983247e-001
      1.5983752248858849e+000 -9.0295523776432585e-001
      5.1239227571525450e-003 4.6929080688165070e-001
      -1.2914262822034179e+000 -5.5886938280392498e-002
      3.2169456110628158e-001 -2.9096343545049086e-001
      2.7226241440609372e-001 4.5138259451786411e-001
      9.5186250042990805e-002 1.1110243457075308e-001
      4.4674527148043858e-001 -1.8704993136950865e-001
      3.4382533826845818e-001 1.5973241058595394e-001
      -7.2804463637918482e-001 -6.6738718709521871e-001
      2.6199637932003583e-001 1.2505372351405677e-001
      -1.2998311465394443e+000 -1.0265180572537664e+000
      -3.3854190220343922e-001 1.7930931030490102e-001
      -6.2015116338908549e-001 1.2356560242958101e-001
      -1.0473341767291698e-001 1.6043636016996135e-001
      5.7389288982078224e-001 -1.8475978909235674e-001
      3.0218655264175687e-003 -1.6188515127589323e-001
      -9.1316508873101210e-003 7.4517784989216762e-001
      -5.5695325770645218e-002 1.5298507679358445e-001
      5.4499167651046780e-002 -2.7927840042730934e-001
      3.0238985918561451e-001 3.1126712610462143e-001
      -1.3852026656342456e-001 -7.6049572569174662e-001
      -1.0023169099884872e-001 -1.6294736024272807e-001
      -1.1346822410683956e-001 1.5962113175421996e-001
      -2.1206026948684623e-001 -5.5687420545251964e-001
      2.9656485823113332e-003 4.6537181841268073e-002
      -6.8975044106817573e-001 3.4299799881535573e-002
      7.4618756183894575e-001 -7.9965419995946418e-002
      -1.3683651335133743e-002 4.1657913834067345e-001
      9.6780555860082520e-003 9.9175608724719477e-002
      -1.6160429628460871e-001 -6.0230184558933329e-002
      3.6867366006702838e-002 -7.0280146011321432e-002
      8.0028090535664807e-003 -2.6253132743971463e-002
      -4.6090293846458402e-001 -6.6555186729853125e-002
      -1.5190760397426811e-001 -1.4340268562589420e-001
      4.1495610785226268e-002 4.3671463874112122e-003
      2.4960500827241025e-001 -1.4352331875785765e-001
      -7.7471576855272548e-002 -1.5413667051212829e-001
      5.9400253038302687e-002 2.1628690293749697e-001
      8.7585153232409896e-002 2.2246600514256543e-001
      7.4424276358171504e-002 -8.2289946191240734e-002
      -1.5027270935912138e-001 6.9748594580258408e-002
      -1.0951426637062693e-001 1.5329857534341998e-001
      -1.2760961864182729e-001 3.4152577678335905e-001
      -5.5142892538936905e-001 -1.2699011921468037e-001
      1.2506394843376692e-001 -1.0081548147916643e-001
      9.4875618402089357e-002 -1.1323175150484266e-001
      2.3609716835265174e-001 -1.5747316806069712e-003
      3.7456464352502584e-002 -2.0401657534609603e-002
      -2.7775139442276442e-001 1.2160870306506719e-001
      -6.5283304364946153e-003 1.2077705213272073e-001
      6.1987766835474009e-002 -3.8629798411866353e-002
      -2.5115174208520399e-002 -1.2889700402143872e-001
      3.5375492128998542e-002 6.8969865919436241e-002
      -1.3241223866413518e-001 -6.7810698696683180e-001
      -2.3047689284283867e-003 3.9938487417015023e-001
      9.0679146416878476e-001 -5.7016718259787970e-002
      -5.7940658008816655e-002 -3.1195871409452786e-001
      -1.9177429611749641e-001 1.0381305561558081e-001
      1.2666806454742671e-001 2.8543634824918899e-002
      -4.6912566372348105e-004 -7.2340279605573460e-002
      -2.8192347724091066e-001 -9.5167945434093251e-002
      7.2762467520891383e-002 3.2839360654854044e-001
      -1.6882947188050276e-001 3.3278646241625115e-001
      1.1801727215307241e-001 -1.2658474029548919e-001
      -1.2855329152859651e-001 6.8101350823502743e-002
      1.7988887307935209e-001 -5.1528400970876492e-002
      1.5074569943039190e-002 -1.8702502933904488e-001
      -2.6563235097291950e-002 -4.4597585646327931e-002
      -4.3111975835840977e-001 1.4138796098876272e-001
      2.4834327224455724e-001 -1.3120706932941347e-002
      -8.5564608235853643e-002 9.5798890748137827e-002
      -2.8945389213998246e-001 -3.9357585844985393e-001
      9.1844403502503696e-002 -4.9987972674658147e-002
      -2.5222971032860125e-001 -4.3045155331141177e-001
      3.4562466703044761e-002 7.4757442168518651e-002
      3.8965599968865068e-002 -2.4369618059553788e-001
      -4.4805845318998970e-002 -5.0450332476954696e-001
      2.0545570828180898e-001 4.6661474482365939e-001
      -8.6275381511320248e-001 5.5656901832046975e-002
      -1.6795622092520651e-001 4.8791999752320063e-002
      -1.6045720756347326e-001 1.1427691027896356e-001
      5.1478258690523838e-002 2.6958117377197977e-001
      3.8790083155279359e-001 -3.0317229607607499e-001
      1.4920050457322295e-001 1.6857690757311064e-001
      2.7720439263371233e-001 9.1314331734951001e-002
      -1.2760546534816192e-001 2.4245525054736140e-002
      -4.8104616904206415e-001 1.1093422432056081e-001
      -2.6059815468318021e-001 -7.6276334602276774e-001
      2.0518012435208113e-001 1.7130123120356877e-001
      1.8046869681506436e-001 -1.3687402544409671e-001
      -1.3878900485691688e+000 2.9878475764346907e-001
      -1.5660294983144357e-001 -1.0662789072296919e-001
      2.3227605325140088e-001 -3.0092272835449307e-001
      -5.8331879500353304e-002 -3.6342615506000980e-001
      1.0200312787612170e-001 -9.5258216698049666e-002
      -1.4546899202199814e-001 5.4592705911100059e-001
      8.5276040252855762e-002 -2.8120060287083405e-003
      4.6677906818239946e-002 1.6501989088252213e-002
      -3.0934798937899327e-001 -2.7901613673110370e-001
      1.6805112832552599e-001 -9.7215926286023518e-003
      -5.4781617737173834e-002 4.7817541510914358e-002
      -1.9117120851135125e-001 1.8640297025849706e-001
      3.9840693400729010e-001 -3.6686161323310651e-002
      3.7098192630656945e-001 2.0955252599324428e-001
      1.4770701518129647e+000 1.0013199181445198e+000
      -1.5022438702687020e+000 2.4758391217372760e-001
      1.6462184198247481e-001 -4.2722694003804035e-001
      5.9223087778666736e-002 -5.9461709441346974e-002
      -1.1389645845037021e-001 5.3326603450912870e-002
      5.5132123968062485e-001 -1.7488912142627050e-001
      2.2250020328270870e-001 -1.7008531159792475e-001
      5.4481592802798823e-002 -4.2530079559908243e-003
      -7.0930474301242566e-002 -6.4762850128996269e-002
      -2.1570349571276140e-002 -5.5454849540253759e-001
      3.3740096577524281e-001 -1.6278684365679902e-001
      3.3852520169442228e-002 1.9382539872267410e-001
      4.6491116210592909e-001 2.7139860283992318e-001
      3.3038349094986286e-001 -1.7009507673072058e-001
      -3.1144189548617968e-001 -6.0804520651574534e-001
      6.3249710271752330e-002 -4.5937956034467359e-001
      1.9903446295521604e-001 2.3647094555796559e-002
      -1.5755176869257970e-001 6.5833468297625569e-002
      9.7442061222643284e-001 4.0641854854146331e-001
      -8.4395527701510720e-001 1.7408063341914021e-001
      5.1959601850633541e-001 -5.6195009321433453e-001
      -6.7268266689992406e-001 -2.6242348147752248e-001
      -7.0339117935935128e-002 -5.5971460715957222e-001
      7.8951055784863611e-001 -3.4823522888815089e-001
      3.0484525613253113e-002 -1.8463192044191008e-002
      1.6909915707632991e-001 1.1127552595572786e-001
      2.1470278282126559e-001 -3.3077248166261730e-001
      -1.2792608731345928e-001 -9.5244867263055422e-001
      -8.8227339532970267e-002 9.5019963124352358e-001
      1.0976774077827553e-001 2.7667625055219047e-001
      -8.6878723960103210e-003 -2.9799927236360652e-001
      6.6528930694886868e-001 -7.0858901254278225e-002
      -1.6169364003478759e-001 1.1534216025631358e-001
      -1.9032834811976732e-001 4.0557785736685881e-001
      -4.3104479076284778e-002 -4.2018903107643801e-001
      2.0176110514508697e-001 1.5073053343945262e-002
      -3.1422553488649335e-002 2.1617707197371355e-001
      -2.2697883594494436e-001 -5.2941937416170606e-002
      4.6960239478516475e-001 2.7686675263500954e-001
      -4.8401990054814820e-001 4.8183985437246779e-002
      6.7173688038996357e-002 -4.2678082173796948e-002
      -3.8148961280170385e-001 -2.4643531286150272e-001
      2.1061926381116247e-001 6.2348147312751255e-002
      1.4052801927552047e-001 1.6601273220796192e-001
      5.1282950042118247e-001 -2.5787894166674815e-002
      -3.6040681796353757e-001 5.5408521332103389e-001
      3.5203995192795368e-001 -1.4414443372818420e-001
      -2.7224096801595771e-001 -1.0392199214360813e-001
      1.1484910685938193e-001 3.7851971787847816e-001
      3.1762073863773738e-001 3.0241396984752547e-002
      2.2815700409898584e-001 9.9915770892805247e-002
      7.0046641420019540e-002 2.9785555835878191e-001
      -5.2819868855232252e-002 -2.6400756391254004e-001
      1.5353488482453666e-002 4.9838958345213441e-001
      -6.3883629113325985e-002 1.1654795553163309e-002
      -1.4043093725311764e+000 3.1365034919798268e-001
      -1.0840125560478477e+000 -7.4710527647228228e-002
      -2.1976011999768233e-001 4.4881716222935086e-001
      3.3432194111406210e-001 -9.7905200885843053e-003
      -2.8488563669832750e-001 1.0224007243207568e-001
      -6.7228029877369658e-002 3.3380810537047229e-001
      -2.9043070504277557e-001 -1.3879283950974641e-001
      3.8637806241514633e-001 6.5972419351698813e-002
      -2.1357948372678653e-002 1.0570846195456345e-001
      -5.8461698521279704e-001 -1.2655443114662474e-001
      -1.7770078856041711e-002 4.4995893120095644e-002
      5.7949692126356112e-001 -2.5240619074523113e-001
      -7.7294571858332006e-001 -3.4224662116957361e-001
      2.3483032395143003e-001 1.4644305289510004e-001
      -2.9505069750127555e-001 -3.7461309544897436e-001
      4.2632072391957770e-001 1.0349207075951442e-001
      8.4848833934955725e-001 -3.1792719290683835e-001
      -1.6538284647163853e-001 -4.9510818649610322e-002
      1.2922633440999341e-002 -4.5492007847992738e-001
      1.6084255159840695e-002 -6.9786202640557335e-002
      -1.5278807901282341e+000 7.7172766524455330e-002
      -1.4447984094258202e+000 -2.0737669711677587e+000
      3.8537258723312973e-001 1.1856960628883582e+000
      -8.7152140846416026e-001 -6.5744991678556386e-001
      5.0264703866140747e-001 3.6848356473377747e-001
      -1.4334669136924383e-001 -7.0980511666350096e-002
      2.4294010329439225e-001 1.2984534217123772e-001
      8.7796261926050700e-001 2.4048442683478091e-001
      -1.7326414537649107e-001 1.3222119869964796e-001
      -8.8595909710415599e-001 -6.4213497537328856e-001
      8.0881243350250454e-001 -3.1728057579333174e-001
      6.6143250077691484e-001 3.8121856272246379e-001
      -1.5356435971446534e+000 4.7954742343317619e-001
      -1.0467431811863924e-001 4.0579380795930722e-002
      7.3870963810790512e-003 1.1341996556892218e+000
      -2.6341877820251447e-001 -2.4318863741069319e-001
      1.1458856907311008e+000 -2.4817488543002195e+000
      -2.5041830700568039e-002 1.3440214505904904e+000
      -3.1209864796767718e-002 3.8494862307983249e-003
      -2.1839328802291301e-002 5.9484172254901679e-001
      -1.0907215399624748e+000 -3.6405893197287917e-002
      4.6805851859364173e-001 -1.2477356188302653e+000
      1.1505666846563722e-001 -2.6255416171108198e-001
      4.5070624916311663e-001 -6.8282487360697253e-002
      2.9541757145495862e-001 -3.8745186832024658e-002
      -3.9102678704412602e-001 1.3232467382498256e-001
      5.0324555305672025e-001 -1.3426255303485610e-001
      7.2917463109504321e-001 -1.8694472730252362e-002
      2.3623249006883021e-002 -4.2216112997727756e-001
      -5.8821665834794479e-001 -5.8335678663088397e-001
      -5.2016240413098647e-001 -2.5634502698516137e-001
      3.5276460891620642e-001 -3.9924495752223055e-001
      -2.0572351610026809e-001 -4.2450983927518643e-002
      -5.0026097368678191e-001 5.2178393958914970e-001
      -2.1191363972102020e-001 2.9869086762387614e-001
      1.0208570354715124e-001 -1.3747085795988426e-001
      -5.4561127457107772e-001 -4.0168457266585550e-001
      4.2906534232852866e-001 4.0226752467890359e-001
      7.9016338562642410e-002 9.2527297774444586e-002
      -2.0298685122679336e-002 5.0096835818129681e-002
      2.4467341218538302e-001 2.0129073140010284e-001
      1.1805297934703940e-003 -2.3429772909401549e+000
      9.4518835178342059e-002 9.4355140232479373e-002
      -4.6769797294726195e-001 1.4415886471181250e-001
      -2.5104389235819660e-002 -1.0987367992733701e-001
      3.2512324247657237e-002 1.0002093359355779e-001
      4.6715607796049385e-001 8.8585080040412587e-002
      1.5389261409073840e+000 -1.7778357814571774e-001
      -1.1573448899564774e-001 4.3869124862056336e-001
      1.6023428647218393e-001 2.6001868579491555e-001
      2.1276748100261450e-001 -2.5877838579815304e-001
      2.6203042644921792e-001 -9.2477970785895175e-002
      -3.9477309791835163e-001 2.2687020755359725e-002
      -4.6592503568814059e-001 2.2721625668867682e-001
      -1.8098259531877731e-001 -1.2891015894999699e-001
      4.0178700720316457e-002 4.9742435550097754e-002
      5.2682299704796276e-001 1.7592811303040176e-002
      -9.8440628438239766e-002 -1.6748757701406461e-001
      -6.2664944344726619e-003 1.2585479191443141e-002
      1.8716767331034104e-001 2.0265547004063639e-001
      7.8750830786161796e-002 -1.3891904753196366e-001
      -3.7605825915684871e-001 2.3335015231348996e-001
      -1.0228021248124042e-001 5.7881069968891981e-002
      -1.3202854062025299e-001 2.9915926410982596e-001
      5.5953051135161712e-002 -1.3069760473228334e-001
      2.0945794524033817e-001 -3.9680422204492909e-002
      1.0108178838510985e-001 2.0122672329476132e-001
      2.8233920056897749e-001 -5.8381954382251730e-002
      2.8973475524921999e-001 8.5379365821974765e-002
      1.8175900407774209e-001 6.0930491907296408e-002
      4.0288274694581148e-002 1.1299272338993953e-001
      1.1046934676497631e-001 -3.8630344987202012e-002
      -3.1327553252376455e-001 -9.5478759068450186e-002
      -3.0254303321145152e-002 -2.2513305245462537e-001
      -1.4493435451358588e-001 -3.1262719403684275e-001
      -1.2019971932994646e-002 1.1526475272468578e-001
      2.1181467973377663e-001 5.3965263237255201e-002
      -1.6511151843791000e-001 -2.5430268155664071e-001
      -5.5613238504874665e-002 4.4566884275081381e-001
      -1.3226331404465991e-001 1.6126594718362994e-001
      1.8986575095966060e-001 -1.6928848985429823e-001
      -3.0913547085070686e-001 3.2496091824115875e-001
      -6.7898188715217037e-002 -2.1918315340264366e-001
      -6.2282362893978864e-002 -7.6530050725882745e-002
      1.5205582053986852e-001 2.4455946299057264e-002
      -1.3101733834326978e-001 6.1548338271124109e-003
      1.4242569669235355e-001 4.7292820220615378e-001
      1.0865561322481598e-001 1.3507253960433888e-001
      -6.6544095008095813e-002 2.7109528750307255e-001
      -3.4159493162391269e-001 -5.4486594969051144e-002
      2.7832612559025466e-001 -2.1120610622750788e-001
      -1.7058032064781856e-001 -3.9009587605906121e-001
      -2.8131051052478223e-001 -2.4540318956062251e-001
      -8.1761025357684564e-002 1.5952190925149329e-001
      -1.8418531712101260e-001 -2.1803234336496977e-001
      -1.1299762827179129e-001 5.8060226192613218e-001
      -2.9970711593308691e-001 -2.4826812304570400e-001
      -7.7295959444571308e-002 -2.4782809692234392e-001
      5.7397919986330162e-002 1.6231514057699453e-001
      -2.5475240365268320e-001 -1.2158883152827060e-001
      1.3925689290101559e-001 3.8592597412910501e-001
      -2.4512121554971028e-001 3.1075568915432245e-002
      1.6943288963851388e-001 -1.2285346197440572e-002
      -3.4380057829712575e-002 1.0275881648699660e-001
      -4.9995629483171017e-002 2.2742103738448904e-001
      3.3961884320547120e-001 -6.7049910377317792e-002
      -1.5116190051205747e-001 -5.7088904371310945e-001
      2.9515623478019098e-001 7.5061320987726088e-001
      -3.9152758545258054e-001 -8.8558110964853817e-002
      -2.7406454547145748e-001 1.9755693058727447e-001
      1.6605668842143587e-001 -1.0556397799750790e-001
      -9.1168631543377776e-001 4.8305106131495974e-002
      -5.1091159216540519e-002 -2.3708470697040035e-001
      4.9433553273445813e-001 -2.2240626658333953e-001
      -2.4694234136915219e-001 -2.9411366976809172e-001
      1.4762181602668217e-001 -4.7713804044587541e-002
      -4.3324721838956087e-001 3.1943703679451185e-001
      3.1634583722986498e-002 -5.8993756468937848e-002
      6.6600386431338129e-002 -4.9661080727820689e-001
      1.4289882518653996e-001 -3.8179051051473722e-001
      9.3524090777739669e-002 -1.6670195450293629e-001
      -2.3092072557999269e-001 -9.2744892620766489e-003
      -1.6881590558004816e-001 9.4400665983726206e-002
      1.1726845703726425e-001 -1.3064851968156149e-001
      -2.3028382872016501e-001 3.1761166929214857e-001
      5.6050117040822456e-001 1.0834704878138168e-001
      -3.0665249584645626e-001 -5.2496157640065939e-002
      5.4567598687769292e-001 -1.9824955365279343e-001
      -2.4757815419177528e-002 5.5485156761244513e-002
      -3.1333059772812387e-002 4.2233035392923213e-001
      4.9346818938834705e-003 -1.1797793073364163e-001
      -9.3811394321938302e-002 -1.0407193160243705e-001
      1.3125924099652189e-001 -1.9290954818354623e-002
      1.4481671995910178e-001 -3.0878391971306196e-001
      -2.7947000013230357e-002 5.1288797439252652e-002
      1.0642516699989625e-001 -6.3406379527011658e-001
      1.9888558263775785e-001 1.2422541461975564e-001
      6.8043068857198730e-001 2.3730293629685212e-001
      3.5016652204371279e-001 3.0197474392723750e-001
      2.1806844042869369e-001 -7.6417635889221999e-002
      -4.4227625391831016e-001 -4.7784866794776404e-001
      -1.9007892321728179e-001 -2.5963829752292472e-001
      -1.9416799064678722e-001 -5.5547453624407283e-003
      9.9715017461928568e-002 -2.0708294109501349e-001
      -7.2890655957568484e-001 3.2179379120375146e-001
      -1.9469116841625755e-001 -1.4060589142246320e+000
      -1.4915189612080038e-001 1.5636558444550266e-001
      -8.7888424858367786e-002 -8.0424441999170337e-001
      1.6027640965413847e-001 3.3936716442851184e-001
      -1.8965622241971362e-003 -2.2843787699720678e-002
      5.0631288298581056e-001 3.2038399938905032e-001
      2.7953707832092869e+000 -1.1850241610002682e-001
      4.1582887639201410e-001 -8.5752437633345238e-002
      9.4228822285458580e-001 2.6551595137665840e-001
      9.7797203282691841e-002 3.0259510933547135e-001
      -1.6419013699286675e-001 2.5515637451622419e-001
      7.2722841749574954e-002 1.4500292730795011e-001
      -1.9824508443235925e-001 2.5188833451011405e-001
      2.0803426534782571e-001 2.6212231814884807e-001
      -1.0747540248264195e-001 -7.9329886080829803e-001
      -4.0550127735194680e-001 -9.0673019566457954e-003
      -8.9234955519421205e-002 1.8371262304850752e-001
      -1.4026958222129240e-001 -3.6273687499531720e-002
      2.4718804840700676e-001 9.9714468132687223e-002
      -6.8795940502561037e-001 3.4497509603566834e-001
      8.6862161043665079e-002 -1.3004685982317969e+000
      -2.9613607998363972e-001 -2.9926320538165174e-001
      -2.8346364585841077e-001 -6.0683254863082770e-001
      1.1829265166382696e-001 2.0425783497994057e-001
      3.7244846300525886e-001 -1.2854539656632682e-001
      4.8504279913404280e-001 3.8240667138834317e-001
      3.8251131829217244e-001 -1.4273567870872761e-001
      8.1801556353797877e-002 -8.0858317666584911e-002
      1.3010041225125548e+000 4.2942913693622582e-002
      -1.4852283061666127e-001 -1.0212959472088388e-001
      -5.1183425165652663e-001 2.1394964641309264e-001
      1.2640974994310472e-001 9.6216880784720460e-001
      -4.4064893544023404e-002 9.1714229715321310e-002
