<?xml version="1.0"?>
<opencv_storage>
<svm type_id="opencv-ml-svm">
  <svm_type>C_SVC</svm_type>
  <kernel><type>RBF</type>
    <gamma>3.3750000000000002e-002</gamma></kernel>
  <C>1.2500000000000000e+001</C>
  <term_criteria><epsilon>2.2204460492503131e-016</epsilon>
    <iterations>100000</iterations></term_criteria>
  <var_all>172</var_all>
  <var_count>172</var_count>
  <class_count>2</class_count>
  <class_labels type_id="opencv-matrix">
    <rows>1</rows>
    <cols>2</cols>
    <dt>i</dt>
    <data>
      0 1</data></class_labels>
  <sv_total>557</sv_total>
  <support_vectors>
    <_>
      0. 0. 0. 0. 1.76470593e-001 1.76470593e-001 1.76470593e-001
      3.52941185e-001 3.52941185e-001 4.11764711e-001 6.47058845e-001
      5.29411793e-001 5.29411793e-001 5.29411793e-001 5.88235319e-001
      4.11764711e-001 4.11764711e-001 4.70588237e-001 7.05882370e-001
      7.64705896e-001 6.47058845e-001 5.29411793e-001 5.29411793e-001
      6.47058845e-001 8.23529422e-001 7.64705896e-001 5.29411793e-001
      7.64705896e-001 7.64705896e-001 6.47058845e-001 8.23529422e-001
      7.05882370e-001 5.88235319e-001 4.11764711e-001 4.70588237e-001
      3.52941185e-001 5.88235296e-002 1.17647059e-001 1.76470593e-001
      1.76470593e-001 1.17647059e-001 1.17647059e-001 1.17647059e-001
      1.17647059e-001 1.76470593e-001 1.76470593e-001 2.35294119e-001
      4.11764711e-001 5.88235319e-001 5.88235319e-001 5.29411793e-001
      6.47058845e-001 6.47058845e-001 8.23529422e-001 9.41176474e-001
      8.23529422e-001 7.05882370e-001 3.52941185e-001 4.11764711e-001
      7.05882370e-001 5.88235319e-001 5.88235319e-001 2.94117659e-001
      2.35294119e-001 4.11764711e-001 4.70588237e-001 3.52941185e-001
      1.76470593e-001 2.94117659e-001 2.94117659e-001 2.35294119e-001
      2.35294119e-001 5.29411793e-001 6.47058845e-001 4.11764711e-001
      4.11764711e-001 7.05882370e-001 4.70588237e-001 2.94117659e-001
      3.52941185e-001 3.52941185e-001 2.35294119e-001 2.35294119e-001
      3.52941185e-001 2.35294119e-001 2.94117659e-001 2.94117659e-001
      4.70588237e-001 5.29411793e-001 4.11764711e-001 4.70588237e-001
      4.11764711e-001 4.70588237e-001 4.11764711e-001 4.11764711e-001
      4.11764711e-001 3.52941185e-001 3.52941185e-001 4.70588237e-001
      6.47058845e-001 5.29411793e-001 7.05882370e-001 6.47058845e-001
      7.05882370e-001 5.88235319e-001 4.11764711e-001 2.94117659e-001
      2.35294119e-001 2.94117659e-001 3.52941185e-001 4.11764711e-001
      4.11764711e-001 4.11764711e-001 3.52941185e-001 2.94117659e-001
      3.52941185e-001 4.11764711e-001 3.52941185e-001 5.29411793e-001
      5.29411793e-001 6.47058845e-001 7.05882370e-001 7.05882370e-001
      7.05882370e-001 7.64705896e-001 7.64705896e-001 7.64705896e-001
      8.82352948e-001 8.82352948e-001 1. 9.41176474e-001 9.41176474e-001
      9.41176474e-001 9.41176474e-001 7.05882370e-001 8.23529422e-001
      2.50000000e-001 4.00000006e-001 6.33333325e-001 9.49999988e-001 1.
      8.83333325e-001 7.50000000e-001 7.16666639e-001 6.49999976e-001
      5.50000012e-001 5.83333313e-001 3.00000012e-001 4.16666657e-001
      4.33333337e-001 4.16666657e-001 4.49999988e-001 3.16666663e-001
      4.66666669e-001 4.83333319e-001 4.00000006e-001 4.00000006e-001
      6.49999976e-001 6.49999976e-001 7.50000000e-001 7.50000000e-001
      6.66666687e-001 6.16666675e-001 8.66666675e-001 6.00000024e-001
      4.83333319e-001 3.83333325e-001 1.66666675e-002 1.00000001e-001
      2.33333334e-001 1.33333340e-001 0.</_>
    <_>
      6.66666701e-002 5.33333361e-001 0. 0. 2.00000003e-001
      2.66666681e-001 2.66666681e-001 2.00000003e-001 2.66666681e-001
      3.33333343e-001 2.66666681e-001 2.66666681e-001 3.33333343e-001
      1.33333340e-001 0. 0. 0. 7.33333349e-001 9.33333337e-001
      8.00000012e-001 8.66666675e-001 9.33333337e-001 6.66666687e-001
      4.00000006e-001 4.66666669e-001 1.33333340e-001 2.00000003e-001
      4.66666669e-001 6.00000024e-001 4.66666669e-001 4.00000006e-001
      2.00000003e-001 4.00000006e-001 2.00000003e-001 2.66666681e-001 0.
      0. 2.66666681e-001 6.66666687e-001 8.00000012e-001 6.00000024e-001
      5.33333361e-001 6.00000024e-001 7.33333349e-001 6.66666687e-001
      5.33333361e-001 5.33333361e-001 8.00000012e-001 7.33333349e-001
      6.00000024e-001 4.66666669e-001 6.66666687e-001 8.66666675e-001
      8.00000012e-001 6.66666687e-001 6.00000024e-001 5.33333361e-001
      5.33333361e-001 6.00000024e-001 5.33333361e-001 5.33333361e-001
      3.33333343e-001 2.00000003e-001 6.00000024e-001 5.33333361e-001
      4.66666669e-001 0. 0. 6.00000024e-001 6.66666687e-001
      1.33333340e-001 0. 0. 7.33333349e-001 7.33333349e-001
      1.33333340e-001 4.00000006e-001 1.33333340e-001 5.33333361e-001
      1.33333340e-001 3.33333343e-001 2.00000003e-001 6.66666701e-002
      4.00000006e-001 2.00000003e-001 0. 0. 0. 0. 0. 0. 0.
      6.66666687e-001 1. 0. 0. 0. 6.00000024e-001 6.00000024e-001 0. 0.
      1.33333340e-001 4.66666669e-001 5.33333361e-001 0. 6.66666701e-002
      3.33333343e-001 4.66666669e-001 4.66666669e-001 2.66666681e-001
      6.66666701e-002 2.66666681e-001 3.33333343e-001 3.33333343e-001
      2.66666681e-001 2.00000003e-001 1.33333340e-001 4.00000006e-001
      2.00000003e-001 2.00000003e-001 2.00000003e-001 4.00000006e-001
      5.33333361e-001 4.00000006e-001 4.66666669e-001 4.66666669e-001
      5.33333361e-001 8.00000012e-001 4.00000006e-001 0. 0. 0. 0. 0. 0.
      0. 1. 6.17647052e-001 5.29411793e-001 7.05882370e-001
      8.82352948e-001 7.35294104e-001 7.05882370e-001 6.47058845e-001
      6.17647052e-001 6.47058845e-001 7.94117630e-001 8.52941155e-001
      8.82352948e-001 9.11764681e-001 8.82352948e-001 7.94117630e-001
      7.35294104e-001 6.76470578e-001 7.35294104e-001 7.94117630e-001
      7.05882370e-001 5.58823526e-001 4.11764711e-001 4.41176474e-001
      3.23529422e-001 3.52941185e-001 2.35294119e-001 1.47058830e-001
      1.47058830e-001 1.47058830e-001 1.47058830e-001 2.64705896e-001
      2.35294119e-001 3.23529422e-001 4.70588237e-001 6.17647052e-001</_>
    <_>
      0. 8.33333358e-002 3.33333343e-001 4.72222209e-001 8.88888896e-001
      1. 9.72222209e-001 7.50000000e-001 4.16666657e-001 3.88888896e-001
      4.16666657e-001 7.22222209e-001 8.33333313e-001 7.77777791e-001
      6.11111104e-001 5.00000000e-001 4.16666657e-001 7.50000000e-001
      7.50000000e-001 7.22222209e-001 1.38888896e-001 1.38888896e-001 0.
      1.11111112e-001 3.61111104e-001 6.38888896e-001 7.50000000e-001
      6.94444418e-001 5.55555582e-001 5.55555582e-001 8.88888896e-001
      8.61111104e-001 8.33333313e-001 7.77777791e-001 7.77777791e-001
      8.61111104e-001 9.72222209e-001 8.33333313e-001 8.33333313e-001
      8.33333313e-001 7.50000000e-001 7.50000000e-001 5.83333313e-001
      2.77777780e-002 0. 0. 1.11111112e-001 1.66666672e-001
      3.33333343e-001 4.16666657e-001 4.44444448e-001 5.83333313e-001
      5.55555582e-001 5.83333313e-001 7.22222209e-001 9.44444418e-001
      9.16666687e-001 8.88888896e-001 5.27777791e-001 3.88888896e-001
      3.33333343e-001 3.61111104e-001 3.88888896e-001 3.88888896e-001
      2.22222224e-001 5.55555560e-002 0. 0. 2.77777780e-002
      6.94444418e-001 9.44444418e-001 9.72222209e-001 6.94444418e-001
      5.83333313e-001 6.66666687e-001 8.61111104e-001 7.50000000e-001
      3.88888896e-001 2.77777791e-001 2.50000000e-001 7.77777791e-001
      7.77777791e-001 7.77777791e-001 8.88888896e-001 3.33333343e-001
      2.77777791e-001 2.22222224e-001 1.38888896e-001 0. 0. 0. 0. 0. 0.
      8.33333358e-002 5.55555582e-001 7.50000000e-001 8.33333313e-001
      7.77777791e-001 3.05555552e-001 2.50000000e-001 2.77777791e-001
      4.16666657e-001 8.61111104e-001 7.77777791e-001 6.66666687e-001
      3.33333343e-001 0. 1.38888896e-001 5.27777791e-001 7.22222209e-001
      8.61111104e-001 6.94444418e-001 4.44444448e-001 4.44444448e-001
      5.00000000e-001 7.22222209e-001 8.61111104e-001 7.50000000e-001
      5.55555582e-001 5.55555560e-002 0. 3.33333343e-001 6.38888896e-001
      7.77777791e-001 8.33333313e-001 5.55555582e-001 3.88888896e-001
      3.61111104e-001 4.16666657e-001 7.22222209e-001 7.22222209e-001
      6.38888896e-001 4.44444448e-001 0. 0. 8.33333358e-002
      4.16666657e-001 7.29166687e-001 8.22916687e-001 9.58333313e-001 1.
      8.64583313e-001 7.08333313e-001 6.45833313e-001 6.35416687e-001
      6.14583313e-001 6.35416687e-001 6.25000000e-001 7.18750000e-001
      7.50000000e-001 8.33333313e-001 8.43750000e-001 8.54166687e-001
      8.54166687e-001 8.12500000e-001 7.39583313e-001 6.87500000e-001
      7.39583313e-001 7.18750000e-001 7.08333313e-001 8.85416687e-001
      9.37500000e-001 8.54166687e-001 8.64583313e-001 7.81250000e-001
      7.70833313e-001 7.39583313e-001 6.66666687e-001 4.47916657e-001
      3.12500000e-001 2.29166672e-001</_>
    <_>
      4.28571433e-001 4.28571433e-001 5.23809552e-001 5.71428597e-001
      6.19047642e-001 5.71428597e-001 9.04761910e-001 1. 9.52380955e-001
      1. 9.52380955e-001 6.66666687e-001 5.71428597e-001 5.71428597e-001
      6.19047642e-001 7.14285731e-001 8.57142866e-001 9.52380955e-001
      9.52380955e-001 7.61904776e-001 6.66666687e-001 5.71428597e-001
      4.76190478e-001 3.33333343e-001 2.85714298e-001 2.38095239e-001
      2.38095239e-001 4.76190478e-001 7.14285731e-001 7.61904776e-001
      8.09523821e-001 8.09523821e-001 5.23809552e-001 2.85714298e-001
      2.85714298e-001 2.38095239e-001 4.76190478e-001 5.71428597e-001
      6.19047642e-001 6.66666687e-001 6.66666687e-001 7.14285731e-001
      6.66666687e-001 5.23809552e-001 3.80952388e-001 1.90476194e-001
      4.76190485e-002 4.76190485e-002 4.76190485e-002 1.90476194e-001
      1.42857149e-001 1.42857149e-001 9.52380970e-002 0. 0.
      9.52380970e-002 2.85714298e-001 4.76190478e-001 5.71428597e-001
      6.19047642e-001 6.19047642e-001 4.76190478e-001 4.28571433e-001
      6.66666687e-001 6.66666687e-001 6.66666687e-001 6.66666687e-001
      7.14285731e-001 6.66666687e-001 6.66666687e-001 6.19047642e-001
      5.71428597e-001 6.66666687e-001 5.23809552e-001 3.33333343e-001
      1.90476194e-001 9.52380970e-002 1.42857149e-001 2.85714298e-001
      3.80952388e-001 2.38095239e-001 3.33333343e-001 4.76190478e-001
      6.66666687e-001 7.14285731e-001 7.61904776e-001 7.14285731e-001
      5.23809552e-001 4.28571433e-001 2.85714298e-001 2.85714298e-001
      4.76190478e-001 5.23809552e-001 4.28571433e-001 2.38095239e-001
      1.42857149e-001 4.76190485e-002 0. 0. 0. 0. 0. 0. 0. 0. 0. 0. 0.
      0. 0. 0. 0. 0. 1.42857149e-001 1.90476194e-001 2.85714298e-001
      1.90476194e-001 0. 0. 0. 0. 0. 0. 0. 0. 0. 0. 0. 0. 0. 0. 0. 0. 0.
      0. 0. 0. 5.66037744e-002 9.43396240e-002 2.07547173e-001
      3.20754707e-001 2.64150947e-001 2.45283023e-001 2.64150947e-001
      3.58490556e-001 4.33962256e-001 4.33962256e-001 5.09433985e-001
      5.09433985e-001 5.84905684e-001 6.60377383e-001 7.16981113e-001
      7.92452812e-001 6.98113203e-001 6.60377383e-001 6.79245293e-001
      5.47169805e-001 4.52830195e-001 5.66037714e-001 5.84905684e-001
      5.84905684e-001 5.66037714e-001 5.09433985e-001 4.90566045e-001
      5.66037714e-001 7.73584902e-001 7.16981113e-001 7.35849082e-001
      7.73584902e-001 9.43396211e-001 1. 1.</_>
    <_>
      0. 0. 0. 0. 0. 3.33333343e-001 3.88888896e-001 3.88888896e-001
      3.88888896e-001 4.44444448e-001 5.55555582e-001 9.44444418e-001
      8.88888896e-001 7.77777791e-001 7.77777791e-001 6.11111104e-001
      6.11111104e-001 5.00000000e-001 6.11111104e-001 2.22222224e-001 0.
      5.55555560e-002 0. 0. 0. 0. 0. 1.66666672e-001 3.33333343e-001
      3.33333343e-001 3.33333343e-001 3.33333343e-001 3.88888896e-001
      3.33333343e-001 2.22222224e-001 3.33333343e-001 3.88888896e-001
      5.00000000e-001 5.55555582e-001 4.44444448e-001 2.77777791e-001
      2.77777791e-001 1.11111112e-001 1.66666672e-001 0. 0. 0.
      5.55555560e-002 2.22222224e-001 2.22222224e-001 0. 0. 0. 0. 0.
      1.11111112e-001 1.66666672e-001 1.66666672e-001 1.66666672e-001
      1.66666672e-001 1.11111112e-001 0. 5.55555560e-002 5.55555560e-002
      3.33333343e-001 5.55555582e-001 6.66666687e-001 7.22222209e-001
      8.88888896e-001 7.77777791e-001 6.11111104e-001 4.44444448e-001
      3.33333343e-001 3.88888896e-001 2.22222224e-001 2.22222224e-001
      3.88888896e-001 5.00000000e-001 7.22222209e-001 1. 9.44444418e-001
      9.44444418e-001 9.44444418e-001 9.44444418e-001 8.88888896e-001
      7.22222209e-001 6.11111104e-001 4.44444448e-001 3.33333343e-001
      3.33333343e-001 2.22222224e-001 5.55555560e-002 5.55555560e-002 0.
      0. 0. 5.55555560e-002 2.22222224e-001 2.77777791e-001
      2.77777791e-001 3.33333343e-001 2.22222224e-001 5.55555560e-002
      5.55555560e-002 1.11111112e-001 1.11111112e-001 1.11111112e-001
      4.44444448e-001 7.77777791e-001 8.33333313e-001 8.33333313e-001
      7.77777791e-001 9.44444418e-001 9.44444418e-001 8.88888896e-001
      6.66666687e-001 7.77777791e-001 9.44444418e-001 1. 3.88888896e-001
      1.11111112e-001 1.66666672e-001 1.11111112e-001 1.66666672e-001
      1.11111112e-001 0. 0. 0. 0. 0. 0. 2.22222224e-001 1.66666672e-001
      0. 0. 0. 0. 5.55555560e-002 5.55555560e-002 6.11111104e-001
      4.44444448e-001 5.00000000e-001 6.94444418e-001 9.16666687e-001
      9.16666687e-001 7.50000000e-001 5.83333313e-001 6.66666687e-001
      8.61111104e-001 9.16666687e-001 1. 8.88888896e-001 9.72222209e-001
      1. 9.72222209e-001 9.72222209e-001 8.33333313e-001 7.77777791e-001
      8.88888896e-001 7.22222209e-001 5.83333313e-001 4.72222209e-001
      6.38888896e-001 6.38888896e-001 9.16666687e-001 5.83333313e-001
      4.44444448e-001 3.61111104e-001 3.61111104e-001 2.22222224e-001
      1.94444448e-001 0.</_>
    <_>
      2.35294119e-001 2.35294119e-001 2.94117659e-001 2.35294119e-001
      3.52941185e-001 4.70588237e-001 5.88235319e-001 8.82352948e-001 1.
      8.82352948e-001 8.82352948e-001 8.23529422e-001 7.05882370e-001
      5.29411793e-001 4.11764711e-001 3.52941185e-001 3.52941185e-001
      3.52941185e-001 1.17647059e-001 1.17647059e-001 1.17647059e-001
      1.17647059e-001 2.35294119e-001 4.11764711e-001 3.52941185e-001
      4.11764711e-001 5.29411793e-001 4.11764711e-001 5.88235319e-001
      4.11764711e-001 4.11764711e-001 5.88235319e-001 4.70588237e-001
      4.70588237e-001 3.52941185e-001 5.88235319e-001 6.47058845e-001
      5.29411793e-001 5.29411793e-001 3.52941185e-001 3.52941185e-001
      4.70588237e-001 3.52941185e-001 1.76470593e-001 4.11764711e-001
      3.52941185e-001 2.94117659e-001 5.88235296e-002 0. 2.35294119e-001
      4.11764711e-001 4.11764711e-001 4.70588237e-001 5.88235296e-002 0.
      1.76470593e-001 2.35294119e-001 0. 1.17647059e-001 1.17647059e-001
      1.17647059e-001 5.88235296e-002 1.17647059e-001 1.17647059e-001
      1.17647059e-001 1.17647059e-001 5.88235296e-002 1.17647059e-001
      5.88235296e-002 1.76470593e-001 1.76470593e-001 4.70588237e-001
      2.94117659e-001 6.47058845e-001 6.47058845e-001 4.70588237e-001
      5.88235319e-001 7.64705896e-001 7.05882370e-001 7.64705896e-001
      7.05882370e-001 7.64705896e-001 4.70588237e-001 2.94117659e-001
      2.94117659e-001 2.94117659e-001 1.17647059e-001 0. 0.
      1.17647059e-001 2.35294119e-001 2.94117659e-001 2.94117659e-001
      1.17647059e-001 1.17647059e-001 1.76470593e-001 4.11764711e-001
      3.52941185e-001 1.17647059e-001 1.76470593e-001 1.76470593e-001 0.
      0. 0. 5.88235296e-002 1.76470593e-001 2.94117659e-001
      2.35294119e-001 2.94117659e-001 5.88235296e-002 5.88235296e-002 0.
      0. 1.17647059e-001 2.35294119e-001 1.76470593e-001 5.88235296e-002
      0. 0. 0. 0. 0. 5.88235296e-002 0. 0. 0. 0. 0. 0. 2.35294119e-001
      1.17647059e-001 1.17647059e-001 0. 0. 1.76470593e-001
      1.17647059e-001 7.27272749e-001 4.54545468e-001 2.72727281e-001
      1.81818187e-001 1.21212125e-001 5.75757563e-001 9.69696999e-001
      9.69696999e-001 6.96969688e-001 5.75757563e-001 5.75757563e-001
      4.54545468e-001 6.66666687e-001 7.57575750e-001 3.63636374e-001
      3.63636374e-001 2.72727281e-001 5.75757563e-001 8.48484874e-001 1.
      6.36363626e-001 3.33333343e-001 3.33333343e-001 4.84848499e-001
      6.66666687e-001 9.69696999e-001 8.48484874e-001 6.66666687e-001
      5.75757563e-001 6.06060624e-001 3.33333343e-001 3.33333343e-001
      3.63636374e-001 6.96969688e-001 1.51515156e-001 3.03030312e-002</_>
    <_>
      9.42857146e-001 9.42857146e-001 9.42857146e-001 9.42857146e-001
      9.42857146e-001 9.42857146e-001 9.14285719e-001 9.14285719e-001
      8.85714293e-001 8.85714293e-001 8.85714293e-001 8.57142866e-001
      8.00000012e-001 8.00000012e-001 8.00000012e-001 6.28571451e-001
      5.14285743e-001 3.71428579e-001 1.42857149e-001 1.42857149e-001
      1.42857149e-001 2.00000003e-001 3.14285725e-001 3.71428579e-001
      4.00000006e-001 5.42857170e-001 6.85714304e-001 6.85714304e-001
      6.85714304e-001 6.57142878e-001 6.57142878e-001 6.57142878e-001
      6.00000024e-001 5.71428597e-001 6.00000024e-001 6.00000024e-001
      5.42857170e-001 4.85714287e-001 4.28571433e-001 1.14285715e-001 0.
      0. 0. 0. 0. 0. 0. 0. 0. 0. 0. 0. 0. 0. 0. 0. 0. 0. 0. 0. 0. 0. 0.
      0. 0. 0. 0. 0. 5.71428575e-002 8.00000012e-001 9.14285719e-001
      9.71428573e-001 9.71428573e-001 9.14285719e-001 9.14285719e-001
      9.14285719e-001 8.85714293e-001 8.57142866e-001 8.85714293e-001
      9.42857146e-001 8.85714293e-001 8.57142866e-001 8.28571439e-001
      8.00000012e-001 8.00000012e-001 8.28571439e-001 7.71428585e-001
      7.42857158e-001 7.71428585e-001 7.42857158e-001 8.28571439e-001
      8.28571439e-001 8.57142866e-001 8.85714293e-001 8.85714293e-001
      9.14285719e-001 9.14285719e-001 9.14285719e-001 9.71428573e-001
      9.71428573e-001 9.71428573e-001 9.42857146e-001 9.71428573e-001 1.
      1. 9.71428573e-001 9.14285719e-001 8.85714293e-001 8.85714293e-001
      8.85714293e-001 8.85714293e-001 8.57142866e-001 8.57142866e-001
      8.28571439e-001 6.85714304e-001 4.57142860e-001 8.57142881e-002
      2.85714287e-002 0. 0. 0. 0. 2.85714287e-002 2.85714287e-002 0. 0.
      0. 0. 5.71428575e-002 5.71428575e-002 0. 0. 0. 0. 0. 0. 0.
      4.54545468e-002 2.27272734e-001 3.40909094e-001 4.20454532e-001
      4.88636374e-001 4.88636374e-001 5.00000000e-001 6.59090936e-001
      7.84090936e-001 7.95454562e-001 7.15909064e-001 7.38636374e-001
      8.29545438e-001 8.97727251e-001 9.09090936e-001 9.09090936e-001
      8.29545438e-001 8.18181813e-001 7.95454562e-001 8.75000000e-001
      8.86363626e-001 8.75000000e-001 8.40909064e-001 7.84090936e-001
      7.50000000e-001 7.50000000e-001 7.72727251e-001 9.31818187e-001
      9.65909064e-001 1. 9.88636374e-001 9.77272749e-001 9.77272749e-001
      9.77272749e-001 8.86363626e-001</_>
    <_>
      1.15384616e-001 7.69230798e-002 3.84615399e-002 7.69230798e-002
      7.69230798e-002 7.69230798e-002 3.07692319e-001 2.30769232e-001
      1.53846160e-001 1.92307696e-001 3.84615391e-001 4.23076928e-001
      6.53846145e-001 6.53846145e-001 5.76923072e-001 3.46153855e-001
      3.07692319e-001 2.69230783e-001 2.69230783e-001 3.46153855e-001
      3.07692319e-001 2.69230783e-001 4.61538464e-001 5.00000000e-001
      4.23076928e-001 4.61538464e-001 5.76923072e-001 6.15384638e-001
      5.00000000e-001 3.07692319e-001 3.07692319e-001 3.07692319e-001
      3.07692319e-001 2.69230783e-001 2.69230783e-001 2.69230783e-001
      4.61538464e-001 4.61538464e-001 4.61538464e-001 5.00000000e-001
      5.76923072e-001 6.53846145e-001 4.61538464e-001 2.69230783e-001
      2.30769232e-001 2.69230783e-001 2.69230783e-001 2.69230783e-001
      2.69230783e-001 2.69230783e-001 4.23076928e-001 3.84615391e-001
      6.53846145e-001 5.76923072e-001 5.38461566e-001 3.07692319e-001
      2.69230783e-001 1.53846160e-001 1.92307696e-001 5.76923072e-001
      4.61538464e-001 3.07692319e-001 1.92307696e-001 2.69230783e-001
      3.84615391e-001 4.23076928e-001 4.61538464e-001 5.00000000e-001
      5.76923072e-001 7.30769217e-001 1. 8.07692289e-001 2.69230783e-001
      3.07692319e-001 3.46153855e-001 4.23076928e-001 7.69230783e-001
      8.84615362e-001 9.61538434e-001 9.61538434e-001 7.69230783e-001
      3.46153855e-001 3.07692319e-001 3.46153855e-001 3.46153855e-001
      3.07692319e-001 3.07692319e-001 6.15384638e-001 6.53846145e-001
      6.53846145e-001 6.92307711e-001 7.30769217e-001 5.38461566e-001
      5.76923072e-001 5.76923072e-001 3.07692319e-001 3.07692319e-001
      3.07692319e-001 3.07692319e-001 3.46153855e-001 3.07692319e-001
      6.92307711e-001 6.92307711e-001 6.92307711e-001 7.30769217e-001
      7.30769217e-001 5.76923072e-001 5.76923072e-001 5.76923072e-001
      3.07692319e-001 3.07692319e-001 3.07692319e-001 3.07692319e-001
      3.07692319e-001 3.46153855e-001 6.53846145e-001 7.30769217e-001
      7.30769217e-001 8.46153855e-001 6.53846145e-001 5.38461566e-001
      5.76923072e-001 5.00000000e-001 3.46153855e-001 3.84615391e-001
      3.46153855e-001 3.46153855e-001 3.07692319e-001 4.61538464e-001
      6.92307711e-001 6.92307711e-001 3.84615391e-001 3.46153855e-001
      3.46153855e-001 2.69230783e-001 0. 2.50000004e-002 7.50000030e-002
      1.58333331e-001 2.58333325e-001 2.66666681e-001 2.66666681e-001
      3.24999988e-001 4.58333343e-001 7.33333349e-001 1. 9.25000012e-001
      6.99999988e-001 4.00000006e-001 1.08333334e-001 1.00000001e-001
      9.16666687e-002 1.00000001e-001 1.00000001e-001 1.25000000e-001
      1.91666663e-001 2.16666669e-001 2.41666660e-001 2.91666657e-001
      3.00000012e-001 3.49999994e-001 3.58333319e-001 4.00000006e-001
      4.66666669e-001 5.33333361e-001 6.16666675e-001 7.66666651e-001
      7.25000024e-001 6.00000024e-001 3.91666681e-001 1.41666666e-001
      2.50000004e-002</_>
    <_>
      0. 0. 0. 0. 0. 0. 0. 0. 0. 0. 0. 0. 0. 7.69230798e-002
      1.53846160e-001 1.53846160e-001 7.69230798e-002 2.30769232e-001
      2.30769232e-001 3.84615391e-001 3.84615391e-001 4.61538464e-001
      3.07692319e-001 7.69230798e-002 0. 0. 0. 0. 0. 2.30769232e-001
      3.84615391e-001 5.38461566e-001 3.84615391e-001 5.38461566e-001 1.
      9.23076928e-001 8.46153855e-001 7.69230783e-001 9.23076928e-001 1.
      9.23076928e-001 5.38461566e-001 4.61538464e-001 1.53846160e-001
      1.53846160e-001 2.30769232e-001 1.53846160e-001 1.53846160e-001 0.
      7.69230798e-002 1.53846160e-001 1.53846160e-001 3.07692319e-001
      4.61538464e-001 3.84615391e-001 3.84615391e-001 3.84615391e-001
      3.84615391e-001 3.84615391e-001 1.53846160e-001 2.30769232e-001
      5.38461566e-001 4.61538464e-001 5.38461566e-001 5.38461566e-001
      3.84615391e-001 3.07692319e-001 2.30769232e-001 2.30769232e-001
      3.84615391e-001 2.30769232e-001 2.30769232e-001 5.38461566e-001
      8.46153855e-001 9.23076928e-001 9.23076928e-001 9.23076928e-001
      9.23076928e-001 7.69230783e-001 2.30769232e-001 0. 3.07692319e-001
      3.07692319e-001 3.07692319e-001 2.30769232e-001 3.84615391e-001
      3.84615391e-001 0. 0. 0. 3.84615391e-001 5.38461566e-001
      4.61538464e-001 3.84615391e-001 1.53846160e-001 0. 0. 0. 0. 0. 0.
      7.69230798e-002 0. 7.69230798e-002 1.53846160e-001 3.07692319e-001
      6.15384638e-001 5.38461566e-001 6.92307711e-001 6.15384638e-001
      3.84615391e-001 4.61538464e-001 4.61538464e-001 3.84615391e-001
      7.69230798e-002 0. 7.69230798e-002 0. 0. 0. 7.69230798e-002
      7.69230798e-002 1.53846160e-001 3.07692319e-001 5.38461566e-001
      4.61538464e-001 2.30769232e-001 7.69230798e-002 0. 0. 0. 0. 0. 0.
      0. 0. 0. 1.11111112e-001 8.33333358e-002 8.33333358e-002
      1.66666672e-001 2.22222224e-001 3.33333343e-001 5.83333313e-001
      5.00000000e-001 4.72222209e-001 5.55555582e-001 4.44444448e-001
      4.44444448e-001 5.27777791e-001 5.27777791e-001 5.27777791e-001
      4.72222209e-001 5.00000000e-001 5.55555582e-001 5.27777791e-001
      6.38888896e-001 8.88888896e-001 9.16666687e-001 1. 5.27777791e-001
      5.55555582e-001 3.33333343e-001 1.66666672e-001 1.11111112e-001
      1.11111112e-001 1.11111112e-001 5.55555560e-002 1.38888896e-001
      1.94444448e-001 2.77777780e-002 0.</_>
    <_>
      2.50000000e-001 1.78571433e-001 0. 0. 0. 0. 0. 0. 0.
      7.14285746e-002 1.07142858e-001 1.42857149e-001 1.42857149e-001
      4.64285702e-001 3.92857134e-001 3.92857134e-001 3.57142866e-001
      3.57142866e-001 2.85714298e-001 2.85714298e-001 3.21428567e-001
      3.92857134e-001 4.28571433e-001 4.28571433e-001 4.64285702e-001
      5.00000000e-001 5.00000000e-001 5.35714269e-001 6.42857134e-001
      8.57142866e-001 8.57142866e-001 8.21428597e-001 8.21428597e-001
      8.21428597e-001 8.21428597e-001 8.21428597e-001 8.21428597e-001
      8.21428597e-001 7.85714269e-001 7.85714269e-001 7.50000000e-001
      7.50000000e-001 7.50000000e-001 7.85714269e-001 7.85714269e-001
      8.21428597e-001 7.50000000e-001 8.21428597e-001 7.85714269e-001
      7.85714269e-001 7.50000000e-001 7.50000000e-001 6.42857134e-001
      5.71428597e-001 5.71428597e-001 6.07142866e-001 4.64285702e-001
      3.21428567e-001 2.85714298e-001 2.85714298e-001 2.50000000e-001
      2.50000000e-001 2.14285716e-001 1.07142858e-001 1.42857149e-001
      1.42857149e-001 1.42857149e-001 2.14285716e-001 3.21428567e-001
      4.28571433e-001 5.00000000e-001 5.35714269e-001 6.42857134e-001
      5.00000000e-001 4.64285702e-001 4.64285702e-001 3.92857134e-001
      3.21428567e-001 1.78571433e-001 1.07142858e-001 1.42857149e-001
      2.14285716e-001 3.92857134e-001 5.00000000e-001 6.42857134e-001
      6.78571403e-001 7.14285731e-001 7.14285731e-001 6.78571403e-001
      5.35714269e-001 2.50000000e-001 1.78571433e-001 2.14285716e-001
      5.35714269e-001 5.35714269e-001 5.35714269e-001 5.71428597e-001
      6.78571403e-001 7.85714269e-001 8.21428597e-001 8.57142866e-001
      8.21428597e-001 8.21428597e-001 7.85714269e-001 7.85714269e-001
      7.85714269e-001 9.28571403e-001 1. 1. 9.64285731e-001
      9.28571403e-001 7.50000000e-001 7.14285731e-001 5.71428597e-001
      6.07142866e-001 6.42857134e-001 6.78571403e-001 6.78571403e-001
      6.78571403e-001 7.50000000e-001 7.85714269e-001 8.21428597e-001
      8.92857134e-001 8.21428597e-001 7.85714269e-001 7.50000000e-001
      7.14285731e-001 6.07142866e-001 5.00000000e-001 3.57142866e-001
      2.85714298e-001 1.42857149e-001 0. 0. 0. 0. 5.61797768e-002
      1.34831458e-001 4.71910119e-001 5.84269643e-001 6.29213512e-001
      8.53932559e-001 9.21348333e-001 9.43820238e-001 9.77528095e-001 1.
      9.43820238e-001 9.10112381e-001 9.43820238e-001 9.55056190e-001
      8.98876429e-001 8.08988750e-001 8.08988750e-001 8.20224702e-001
      7.97752798e-001 7.86516845e-001 7.86516845e-001 7.30337083e-001
      6.62921369e-001 6.29213512e-001 6.29213512e-001 6.40449464e-001
      5.39325833e-001 4.60674167e-001 3.25842708e-001 2.80898869e-001
      2.69662917e-001 2.35955060e-001 2.13483140e-001 1.57303378e-001
      6.74157292e-002 1.12359552e-002</_>
    <_>
      0. 0. 0. 0. 0. 0. 0. 0. 0. 0. 0. 0. 0. 0. 0. 0. 0. 0.
      1.29032254e-001 3.54838699e-001 3.87096763e-001 4.83870953e-001
      5.16129017e-001 5.48387110e-001 5.80645144e-001 6.12903237e-001
      6.45161271e-001 6.45161271e-001 6.77419364e-001 7.09677398e-001
      7.09677398e-001 6.77419364e-001 6.77419364e-001 7.09677398e-001
      6.77419364e-001 6.77419364e-001 5.48387110e-001 4.19354826e-001
      9.67741907e-002 0. 0. 0. 6.45161271e-002 6.45161271e-002
      9.67741907e-002 9.67741907e-002 9.67741907e-002 9.67741907e-002
      1.61290318e-001 1.93548381e-001 1.93548381e-001 1.61290318e-001
      1.61290318e-001 1.29032254e-001 1.29032254e-001 1.29032254e-001
      1.61290318e-001 1.93548381e-001 2.25806445e-001 2.25806445e-001
      2.58064508e-001 2.58064508e-001 9.67741907e-002 0. 0. 0. 0. 0. 0.
      0. 0. 6.45161271e-002 1.29032254e-001 1.61290318e-001
      2.90322572e-001 4.83870953e-001 6.12903237e-001 5.48387110e-001
      4.51612890e-001 4.19354826e-001 3.87096763e-001 4.51612890e-001
      4.51612890e-001 4.83870953e-001 5.80645144e-001 6.45161271e-001
      7.09677398e-001 7.74193525e-001 8.38709652e-001 9.03225780e-001 1.
      1. 9.67741907e-001 9.67741907e-001 8.70967746e-001 5.16129017e-001
      2.25806445e-001 0. 0. 0. 0. 0. 0. 0. 0. 9.67741907e-002
      2.90322572e-001 3.54838699e-001 5.48387110e-001 4.83870953e-001
      5.16129017e-001 4.19354826e-001 3.87096763e-001 2.90322572e-001
      2.90322572e-001 2.58064508e-001 2.58064508e-001 4.19354826e-001
      4.83870953e-001 6.77419364e-001 6.77419364e-001 5.80645144e-001
      4.51612890e-001 5.48387110e-001 4.83870953e-001 4.83870953e-001
      1.93548381e-001 0. 0. 0. 3.22580636e-002 6.45161271e-002 0. 0. 0.
      0. 3.33333351e-002 1.33333340e-001 2.66666681e-001 4.00000006e-001
      3.83333325e-001 2.66666681e-001 2.66666681e-001 3.00000012e-001
      3.49999994e-001 4.16666657e-001 5.16666651e-001 6.00000024e-001
      6.83333337e-001 6.66666687e-001 6.83333337e-001 6.99999988e-001
      8.66666675e-001 9.83333349e-001 1. 9.33333337e-001 9.33333337e-001
      8.50000024e-001 9.16666687e-001 9.16666687e-001 8.83333325e-001
      8.33333313e-001 8.00000012e-001 6.99999988e-001 6.66666687e-001
      6.33333325e-001 4.83333319e-001 3.83333325e-001 3.33333343e-001
      2.00000003e-001 1.16666667e-001 0.</_>
    <_>
      0. 0. 0. 0. 5.71428575e-002 6.85714304e-001 8.00000012e-001
      8.57142866e-001 8.57142866e-001 8.85714293e-001 8.85714293e-001
      8.85714293e-001 8.85714293e-001 8.85714293e-001 6.85714304e-001
      6.57142878e-001 5.42857170e-001 4.57142860e-001 4.00000006e-001
      5.42857170e-001 5.71428597e-001 6.28571451e-001 6.57142878e-001
      7.14285731e-001 8.00000012e-001 8.85714293e-001 9.14285719e-001
      9.14285719e-001 9.14285719e-001 8.00000012e-001 6.28571451e-001
      6.00000024e-001 6.00000024e-001 7.42857158e-001 7.71428585e-001
      8.28571439e-001 8.57142866e-001 8.57142866e-001 8.57142866e-001
      8.28571439e-001 6.28571451e-001 6.00000024e-001 5.14285743e-001
      5.42857170e-001 6.57142878e-001 7.71428585e-001 7.71428585e-001
      7.71428585e-001 7.71428585e-001 8.00000012e-001 7.71428585e-001
      7.14285731e-001 6.85714304e-001 6.85714304e-001 6.85714304e-001
      7.42857158e-001 7.71428585e-001 7.71428585e-001 7.71428585e-001
      6.85714304e-001 6.85714304e-001 7.42857158e-001 8.00000012e-001
      8.85714293e-001 9.42857146e-001 9.42857146e-001 9.71428573e-001
      9.71428573e-001 9.71428573e-001 8.85714293e-001 6.57142878e-001
      6.00000024e-001 5.71428597e-001 6.28571451e-001 8.28571439e-001
      9.14285719e-001 9.14285719e-001 9.14285719e-001 9.14285719e-001
      8.57142866e-001 8.85714293e-001 6.57142878e-001 6.28571451e-001
      5.71428597e-001 5.14285743e-001 5.42857170e-001 5.71428597e-001
      6.28571451e-001 7.71428585e-001 7.42857158e-001 6.85714304e-001
      7.71428585e-001 8.00000012e-001 8.28571439e-001 8.85714293e-001
      9.42857146e-001 8.85714293e-001 7.42857158e-001 7.14285731e-001
      6.57142878e-001 7.14285731e-001 7.42857158e-001 7.71428585e-001
      7.71428585e-001 7.42857158e-001 6.85714304e-001 7.14285731e-001
      7.14285731e-001 8.00000012e-001 8.28571439e-001 8.85714293e-001
      8.85714293e-001 8.85714293e-001 8.85714293e-001 8.57142866e-001
      7.71428585e-001 6.28571451e-001 5.42857170e-001 5.14285743e-001
      4.57142860e-001 4.00000006e-001 4.28571433e-001 4.28571433e-001
      7.14285731e-001 9.42857146e-001 9.71428573e-001 9.71428573e-001 1.
      9.42857146e-001 8.85714293e-001 2.00000003e-001 5.71428575e-002 0.
      0. 0. 0. 0. 4.63999987e-001 7.51999974e-001 9.27999973e-001
      8.32000017e-001 7.12000012e-001 6.71999991e-001 6.24000013e-001
      5.68000019e-001 5.12000024e-001 5.19999981e-001 6.32000029e-001
      6.07999980e-001 6.07999980e-001 5.51999986e-001 5.36000013e-001
      6.48000002e-001 9.27999973e-001 1. 1. 1. 1. 1. 9.67999995e-001
      9.59999979e-001 9.12000000e-001 8.00000012e-001 7.51999974e-001
      7.44000018e-001 7.51999974e-001 8.08000028e-001 9.59999979e-001
      9.84000027e-001 9.84000027e-001 6.32000029e-001 3.20000015e-002</_>
    <_>
      0. 0. 0. 2.00000003e-001 2.50000000e-001 2.50000000e-001
      2.00000003e-001 1.50000006e-001 2.00000003e-001 2.50000000e-001
      3.49999994e-001 3.49999994e-001 4.00000006e-001 3.49999994e-001
      2.50000000e-001 2.00000003e-001 2.00000003e-001 3.00000012e-001
      3.49999994e-001 4.49999988e-001 5.50000012e-001 6.99999988e-001
      8.99999976e-001 8.99999976e-001 8.99999976e-001 3.49999994e-001
      3.00000012e-001 3.49999994e-001 3.49999994e-001 5.00000000e-001
      4.49999988e-001 4.49999988e-001 5.50000012e-001 6.00000024e-001
      9.49999988e-001 8.50000024e-001 8.99999976e-001 1. 8.99999976e-001
      8.50000024e-001 6.00000024e-001 3.00000012e-001 2.00000003e-001
      2.50000000e-001 3.49999994e-001 4.49999988e-001 4.49999988e-001
      4.00000006e-001 3.49999994e-001 3.00000012e-001 3.00000012e-001
      2.50000000e-001 3.00000012e-001 4.49999988e-001 3.00000012e-001
      2.50000000e-001 2.00000003e-001 1.00000001e-001 0. 0. 0. 0.
      5.00000007e-002 1.00000001e-001 1.50000006e-001 1.00000001e-001 0.
      1.00000001e-001 0. 1.50000006e-001 2.00000003e-001 4.00000006e-001
      4.49999988e-001 5.00000000e-001 6.00000024e-001 5.50000012e-001
      5.50000012e-001 5.50000012e-001 5.50000012e-001 4.49999988e-001
      2.50000000e-001 1.00000001e-001 1.00000001e-001 1.00000001e-001
      5.00000007e-002 0. 2.50000000e-001 4.49999988e-001 5.00000000e-001
      6.00000024e-001 6.49999976e-001 6.00000024e-001 7.50000000e-001
      6.49999976e-001 5.50000012e-001 2.50000000e-001 5.00000007e-002 0.
      0. 1.50000006e-001 1.50000006e-001 1.50000006e-001 1.50000006e-001
      1.00000001e-001 1.00000001e-001 2.00000003e-001 2.00000003e-001
      2.00000003e-001 1.50000006e-001 5.00000007e-002 0. 0. 0. 0.
      1.00000001e-001 2.50000000e-001 2.50000000e-001 3.49999994e-001
      4.00000006e-001 4.49999988e-001 4.49999988e-001 4.00000006e-001
      5.00000000e-001 5.00000000e-001 3.49999994e-001 2.00000003e-001
      1.50000006e-001 1.50000006e-001 2.00000003e-001 2.00000003e-001
      2.00000003e-001 1.50000006e-001 1.00000001e-001 0. 0. 0.
      1.77777782e-001 2.44444445e-001 3.77777785e-001 5.33333361e-001
      7.33333349e-001 1. 1. 9.33333337e-001 6.22222245e-001
      4.22222227e-001 2.88888901e-001 2.22222224e-001 2.66666681e-001
      2.66666681e-001 1.33333340e-001 1.77777782e-001 4.66666669e-001
      6.00000024e-001 5.77777803e-001 5.55555582e-001 5.11111140e-001
      6.88888907e-001 6.66666687e-001 8.22222233e-001 8.88888896e-001
      7.55555570e-001 9.33333337e-001 8.66666675e-001 8.44444454e-001
      6.44444466e-001 5.33333361e-001 4.00000006e-001 2.22222224e-001
      1.33333340e-001 8.88888910e-002 1.11111112e-001</_>
    <_>
      0. 0. 7.14285746e-002 7.14285746e-002 1.78571433e-001
      3.57142866e-001 3.92857134e-001 4.28571433e-001 5.35714269e-001
      6.42857134e-001 6.07142866e-001 5.00000000e-001 4.28571433e-001
      3.57142866e-001 3.92857134e-001 4.28571433e-001 4.64285702e-001
      5.35714269e-001 5.00000000e-001 6.42857134e-001 5.71428597e-001
      6.07142866e-001 6.42857134e-001 6.78571403e-001 7.50000000e-001
      7.50000000e-001 6.78571403e-001 6.78571403e-001 5.71428597e-001
      5.35714269e-001 4.28571433e-001 3.92857134e-001 3.21428567e-001
      2.85714298e-001 1.42857149e-001 2.50000000e-001 2.50000000e-001
      2.50000000e-001 2.14285716e-001 3.21428567e-001 2.85714298e-001
      2.85714298e-001 4.28571433e-001 4.64285702e-001 6.07142866e-001
      6.78571403e-001 6.42857134e-001 5.00000000e-001 5.71428597e-001
      4.28571433e-001 4.28571433e-001 3.92857134e-001 3.92857134e-001
      3.21428567e-001 3.57142866e-001 3.92857134e-001 4.64285702e-001
      5.00000000e-001 7.14285731e-001 5.35714269e-001 5.35714269e-001
      6.07142866e-001 6.07142866e-001 6.78571403e-001 6.78571403e-001
      6.78571403e-001 7.85714269e-001 6.78571403e-001 6.78571403e-001
      7.50000000e-001 7.85714269e-001 8.21428597e-001 7.50000000e-001
      6.42857134e-001 4.64285702e-001 3.57142866e-001 5.71428597e-001
      5.71428597e-001 5.00000000e-001 5.35714269e-001 6.42857134e-001
      6.78571403e-001 7.14285731e-001 6.78571403e-001 6.78571403e-001
      6.78571403e-001 6.78571403e-001 6.78571403e-001 8.21428597e-001
      7.85714269e-001 7.14285731e-001 7.14285731e-001 7.14285731e-001
      6.78571403e-001 6.42857134e-001 6.42857134e-001 6.42857134e-001
      6.78571403e-001 7.14285731e-001 9.28571403e-001 9.28571403e-001 1.
      1. 8.21428597e-001 6.78571403e-001 6.42857134e-001 7.14285731e-001
      5.71428597e-001 4.64285702e-001 5.00000000e-001 5.00000000e-001
      4.28571433e-001 3.57142866e-001 1.42857149e-001 1.42857149e-001
      1.42857149e-001 3.21428567e-001 3.57142866e-001 3.21428567e-001
      1.42857149e-001 1.42857149e-001 1.07142858e-001 7.14285746e-002
      3.57142873e-002 1.42857149e-001 2.14285716e-001 2.85714298e-001
      3.21428567e-001 3.21428567e-001 1.78571433e-001 1.42857149e-001
      1.42857149e-001 1.42857149e-001 1.07142858e-001 7.14285746e-002
      3.57142873e-002 0. 4.54545468e-002 6.81818202e-002 6.81818202e-002
      1.02272727e-001 3.75000000e-001 5.11363626e-001 5.56818187e-001
      5.68181813e-001 5.34090936e-001 5.79545438e-001 6.25000000e-001
      7.61363626e-001 9.20454562e-001 1. 9.31818187e-001 8.52272749e-001
      8.86363626e-001 9.20454562e-001 9.09090936e-001 7.61363626e-001
      6.36363626e-001 5.90909064e-001 5.68181813e-001 4.77272719e-001
      5.22727251e-001 6.25000000e-001 8.63636374e-001 8.75000000e-001
      7.72727251e-001 7.38636374e-001 6.93181813e-001 5.56818187e-001
      4.77272719e-001 3.06818187e-001 2.15909094e-001</_>
    <_>
      0. 1.25000000e-001 1.56250000e-001 0. 0. 0. 0. 0. 0.
      3.12500000e-002 0. 0. 0. 0. 0. 0. 0. 0. 0. 0. 0. 0. 0. 0. 0. 0. 0.
      0. 0. 0. 0. 0. 0. 3.75000000e-001 9.06250000e-001 9.68750000e-001
      9.68750000e-001 5.00000000e-001 7.50000000e-001 9.68750000e-001
      9.37500000e-001 9.68750000e-001 9.68750000e-001 9.37500000e-001
      8.75000000e-001 9.37500000e-001 9.68750000e-001 9.37500000e-001
      9.68750000e-001 9.68750000e-001 9.68750000e-001 9.37500000e-001 1.
      1. 1. 9.68750000e-001 9.68750000e-001 9.68750000e-001
      9.68750000e-001 9.68750000e-001 9.68750000e-001 9.68750000e-001
      9.68750000e-001 9.68750000e-001 9.68750000e-001 6.87500000e-001
      3.12500000e-002 0. 0. 0. 0. 0. 3.12500000e-001 5.93750000e-001
      4.06250000e-001 6.25000000e-002 0. 0. 0. 0. 6.25000000e-002
      1.87500000e-001 2.81250000e-001 1.56250000e-001 3.12500000e-002
      6.25000000e-002 0. 3.12500000e-002 1.25000000e-001 1.56250000e-001
      3.12500000e-001 2.50000000e-001 3.12500000e-002 1.25000000e-001
      2.18750000e-001 3.12500000e-001 5.00000000e-001 7.81250000e-001 1.
      9.68750000e-001 9.68750000e-001 1. 1. 1. 9.68750000e-001
      9.37500000e-001 9.06250000e-001 1. 1. 9.37500000e-001
      6.56250000e-001 8.43750000e-001 8.43750000e-001 7.50000000e-001
      6.87500000e-001 5.31250000e-001 3.43750000e-001 2.50000000e-001
      2.81250000e-001 2.81250000e-001 2.18750000e-001 1.87500000e-001
      2.50000000e-001 2.81250000e-001 2.81250000e-001 1.56250000e-001
      2.18750000e-001 2.50000000e-001 1.56250000e-001 9.37500000e-002
      1.25000000e-001 1.87500000e-001 1.56250000e-001 6.25000000e-002
      3.12500000e-002 0. 0. 0. 1.86666667e-001 7.33333349e-001
      8.00000012e-001 6.80000007e-001 6.66666687e-001 7.06666648e-001
      7.59999990e-001 8.13333333e-001 9.59999979e-001 1. 8.13333333e-001
      6.39999986e-001 6.13333344e-001 6.26666665e-001 7.06666648e-001
      8.39999974e-001 1. 9.46666658e-001 7.20000029e-001 6.13333344e-001
      6.13333344e-001 6.26666665e-001 6.80000007e-001 7.33333349e-001
      9.06666696e-001 9.20000017e-001 8.00000012e-001 6.39999986e-001
      6.39999986e-001 6.53333306e-001 7.20000029e-001 6.26666665e-001
      2.13333338e-001 1.33333337e-002</_>
    <_>
      2.59259254e-001 2.59259254e-001 2.59259254e-001 2.59259254e-001
      2.59259254e-001 2.96296299e-001 2.96296299e-001 2.59259254e-001
      2.96296299e-001 2.96296299e-001 3.33333343e-001 3.33333343e-001
      3.70370358e-001 4.44444448e-001 5.55555582e-001 5.92592597e-001
      6.29629612e-001 6.66666687e-001 7.40740716e-001 7.77777791e-001
      8.14814806e-001 8.88888896e-001 9.25925910e-001 9.62962985e-001 1.
      8.14814806e-001 6.66666687e-001 5.18518507e-001 4.81481493e-001
      4.44444448e-001 4.81481493e-001 4.44444448e-001 4.07407403e-001
      4.07407403e-001 3.70370358e-001 6.29629612e-001 7.03703701e-001
      7.40740716e-001 5.55555582e-001 4.07407403e-001 3.70370358e-001
      3.33333343e-001 2.96296299e-001 2.96296299e-001 2.22222224e-001
      2.22222224e-001 1.85185179e-001 1.48148149e-001 1.48148149e-001
      1.85185179e-001 7.40740746e-002 1.48148149e-001 1.85185179e-001
      2.59259254e-001 2.96296299e-001 5.92592597e-001 7.03703701e-001
      7.77777791e-001 7.03703701e-001 7.03703701e-001 7.03703701e-001
      5.92592597e-001 5.92592597e-001 5.92592597e-001 6.29629612e-001
      7.03703701e-001 8.14814806e-001 8.14814806e-001 7.77777791e-001
      7.77777791e-001 4.44444448e-001 1.48148149e-001 1.85185179e-001
      3.70370358e-001 5.18518507e-001 5.92592597e-001 5.18518507e-001
      5.18518507e-001 4.81481493e-001 5.18518507e-001 2.96296299e-001
      2.59259254e-001 1.85185179e-001 1.85185179e-001 1.48148149e-001
      1.48148149e-001 1.48148149e-001 1.11111112e-001 1.11111112e-001
      1.11111112e-001 1.11111112e-001 7.40740746e-002 1.11111112e-001
      1.48148149e-001 1.85185179e-001 1.85185179e-001 1.85185179e-001
      2.22222224e-001 2.22222224e-001 2.96296299e-001 4.44444448e-001
      3.70370358e-001 2.96296299e-001 3.33333343e-001 1.11111112e-001
      1.11111112e-001 1.85185179e-001 2.22222224e-001 2.96296299e-001
      4.44444448e-001 5.18518507e-001 7.03703701e-001 8.14814806e-001
      9.25925910e-001 9.25925910e-001 8.51851881e-001 8.14814806e-001
      7.40740716e-001 7.03703701e-001 6.66666687e-001 5.92592597e-001
      5.55555582e-001 5.18518507e-001 5.18518507e-001 4.07407403e-001
      3.33333343e-001 2.96296299e-001 2.96296299e-001 2.22222224e-001
      2.22222224e-001 1.85185179e-001 1.85185179e-001 1.85185179e-001
      1.48148149e-001 1.85185179e-001 1.85185179e-001 9.09090936e-001
      7.84090936e-001 6.81818187e-001 6.47727251e-001 5.79545438e-001
      5.11363626e-001 5.22727251e-001 4.65909094e-001 4.09090906e-001
      4.43181813e-001 4.54545468e-001 3.86363626e-001 3.97727281e-001
      3.86363626e-001 4.54545468e-001 4.77272719e-001 3.86363626e-001
      2.95454532e-001 5.11363626e-001 8.75000000e-001 8.75000000e-001
      8.97727251e-001 8.75000000e-001 8.40909064e-001 8.40909064e-001 1.
      8.75000000e-001 5.79545438e-001 1.36363640e-001 0. 1.13636367e-002
      5.68181835e-002 9.09090936e-002 7.95454532e-002 4.54545468e-002 0.</_>
    <_>
      1. 1. 1. 1. 1. 1. 1. 1. 1. 1. 1. 1. 3.33333343e-001
      2.50000000e-001 1.94444448e-001 1.94444448e-001 8.33333313e-001
      8.05555582e-001 8.33333313e-001 2.22222224e-001 1.66666672e-001
      8.33333358e-002 0. 0. 0. 0. 0. 0. 0. 0. 0. 0. 0. 0. 0. 0. 0. 0. 0.
      0. 0. 0. 0. 0. 8.05555582e-001 8.88888896e-001 9.16666687e-001
      6.66666687e-001 0. 0. 0. 0. 0. 0. 0. 0. 0. 0. 0. 0. 0. 0. 0. 0. 0.
      0. 0. 0. 0. 0. 0. 0. 0. 0. 0. 1.94444448e-001 8.61111104e-001
      8.61111104e-001 7.50000000e-001 0. 0. 0. 0. 0. 0. 0. 0. 0. 0. 0.
      0. 0. 0. 0. 0. 0. 0. 0. 0. 0. 0. 0. 0. 0. 0. 0. 8.05555582e-001
      8.33333313e-001 8.33333313e-001 1.94444448e-001 0. 0. 0. 0. 0. 0.
      0. 0. 0. 0. 0. 0. 0. 0. 0. 0. 0. 0. 0. 0. 2.77777780e-002
      1.11111112e-001 3.33333343e-001 7.22222209e-001 5.27777791e-001
      1.38888896e-001 5.86206913e-001 6.20689631e-001 6.89655185e-001
      7.93103456e-001 8.27586234e-001 8.62068951e-001 9.65517223e-001
      9.65517223e-001 8.96551728e-001 8.27586234e-001 8.62068951e-001
      8.96551728e-001 9.65517223e-001 9.31034505e-001 9.31034505e-001
      9.31034505e-001 9.65517223e-001 9.65517223e-001 1. 1. 1.
      9.31034505e-001 9.31034505e-001 9.31034505e-001 9.31034505e-001
      9.65517223e-001 9.65517223e-001 9.65517223e-001 9.65517223e-001
      9.65517223e-001 9.65517223e-001 1. 9.65517223e-001 1.
      8.96551728e-001 8.96551728e-001</_>
    <_>
      3.33333343e-001 3.33333343e-001 3.33333343e-001 3.33333343e-001
      5.00000000e-001 6.66666687e-001 8.33333313e-001 8.33333313e-001
      8.33333313e-001 8.33333313e-001 6.66666687e-001 6.66666687e-001
      6.66666687e-001 6.66666687e-001 6.66666687e-001 6.66666687e-001
      6.66666687e-001 1. 1. 1. 1. 6.66666687e-001 5.00000000e-001
      3.33333343e-001 3.33333343e-001 3.33333343e-001 3.33333343e-001
      3.33333343e-001 3.33333343e-001 3.33333343e-001 3.33333343e-001
      3.33333343e-001 1.66666672e-001 3.33333343e-001 3.33333343e-001
      1.66666672e-001 1.66666672e-001 1.66666672e-001 1.66666672e-001 0.
      0. 0. 0. 0. 0. 0. 0. 0. 0. 0. 0. 0. 0. 0. 0. 0. 0. 0. 0. 0. 0. 0.
      0. 0. 0. 0. 0. 0. 0. 0. 0. 0. 0. 0. 0. 0. 0. 0. 0. 0. 0. 0.
      3.33333343e-001 1.66666672e-001 3.33333343e-001 5.00000000e-001
      5.00000000e-001 6.66666687e-001 5.00000000e-001 6.66666687e-001
      6.66666687e-001 6.66666687e-001 6.66666687e-001 6.66666687e-001
      6.66666687e-001 8.33333313e-001 6.66666687e-001 8.33333313e-001
      8.33333313e-001 8.33333313e-001 8.33333313e-001 8.33333313e-001
      6.66666687e-001 6.66666687e-001 5.00000000e-001 5.00000000e-001
      6.66666687e-001 6.66666687e-001 6.66666687e-001 6.66666687e-001
      6.66666687e-001 6.66666687e-001 6.66666687e-001 6.66666687e-001
      8.33333313e-001 8.33333313e-001 6.66666687e-001 6.66666687e-001
      6.66666687e-001 6.66666687e-001 6.66666687e-001 6.66666687e-001
      8.33333313e-001 8.33333313e-001 8.33333313e-001 8.33333313e-001
      8.33333313e-001 6.66666687e-001 6.66666687e-001 6.66666687e-001
      6.66666687e-001 6.66666687e-001 6.66666687e-001 6.66666687e-001
      6.66666687e-001 6.66666687e-001 2.27272734e-001 2.27272734e-001
      5.00000000e-001 6.81818187e-001 7.50000000e-001 1. 9.77272749e-001
      7.04545438e-001 3.86363626e-001 1.81818187e-001 0. 2.27272734e-002
      1.36363640e-001 0. 0. 0. 0. 0. 0. 0. 0. 0. 0. 0. 0. 0. 0. 0. 0.
      2.27272734e-002 1.13636367e-001 1.81818187e-001 3.40909094e-001
      6.13636374e-001 4.77272719e-001 1.36363640e-001</_>
    <_>
      8.00000012e-001 8.00000012e-001 8.00000012e-001 8.00000012e-001
      8.50000024e-001 8.50000024e-001 8.50000024e-001 8.50000024e-001
      8.50000024e-001 8.50000024e-001 8.50000024e-001 8.50000024e-001
      8.50000024e-001 8.50000024e-001 8.50000024e-001 8.50000024e-001
      8.50000024e-001 8.50000024e-001 8.00000012e-001 8.00000012e-001
      8.00000012e-001 8.00000012e-001 8.00000012e-001 8.00000012e-001
      8.00000012e-001 8.00000012e-001 8.00000012e-001 8.00000012e-001
      8.00000012e-001 7.50000000e-001 6.99999988e-001 7.50000000e-001
      7.50000000e-001 5.00000000e-001 4.00000006e-001 4.00000006e-001
      4.00000006e-001 5.00000000e-001 6.00000024e-001 6.99999988e-001
      7.50000000e-001 5.50000012e-001 5.00000000e-001 4.49999988e-001
      4.00000006e-001 6.00000024e-001 7.50000000e-001 6.00000024e-001
      4.00000006e-001 4.49999988e-001 4.00000006e-001 3.00000012e-001
      4.49999988e-001 4.00000006e-001 3.49999994e-001 3.00000012e-001
      2.50000000e-001 2.50000000e-001 2.50000000e-001 2.00000003e-001
      2.00000003e-001 6.99999988e-001 8.99999976e-001 1. 9.49999988e-001
      8.00000012e-001 6.49999976e-001 6.00000024e-001 5.50000012e-001
      5.00000000e-001 4.49999988e-001 3.49999994e-001 3.49999994e-001
      3.00000012e-001 3.49999994e-001 3.49999994e-001 3.49999994e-001
      3.00000012e-001 3.49999994e-001 4.00000006e-001 3.49999994e-001
      3.49999994e-001 3.49999994e-001 3.49999994e-001 3.00000012e-001
      3.00000012e-001 3.49999994e-001 3.49999994e-001 3.49999994e-001
      3.00000012e-001 3.49999994e-001 3.49999994e-001 3.49999994e-001
      4.00000006e-001 3.49999994e-001 2.50000000e-001 2.50000000e-001
      4.00000006e-001 4.49999988e-001 5.00000000e-001 5.50000012e-001
      7.50000000e-001 6.99999988e-001 6.99999988e-001 6.49999976e-001
      5.50000012e-001 3.49999994e-001 2.50000000e-001 2.50000000e-001
      2.50000000e-001 3.00000012e-001 3.49999994e-001 3.49999994e-001
      3.49999994e-001 3.00000012e-001 4.00000006e-001 4.49999988e-001
      4.49999988e-001 4.49999988e-001 5.50000012e-001 5.50000012e-001
      3.49999994e-001 4.00000006e-001 4.49999988e-001 6.99999988e-001 1.
      9.49999988e-001 6.49999976e-001 3.49999994e-001 3.49999994e-001
      4.00000006e-001 4.00000006e-001 5.50000012e-001 6.49999976e-001
      8.50000024e-001 8.99999976e-001 1. 9.77941155e-001 1. 1.
      5.88235319e-001 4.70588237e-001 4.33823526e-001 2.13235289e-001
      1.76470593e-001 1.98529407e-001 1.76470593e-001 1.61764711e-001
      1.83823526e-001 1.61764711e-001 1.61764711e-001 3.75000000e-001
      3.75000000e-001 3.45588237e-001 3.38235289e-001 3.23529422e-001
      2.94117659e-001 3.16176474e-001 3.82352948e-001 4.04411763e-001
      8.08823556e-002 0. 0. 0. 0. 2.20588241e-002 2.94117648e-002
      4.41176482e-002 4.41176482e-002 1.69117644e-001 4.19117659e-001
      1.32352948e-001</_>
    <_>
      0. 0. 0. 0. 0. 3.22580636e-002 3.22580636e-001 3.54838699e-001
      2.90322572e-001 2.25806445e-001 1.93548381e-001 3.22580636e-002
      6.45161271e-002 9.67741907e-002 0. 0. 0. 0. 6.45161271e-002
      1.93548381e-001 1.93548381e-001 6.45161271e-002 1.29032254e-001
      2.58064508e-001 3.22580636e-001 3.87096763e-001 3.87096763e-001
      3.54838699e-001 4.19354826e-001 2.58064508e-001 2.25806445e-001 0.
      0. 0. 0. 0. 1.61290318e-001 3.22580636e-001 5.16129017e-001
      4.83870953e-001 4.83870953e-001 9.67741907e-002 6.45161271e-002
      5.48387110e-001 8.06451619e-001 1. 9.03225780e-001 8.06451619e-001
      8.06451619e-001 7.74193525e-001 4.83870953e-001 2.90322572e-001
      1.93548381e-001 2.58064508e-001 4.83870953e-001 4.51612890e-001
      4.51612890e-001 4.51612890e-001 5.80645144e-001 6.45161271e-001
      7.74193525e-001 8.38709652e-001 7.09677398e-001 5.48387110e-001
      4.19354826e-001 6.77419364e-001 7.09677398e-001 7.74193525e-001
      7.74193525e-001 7.41935492e-001 6.45161271e-001 6.77419364e-001
      4.51612890e-001 3.87096763e-001 6.45161271e-002 6.45161271e-002
      2.25806445e-001 3.87096763e-001 4.19354826e-001 5.80645144e-001
      6.12903237e-001 6.45161271e-001 5.48387110e-001 5.48387110e-001
      2.58064508e-001 4.19354826e-001 5.16129017e-001 5.80645144e-001
      7.09677398e-001 6.77419364e-001 6.12903237e-001 6.77419364e-001
      7.74193525e-001 6.77419364e-001 5.48387110e-001 4.51612890e-001
      3.87096763e-001 1.93548381e-001 9.67741907e-002 9.67741907e-002
      6.45161271e-002 1.61290318e-001 2.25806445e-001 3.22580636e-001
      4.19354826e-001 4.51612890e-001 3.22580636e-001 2.58064508e-001
      9.67741907e-002 1.93548381e-001 3.87096763e-001 3.54838699e-001
      3.54838699e-001 4.19354826e-001 2.58064508e-001 1.29032254e-001
      1.29032254e-001 9.67741907e-002 1.61290318e-001 2.58064508e-001
      2.90322572e-001 2.90322572e-001 2.90322572e-001 2.58064508e-001
      1.93548381e-001 1.61290318e-001 9.67741907e-002 9.67741907e-002 0.
      0. 3.22580636e-002 1.61290318e-001 1.93548381e-001 9.67741907e-002
      6.45161271e-002 0. 5.88235296e-002 1.17647059e-001 1.91176474e-001
      1.76470593e-001 2.79411763e-001 5.29411793e-001 7.64705896e-001
      8.23529422e-001 8.82352948e-001 9.55882370e-001 9.55882370e-001 1.
      8.97058845e-001 7.94117630e-001 8.97058845e-001 9.11764681e-001
      8.97058845e-001 6.91176474e-001 7.20588207e-001 6.76470578e-001
      7.35294104e-001 6.47058845e-001 6.61764681e-001 6.02941155e-001
      6.32352948e-001 6.32352948e-001 5.44117630e-001 5.58823526e-001
      4.70588237e-001 5.14705896e-001 4.11764711e-001 3.82352948e-001
      2.79411763e-001 1.47058830e-001 1.32352948e-001 0.</_>
    <_>
      0. 0. 0. 0. 0. 2.77777780e-002 1.38888896e-001 1.38888896e-001
      8.33333358e-002 0. 0. 0. 0. 0. 0. 0. 0. 0. 1.38888896e-001
      2.22222224e-001 3.05555552e-001 3.61111104e-001 4.16666657e-001
      4.44444448e-001 4.72222209e-001 4.72222209e-001 4.72222209e-001
      4.72222209e-001 5.27777791e-001 5.27777791e-001 5.55555582e-001
      5.83333313e-001 5.83333313e-001 6.11111104e-001 6.38888896e-001
      6.66666687e-001 6.66666687e-001 6.66666687e-001 7.50000000e-001
      7.22222209e-001 6.38888896e-001 6.11111104e-001 6.66666687e-001
      6.94444418e-001 7.22222209e-001 7.50000000e-001 8.05555582e-001
      8.88888896e-001 9.16666687e-001 8.05555582e-001 7.22222209e-001
      7.22222209e-001 7.50000000e-001 7.77777791e-001 8.33333313e-001
      9.72222209e-001 9.72222209e-001 9.72222209e-001 9.44444418e-001
      9.16666687e-001 9.16666687e-001 9.44444418e-001 9.44444418e-001
      9.44444418e-001 9.44444418e-001 8.88888896e-001 9.16666687e-001
      9.16666687e-001 9.72222209e-001 9.72222209e-001 1. 1.
      9.44444418e-001 9.16666687e-001 9.44444418e-001 8.33333313e-001
      8.88888896e-001 8.61111104e-001 8.05555582e-001 6.66666687e-001
      6.38888896e-001 6.94444418e-001 7.77777791e-001 8.33333313e-001
      8.88888896e-001 8.61111104e-001 7.50000000e-001 6.66666687e-001
      5.83333313e-001 7.77777791e-001 8.05555582e-001 7.22222209e-001
      7.22222209e-001 6.38888896e-001 5.27777791e-001 4.72222209e-001
      5.00000000e-001 5.55555582e-001 6.94444418e-001 7.50000000e-001
      8.05555582e-001 8.05555582e-001 8.05555582e-001 8.33333313e-001
      8.61111104e-001 9.16666687e-001 9.72222209e-001 9.72222209e-001
      9.72222209e-001 9.72222209e-001 9.72222209e-001 9.72222209e-001
      9.72222209e-001 9.72222209e-001 9.44444418e-001 8.61111104e-001
      8.33333313e-001 8.05555582e-001 7.77777791e-001 7.50000000e-001
      7.22222209e-001 7.22222209e-001 6.94444418e-001 6.94444418e-001
      7.22222209e-001 6.11111104e-001 5.27777791e-001 3.61111104e-001
      1.94444448e-001 1.66666672e-001 1.38888896e-001 8.33333358e-002 0.
      0. 0. 0. 7.52475262e-001 7.22772300e-001 6.83168292e-001
      6.63366318e-001 6.13861382e-001 5.74257433e-001 5.74257433e-001
      6.33663356e-001 7.52475262e-001 7.92079210e-001 8.71287107e-001
      9.70297039e-001 9.50495064e-001 9.50495064e-001 9.60396051e-001
      9.70297039e-001 1. 9.80198026e-001 1. 9.40594077e-001
      8.81188095e-001 8.81188095e-001 9.20792103e-001 9.50495064e-001
      9.80198026e-001 9.80198026e-001 8.41584146e-001 8.61386120e-001
      8.31683159e-001 8.71287107e-001 9.00990129e-001 8.91089082e-001
      9.40594077e-001 8.81188095e-001 6.13861382e-001 8.91089141e-002</_>
    <_>
      0. 0. 0. 0. 5.26315793e-002 5.26315793e-002 0. 0. 0. 0.
      5.26315793e-002 5.26315793e-002 5.26315793e-002 3.15789461e-001
      4.21052635e-001 4.21052635e-001 6.84210539e-001 8.42105269e-001
      5.26315808e-001 4.73684222e-001 3.68421048e-001 2.10526317e-001
      2.10526317e-001 3.68421048e-001 5.26315808e-001 6.84210539e-001
      4.73684222e-001 2.63157904e-001 5.26315808e-001 7.89473712e-001
      8.94736826e-001 9.47368443e-001 1. 9.47368443e-001 6.84210539e-001
      6.31578922e-001 7.36842096e-001 6.31578922e-001 5.78947365e-001
      7.89473712e-001 7.36842096e-001 4.73684222e-001 4.21052635e-001
      3.68421048e-001 2.10526317e-001 2.10526317e-001 1.57894731e-001
      1.57894731e-001 1.57894731e-001 1.57894731e-001 2.10526317e-001
      2.10526317e-001 1.57894731e-001 1.05263159e-001 2.10526317e-001
      2.10526317e-001 2.10526317e-001 3.15789461e-001 1.57894731e-001
      1.57894731e-001 1.57894731e-001 4.73684222e-001 4.73684222e-001
      4.21052635e-001 5.26315808e-001 7.36842096e-001 9.47368443e-001
      6.84210539e-001 7.36842096e-001 4.73684222e-001 5.78947365e-001
      6.31578922e-001 5.78947365e-001 5.26315808e-001 2.63157904e-001
      2.10526317e-001 3.68421048e-001 3.15789461e-001 1.57894731e-001
      1.57894731e-001 1.57894731e-001 3.15789461e-001 3.68421048e-001
      5.78947365e-001 6.84210539e-001 8.94736826e-001 8.42105269e-001
      6.84210539e-001 9.47368443e-001 9.47368443e-001 4.73684222e-001
      3.68421048e-001 2.10526317e-001 1.57894731e-001 2.10526317e-001
      1.05263159e-001 1.05263159e-001 1.57894731e-001 4.21052635e-001
      3.68421048e-001 3.68421048e-001 3.15789461e-001 4.73684222e-001
      4.21052635e-001 2.10526317e-001 2.10526317e-001 1.57894731e-001
      2.10526317e-001 5.78947365e-001 6.31578922e-001 6.31578922e-001
      7.89473712e-001 1. 9.47368443e-001 9.47368443e-001 7.89473712e-001
      6.31578922e-001 6.84210539e-001 3.68421048e-001 3.68421048e-001
      3.15789461e-001 1.05263159e-001 2.10526317e-001 2.63157904e-001
      3.15789461e-001 2.63157904e-001 2.63157904e-001 2.10526317e-001
      2.10526317e-001 1.05263159e-001 1.05263159e-001 2.10526317e-001
      1.05263159e-001 1.05263159e-001 0. 0. 1.40625000e-001
      3.12500000e-001 1.56250000e-001 2.18750000e-001 3.28125000e-001
      3.28125000e-001 3.59375000e-001 3.90625000e-001 5.00000000e-001
      5.31250000e-001 6.56250000e-001 6.71875000e-001 6.09375000e-001
      4.68750000e-001 5.31250000e-001 5.00000000e-001 4.21875000e-001
      4.06250000e-001 3.75000000e-001 3.12500000e-001 3.75000000e-001
      3.59375000e-001 3.28125000e-001 2.81250000e-001 2.34375000e-001
      2.18750000e-001 3.12500000e-001 3.90625000e-001 3.59375000e-001
      4.37500000e-001 7.03125000e-001 1. 9.53125000e-001 5.93750000e-001
      6.40625000e-001 3.75000000e-001</_>
    <_>
      2.25806445e-001 2.25806445e-001 3.22580636e-001 3.22580636e-001
      3.54838699e-001 3.54838699e-001 3.54838699e-001 3.54838699e-001
      2.25806445e-001 1.93548381e-001 1.61290318e-001 1.93548381e-001
      1.29032254e-001 1.93548381e-001 2.25806445e-001 4.19354826e-001
      5.48387110e-001 5.16129017e-001 5.48387110e-001 6.12903237e-001
      6.45161271e-001 7.09677398e-001 6.45161271e-001 6.45161271e-001
      6.12903237e-001 5.48387110e-001 5.80645144e-001 6.77419364e-001
      7.09677398e-001 6.12903237e-001 4.83870953e-001 5.16129017e-001
      5.16129017e-001 4.51612890e-001 6.45161271e-001 7.09677398e-001
      7.09677398e-001 8.06451619e-001 8.70967746e-001 8.38709652e-001
      8.38709652e-001 8.06451619e-001 8.70967746e-001 9.67741907e-001 1.
      8.70967746e-001 8.06451619e-001 8.06451619e-001 7.74193525e-001
      7.74193525e-001 8.70967746e-001 8.38709652e-001 8.06451619e-001
      8.70967746e-001 9.35483873e-001 9.35483873e-001 8.38709652e-001
      8.38709652e-001 9.03225780e-001 9.03225780e-001 8.38709652e-001
      8.38709652e-001 9.03225780e-001 9.35483873e-001 9.35483873e-001 1.
      1. 9.67741907e-001 8.70967746e-001 7.74193525e-001 7.41935492e-001
      7.74193525e-001 7.41935492e-001 7.74193525e-001 8.06451619e-001
      8.06451619e-001 8.06451619e-001 7.74193525e-001 7.74193525e-001
      8.06451619e-001 7.41935492e-001 7.09677398e-001 6.77419364e-001
      7.09677398e-001 7.74193525e-001 8.38709652e-001 9.03225780e-001
      9.35483873e-001 9.35483873e-001 8.70967746e-001 8.06451619e-001
      8.06451619e-001 7.74193525e-001 8.06451619e-001 9.03225780e-001
      8.70967746e-001 8.70967746e-001 7.74193525e-001 7.74193525e-001
      7.74193525e-001 7.41935492e-001 7.74193525e-001 8.38709652e-001
      7.09677398e-001 6.45161271e-001 6.12903237e-001 6.45161271e-001
      6.45161271e-001 6.77419364e-001 6.45161271e-001 6.77419364e-001
      6.77419364e-001 6.77419364e-001 6.77419364e-001 6.45161271e-001
      5.16129017e-001 4.51612890e-001 4.19354826e-001 3.22580636e-001
      4.19354826e-001 4.19354826e-001 4.51612890e-001 4.19354826e-001
      3.22580636e-001 2.90322572e-001 2.90322572e-001 2.58064508e-001
      2.25806445e-001 1.93548381e-001 1.61290318e-001 1.29032254e-001
      1.29032254e-001 1.29032254e-001 6.45161271e-002 0. 0.
      3.55769217e-001 3.75000000e-001 5.09615362e-001 6.25000000e-001
      6.34615362e-001 6.53846145e-001 7.11538434e-001 8.55769217e-001
      9.71153855e-001 9.42307711e-001 7.30769217e-001 4.13461536e-001
      3.36538464e-001 4.42307681e-001 5.57692289e-001 7.69230783e-001
      7.78846145e-001 8.26923072e-001 8.84615362e-001 8.84615362e-001
      7.98076928e-001 8.17307711e-001 9.51923072e-001 1. 8.36538434e-001
      5.86538434e-001 4.32692319e-001 4.13461536e-001 5.96153855e-001
      7.59615362e-001 7.59615362e-001 7.11538434e-001 8.55769217e-001
      9.23076928e-001 9.42307711e-001 9.03846145e-001</_>
    <_>
      3.19999993e-001 4.79999989e-001 4.39999998e-001 4.79999989e-001
      4.39999998e-001 3.60000014e-001 4.39999998e-001 4.79999989e-001
      5.60000002e-001 6.00000024e-001 5.19999981e-001 4.39999998e-001
      5.19999981e-001 5.60000002e-001 6.00000024e-001 7.20000029e-001
      7.59999990e-001 7.59999990e-001 7.59999990e-001 7.20000029e-001
      7.20000029e-001 7.59999990e-001 8.00000012e-001 8.39999974e-001
      8.39999974e-001 7.59999990e-001 6.80000007e-001 6.00000024e-001
      6.00000024e-001 5.19999981e-001 4.39999998e-001 4.79999989e-001
      4.39999998e-001 5.19999981e-001 5.60000002e-001 6.00000024e-001
      6.80000007e-001 7.59999990e-001 8.00000012e-001 8.00000012e-001
      8.00000012e-001 8.79999995e-001 9.20000017e-001 8.79999995e-001
      8.39999974e-001 8.39999974e-001 7.59999990e-001 7.59999990e-001
      7.20000029e-001 5.19999981e-001 4.79999989e-001 4.39999998e-001
      4.00000006e-001 4.00000006e-001 3.60000014e-001 2.39999995e-001
      2.00000003e-001 1.59999996e-001 1.19999997e-001 0. 7.99999982e-002
      2.00000003e-001 2.80000001e-001 3.60000014e-001 4.79999989e-001
      5.60000002e-001 6.39999986e-001 7.59999990e-001 9.20000017e-001 1.
      9.59999979e-001 1. 1. 1. 9.59999979e-001 9.59999979e-001
      9.20000017e-001 8.00000012e-001 6.00000024e-001 4.39999998e-001
      4.39999998e-001 4.79999989e-001 5.60000002e-001 6.80000007e-001
      7.20000029e-001 7.59999990e-001 8.00000012e-001 7.59999990e-001
      7.59999990e-001 7.59999990e-001 7.59999990e-001 6.39999986e-001
      6.00000024e-001 5.19999981e-001 4.39999998e-001 4.00000006e-001
      3.60000014e-001 3.60000014e-001 4.39999998e-001 5.19999981e-001
      5.60000002e-001 6.39999986e-001 7.59999990e-001 8.39999974e-001
      9.20000017e-001 1. 9.59999979e-001 9.59999979e-001 8.79999995e-001
      8.39999974e-001 7.59999990e-001 6.00000024e-001 4.79999989e-001
      4.39999998e-001 5.19999981e-001 6.00000024e-001 7.20000029e-001
      8.00000012e-001 8.79999995e-001 9.59999979e-001 9.59999979e-001 1.
      9.59999979e-001 8.39999974e-001 7.59999990e-001 7.20000029e-001
      6.39999986e-001 5.60000002e-001 5.19999981e-001 4.00000006e-001
      3.19999993e-001 2.39999995e-001 2.00000003e-001 1.19999997e-001
      7.99999982e-002 0. 0. 0. 0. 0. 0. 0. 0. 0. 1.02040814e-002
      1.02040814e-002 2.85714298e-001 6.22448981e-001 8.26530635e-001
      9.18367326e-001 9.38775539e-001 9.08163249e-001 9.48979616e-001
      9.48979616e-001 8.97959173e-001 9.69387770e-001 9.38775539e-001
      9.18367326e-001 9.18367326e-001 8.97959173e-001 8.97959173e-001 1.
      1. 1. 9.89795923e-001 1. 7.65306115e-001 7.44897962e-001
      7.55102038e-001 7.14285731e-001 4.28571433e-001 1.73469394e-001</_>
    <_>
      0. 0. 0. 5.55555560e-002 1.11111112e-001 1.94444448e-001
      4.44444448e-001 6.11111104e-001 8.88888896e-001 1. 1.
      9.72222209e-001 8.33333313e-001 7.77777791e-001 5.55555582e-001
      3.61111104e-001 3.05555552e-001 2.77777791e-001 3.05555552e-001
      3.88888896e-001 5.55555582e-001 6.94444418e-001 8.33333313e-001
      8.61111104e-001 8.61111104e-001 8.88888896e-001 9.16666687e-001
      8.88888896e-001 8.61111104e-001 8.88888896e-001 8.88888896e-001
      9.44444418e-001 1. 1. 1. 1. 9.72222209e-001 9.16666687e-001
      9.16666687e-001 9.16666687e-001 9.16666687e-001 9.16666687e-001
      9.16666687e-001 9.44444418e-001 9.44444418e-001 9.44444418e-001
      9.16666687e-001 9.16666687e-001 9.16666687e-001 9.16666687e-001
      9.16666687e-001 9.16666687e-001 9.16666687e-001 9.16666687e-001
      9.16666687e-001 9.44444418e-001 9.44444418e-001 9.16666687e-001
      9.16666687e-001 9.16666687e-001 9.16666687e-001 9.16666687e-001
      9.16666687e-001 9.16666687e-001 9.44444418e-001 9.72222209e-001
      9.72222209e-001 1. 1. 1. 1. 1. 1. 9.72222209e-001 9.72222209e-001
      9.72222209e-001 1. 1. 1. 1. 1. 1. 1. 1. 1. 1. 1. 9.72222209e-001
      9.16666687e-001 9.16666687e-001 9.16666687e-001 9.16666687e-001
      9.16666687e-001 9.44444418e-001 9.72222209e-001 9.72222209e-001
      9.44444418e-001 1. 1. 9.72222209e-001 9.16666687e-001
      9.44444418e-001 9.16666687e-001 7.22222209e-001 5.00000000e-001
      8.33333358e-002 2.77777780e-002 0. 0. 0. 0. 0. 0. 0. 0. 0. 0. 0.
      0. 0. 0. 0. 0. 0. 0. 0. 0. 0. 0. 8.33333358e-002 1.38888896e-001
      1.66666672e-001 1.66666672e-001 8.33333358e-002 0. 0.
      9.59999979e-001 9.39999998e-001 9.39999998e-001 8.89999986e-001
      8.39999974e-001 7.79999971e-001 5.29999971e-001 5.69999993e-001
      6.99999988e-001 9.80000019e-001 9.39999998e-001 9.30000007e-001
      9.10000026e-001 9.10000026e-001 9.20000017e-001 9.80000019e-001 1.
      9.90000010e-001 9.49999988e-001 9.10000026e-001 9.10000026e-001
      8.89999986e-001 8.99999976e-001 8.79999995e-001 9.20000017e-001
      9.49999988e-001 9.20000017e-001 9.20000017e-001 9.20000017e-001
      9.10000026e-001 8.99999976e-001 8.79999995e-001 8.79999995e-001
      9.20000017e-001 9.39999998e-001 8.10000002e-001</_>
    <_>
      0. 0. 0. 1.50000006e-001 2.50000000e-001 3.00000012e-001
      5.00000000e-001 5.50000012e-001 6.49999976e-001 6.49999976e-001
      6.00000024e-001 3.49999994e-001 3.49999994e-001 2.00000003e-001
      1.50000006e-001 1.50000006e-001 1.50000006e-001 2.00000003e-001
      2.50000000e-001 1.50000006e-001 1.00000001e-001 1.50000006e-001
      1.50000006e-001 1.50000006e-001 1.00000001e-001 1.00000001e-001
      1.00000001e-001 5.00000007e-002 1.50000006e-001 1.50000006e-001
      1.50000006e-001 1.50000006e-001 1.50000006e-001 1.50000006e-001
      1.50000006e-001 1.00000001e-001 5.00000007e-002 0. 0. 0. 0. 0. 0.
      0. 0. 0. 0. 0. 0. 0. 0. 0. 0. 0. 0. 0. 0. 0. 0. 0. 0. 0. 0. 0. 0.
      0. 1.00000001e-001 2.00000003e-001 2.50000000e-001 2.50000000e-001
      3.00000012e-001 2.50000000e-001 2.00000003e-001 2.50000000e-001
      2.00000003e-001 2.00000003e-001 2.00000003e-001 1.50000006e-001
      1.50000006e-001 1.50000006e-001 1.50000006e-001 1.50000006e-001
      1.50000006e-001 1.00000001e-001 1.00000001e-001 1.00000001e-001
      5.00000007e-002 1.00000001e-001 5.00000007e-002 5.00000007e-002
      5.00000007e-002 5.00000007e-002 5.00000007e-002 1.00000001e-001
      5.00000007e-002 5.00000007e-002 5.00000007e-002 5.00000007e-002
      5.00000007e-002 1.00000001e-001 1.00000001e-001 5.00000007e-002
      1.00000001e-001 1.00000001e-001 5.00000007e-002 1.00000001e-001
      1.00000001e-001 1.00000001e-001 1.50000006e-001 1.50000006e-001
      1.50000006e-001 1.50000006e-001 2.00000003e-001 2.00000003e-001
      2.00000003e-001 2.50000000e-001 2.50000000e-001 3.49999994e-001
      7.50000000e-001 1. 1. 9.49999988e-001 8.99999976e-001
      8.50000024e-001 8.00000012e-001 6.99999988e-001 6.49999976e-001
      4.00000006e-001 0. 0. 0. 0. 0. 0. 0. 0. 2.66666681e-001
      2.66666681e-001 3.33333343e-001 2.66666681e-001 6.66666701e-002
      1.66666672e-001 2.00000003e-001 3.00000012e-001 3.33333343e-001
      5.66666663e-001 6.66666687e-001 9.66666639e-001 1. 8.00000012e-001
      8.00000012e-001 8.00000012e-001 7.33333349e-001 6.33333325e-001
      5.33333361e-001 5.00000000e-001 4.66666669e-001 4.00000006e-001
      3.33333343e-001 3.33333343e-001 3.33333343e-001 3.00000012e-001
      2.66666681e-001 3.00000012e-001 3.00000012e-001 3.00000012e-001
      2.66666681e-001 2.66666681e-001 5.00000000e-001 4.66666669e-001
      2.33333334e-001 0.</_>
    <_>
      5.00000007e-002 1.00000001e-001 2.00000003e-001 1.50000006e-001
      1.00000001e-001 1.00000001e-001 1.50000006e-001 2.50000000e-001
      3.49999994e-001 3.49999994e-001 4.00000006e-001 4.49999988e-001
      5.00000000e-001 4.00000006e-001 3.49999994e-001 3.00000012e-001
      4.00000006e-001 4.00000006e-001 4.00000006e-001 5.00000000e-001
      5.50000012e-001 5.50000012e-001 5.00000000e-001 4.49999988e-001
      4.00000006e-001 4.49999988e-001 4.00000006e-001 3.00000012e-001
      1.50000006e-001 1.50000006e-001 1.00000001e-001 1.00000001e-001
      1.00000001e-001 1.50000006e-001 2.50000000e-001 3.49999994e-001
      4.49999988e-001 8.50000024e-001 8.00000012e-001 6.99999988e-001
      6.00000024e-001 4.49999988e-001 2.00000003e-001 1.50000006e-001
      1.00000001e-001 2.00000003e-001 1.50000006e-001 1.50000006e-001
      1.00000001e-001 1.00000001e-001 2.00000003e-001 1.00000001e-001
      5.00000007e-002 5.00000007e-002 1.00000001e-001 1.00000001e-001
      1.50000006e-001 1.50000006e-001 1.50000006e-001 1.50000006e-001
      1.50000006e-001 1.50000006e-001 2.50000000e-001 2.50000000e-001
      3.49999994e-001 5.50000012e-001 6.00000024e-001 8.00000012e-001 1.
      9.49999988e-001 8.50000024e-001 6.49999976e-001 4.49999988e-001
      4.49999988e-001 2.50000000e-001 1.50000006e-001 1.50000006e-001
      1.00000001e-001 5.00000007e-002 5.00000007e-002 5.00000007e-002
      5.00000007e-002 2.00000003e-001 1.50000006e-001 1.00000001e-001
      1.50000006e-001 2.00000003e-001 2.50000000e-001 3.00000012e-001
      3.49999994e-001 3.00000012e-001 2.00000003e-001 2.50000000e-001
      3.00000012e-001 4.00000006e-001 5.00000000e-001 5.50000012e-001
      6.00000024e-001 6.99999988e-001 6.99999988e-001 6.49999976e-001
      5.50000012e-001 5.00000000e-001 3.00000012e-001 4.00000006e-001
      5.00000000e-001 6.49999976e-001 7.50000000e-001 8.00000012e-001
      8.00000012e-001 8.99999976e-001 6.99999988e-001 4.00000006e-001
      4.00000006e-001 1.50000006e-001 1.50000006e-001 1.50000006e-001
      5.00000007e-002 0. 0. 0. 0. 5.00000007e-002 5.00000007e-002
      1.50000006e-001 2.50000000e-001 4.49999988e-001 4.00000006e-001
      5.00000000e-001 7.50000000e-001 6.99999988e-001 4.49999988e-001
      3.49999994e-001 2.00000003e-001 0. 0. 0. 0. 1.60714284e-001
      3.57142866e-001 1.60714284e-001 8.92857164e-002 2.14285716e-001
      4.46428567e-001 4.28571433e-001 5.89285731e-001 6.42857134e-001
      4.82142866e-001 4.10714298e-001 1.42857149e-001 2.85714298e-001
      5.35714269e-001 6.60714269e-001 4.64285702e-001 5.00000000e-001
      3.57142866e-001 2.67857134e-001 3.21428567e-001 5.00000000e-001
      8.39285731e-001 9.82142866e-001 9.46428597e-001 6.60714269e-001
      3.92857134e-001 1.96428567e-001 6.78571403e-001 5.00000000e-001
      8.39285731e-001 1. 5.89285731e-001 2.14285716e-001 8.92857164e-002</_>
    <_>
      4.16666657e-001 3.33333343e-001 2.91666657e-001 2.91666657e-001
      2.08333328e-001 1.66666672e-001 4.16666679e-002 0. 0. 0. 0. 0. 0.
      0. 0. 0. 0. 0. 0. 0. 0. 0. 1.66666672e-001 2.50000000e-001
      5.41666687e-001 9.58333313e-001 1. 1. 1. 1. 1. 1. 1. 1. 1. 1. 1.
      1. 1. 9.58333313e-001 1. 1. 1. 1. 1. 1. 1. 1. 1. 1.
      9.58333313e-001 9.58333313e-001 1. 9.58333313e-001 9.58333313e-001
      9.58333313e-001 1. 1. 1. 1. 1. 1. 1. 1. 9.58333313e-001 1.
      9.58333313e-001 9.58333313e-001 9.58333313e-001 9.58333313e-001
      9.58333313e-001 9.58333313e-001 1. 1. 9.58333313e-001
      9.58333313e-001 9.58333313e-001 9.58333313e-001 9.58333313e-001 1.
      1. 1. 9.58333313e-001 9.58333313e-001 9.58333313e-001
      9.58333313e-001 9.58333313e-001 9.58333313e-001 9.58333313e-001
      9.58333313e-001 9.58333313e-001 9.58333313e-001 9.58333313e-001
      9.16666687e-001 7.91666687e-001 7.08333313e-001 6.25000000e-001
      8.33333358e-002 0. 0. 0. 0. 0. 0. 0. 0. 0. 0. 0. 0. 0. 0. 0. 0. 0.
      0. 0. 0. 0. 0. 0. 0. 1.25000000e-001 2.08333328e-001
      2.08333328e-001 2.08333328e-001 2.08333328e-001 1.66666672e-001
      2.91666657e-001 3.33333343e-001 3.33333343e-001 3.75000000e-001
      2.50000000e-001 0. 0. 0. 0. 3.61445770e-002 2.16867477e-001
      3.61445785e-001 5.66265047e-001 9.15662646e-001 9.39759016e-001
      9.27710831e-001 9.15662646e-001 9.27710831e-001 9.27710831e-001
      9.15662646e-001 9.03614461e-001 9.15662646e-001 9.27710831e-001
      9.51807201e-001 9.75903630e-001 9.87951815e-001 1. 9.87951815e-001
      9.63855445e-001 9.39759016e-001 9.15662646e-001 8.55421662e-001
      8.31325293e-001 8.19277108e-001 6.50602400e-001 4.57831323e-001
      3.61445770e-002 0. 0. 0. 0. 0. 0. 0.</_>
    <_>
      0. 2.85714287e-002 1.14285715e-001 2.28571430e-001 2.85714298e-001
      3.14285725e-001 2.57142872e-001 2.28571430e-001 2.00000003e-001
      1.71428576e-001 1.71428576e-001 1.42857149e-001 1.14285715e-001
      1.42857149e-001 1.14285715e-001 1.42857149e-001 1.42857149e-001
      1.71428576e-001 4.28571433e-001 6.57142878e-001 7.71428585e-001
      8.28571439e-001 5.14285743e-001 3.14285725e-001 2.57142872e-001
      2.00000003e-001 1.42857149e-001 1.42857149e-001 1.14285715e-001
      1.14285715e-001 1.14285715e-001 1.14285715e-001 1.42857149e-001
      8.00000012e-001 1. 9.71428573e-001 8.85714293e-001 5.71428575e-002
      0. 0. 0. 0. 0. 0. 0. 0. 4.00000006e-001 6.28571451e-001
      7.42857158e-001 8.00000012e-001 7.14285731e-001 3.14285725e-001
      2.00000003e-001 1.71428576e-001 3.71428579e-001 3.42857152e-001
      3.14285725e-001 2.00000003e-001 1.14285715e-001 1.42857149e-001
      1.42857149e-001 2.00000003e-001 2.00000003e-001 2.57142872e-001
      2.85714298e-001 3.42857152e-001 6.00000024e-001 5.42857170e-001
      4.57142860e-001 3.42857152e-001 5.71428575e-002 0. 0. 0. 0. 0. 0.
      2.85714298e-001 3.71428579e-001 4.28571433e-001 4.85714287e-001
      3.71428579e-001 2.28571430e-001 2.00000003e-001 1.71428576e-001
      1.42857149e-001 1.14285715e-001 1.42857149e-001 1.14285715e-001
      1.14285715e-001 1.14285715e-001 2.00000003e-001 3.14285725e-001
      3.71428579e-001 3.71428579e-001 4.00000006e-001 4.00000006e-001
      4.28571433e-001 4.28571433e-001 4.28571433e-001 4.57142860e-001
      4.28571433e-001 4.57142860e-001 4.57142860e-001 4.28571433e-001
      4.00000006e-001 3.42857152e-001 2.57142872e-001 2.28571430e-001
      1.71428576e-001 2.00000003e-001 2.28571430e-001 2.57142872e-001
      2.85714298e-001 3.42857152e-001 3.71428579e-001 4.00000006e-001
      4.00000006e-001 4.00000006e-001 3.71428579e-001 3.71428579e-001
      3.42857152e-001 3.42857152e-001 3.42857152e-001 3.42857152e-001
      3.14285725e-001 3.14285725e-001 3.42857152e-001 3.42857152e-001
      4.28571433e-001 3.71428579e-001 3.14285725e-001 2.57142872e-001
      2.00000003e-001 5.71428575e-002 0. 7.50000000e-001 7.50000000e-001
      7.33333349e-001 8.00000012e-001 8.50000024e-001 8.99999976e-001
      9.49999988e-001 1. 9.83333349e-001 9.83333349e-001 9.49999988e-001
      8.66666675e-001 6.66666687e-001 5.00000000e-001 4.83333319e-001
      4.66666669e-001 4.66666669e-001 4.66666669e-001 4.83333319e-001
      5.16666651e-001 4.83333319e-001 4.83333319e-001 4.83333319e-001
      5.50000012e-001 5.66666663e-001 6.33333325e-001 6.49999976e-001
      6.83333337e-001 8.16666663e-001 7.33333349e-001 6.16666675e-001
      5.33333361e-001 4.00000006e-001 2.00000003e-001 1.33333340e-001 0.</_>
    <_>
      0. 0. 0. 0. 0. 0. 3.12500000e-001 3.75000000e-001 2.50000000e-001
      0. 0. 0. 0. 0. 0. 2.50000000e-001 3.12500000e-001 1.25000000e-001
      0. 0. 0. 0. 0. 0. 0. 0. 0. 0. 0. 0. 0. 0. 0. 0. 0. 2.50000000e-001
      6.25000000e-001 8.12500000e-001 6.25000000e-001 3.12500000e-001
      1.25000000e-001 0. 0. 0. 0. 0. 0. 0. 0. 0. 0. 0. 0. 0. 0. 0.
      2.50000000e-001 3.75000000e-001 5.62500000e-001 6.87500000e-001
      6.25000000e-001 1.87500000e-001 0. 0. 0. 0. 0. 0. 0. 0.
      1.87500000e-001 6.25000000e-001 7.50000000e-001 8.75000000e-001
      9.37500000e-001 8.75000000e-001 8.12500000e-001 1. 1.
      9.37500000e-001 4.37500000e-001 0. 0. 0. 0. 0. 0. 0. 0.
      2.50000000e-001 7.50000000e-001 8.75000000e-001 9.37500000e-001
      8.12500000e-001 5.62500000e-001 0. 0. 0. 0. 0. 0. 1.87500000e-001
      3.12500000e-001 1.87500000e-001 0. 0. 0. 0. 0. 1.25000000e-001
      2.50000000e-001 5.00000000e-001 5.00000000e-001 5.00000000e-001
      3.75000000e-001 1.87500000e-001 0. 0. 0. 0. 0. 0. 0. 0. 0.
      1.25000000e-001 6.25000000e-001 8.12500000e-001 8.75000000e-001
      8.12500000e-001 8.12500000e-001 6.87500000e-001 4.37500000e-001 0.
      0. 0. 0. 0. 0. 0. 6.89655170e-002 1.72413796e-001 3.44827592e-001
      4.13793117e-001 3.44827592e-001 3.10344815e-001 2.41379306e-001
      3.44827592e-001 4.13793117e-001 6.20689631e-001 7.24137902e-001
      8.27586234e-001 8.27586234e-001 8.96551728e-001 9.31034505e-001 1.
      9.31034505e-001 9.31034505e-001 9.65517223e-001 8.62068951e-001
      5.17241359e-001 5.17241359e-001 4.82758611e-001 4.48275864e-001
      3.79310340e-001 3.10344815e-001 1.72413796e-001 1.03448279e-001
      1.37931034e-001 1.37931034e-001 6.89655170e-002 0.</_>
    <_>
      0. 0. 0. 0. 0. 8.33333358e-002 1.66666672e-001 1.66666672e-001
      8.33333358e-002 8.33333358e-002 8.33333358e-002 8.33333358e-002
      8.33333358e-002 8.33333358e-002 1.66666672e-001 3.33333343e-001
      5.00000000e-001 5.00000000e-001 5.00000000e-001 5.00000000e-001
      5.83333313e-001 6.66666687e-001 6.66666687e-001 6.66666687e-001
      6.66666687e-001 6.66666687e-001 5.83333313e-001 5.83333313e-001
      5.83333313e-001 5.00000000e-001 5.00000000e-001 5.00000000e-001
      5.83333313e-001 6.66666687e-001 6.66666687e-001 7.50000000e-001
      7.50000000e-001 7.50000000e-001 7.50000000e-001 6.66666687e-001
      6.66666687e-001 6.66666687e-001 6.66666687e-001 6.66666687e-001
      5.00000000e-001 5.00000000e-001 5.83333313e-001 7.50000000e-001
      7.50000000e-001 7.50000000e-001 7.50000000e-001 7.50000000e-001
      7.50000000e-001 7.50000000e-001 7.50000000e-001 7.50000000e-001
      6.66666687e-001 6.66666687e-001 6.66666687e-001 5.83333313e-001
      6.66666687e-001 6.66666687e-001 7.50000000e-001 7.50000000e-001
      7.50000000e-001 7.50000000e-001 7.50000000e-001 7.50000000e-001
      7.50000000e-001 7.50000000e-001 6.66666687e-001 5.83333313e-001
      5.00000000e-001 5.00000000e-001 6.66666687e-001 7.50000000e-001
      7.50000000e-001 8.33333313e-001 8.33333313e-001 9.16666687e-001 1.
      9.16666687e-001 9.16666687e-001 9.16666687e-001 7.50000000e-001
      7.50000000e-001 7.50000000e-001 7.50000000e-001 9.16666687e-001
      9.16666687e-001 9.16666687e-001 8.33333313e-001 8.33333313e-001
      8.33333313e-001 8.33333313e-001 8.33333313e-001 8.33333313e-001
      6.66666687e-001 6.66666687e-001 5.83333313e-001 5.83333313e-001
      6.66666687e-001 7.50000000e-001 7.50000000e-001 7.50000000e-001
      7.50000000e-001 7.50000000e-001 7.50000000e-001 7.50000000e-001
      7.50000000e-001 6.66666687e-001 5.00000000e-001 5.83333313e-001
      6.66666687e-001 8.33333313e-001 8.33333313e-001 8.33333313e-001
      8.33333313e-001 8.33333313e-001 7.50000000e-001 7.50000000e-001
      5.00000000e-001 5.83333313e-001 5.00000000e-001 5.00000000e-001
      5.83333313e-001 6.66666687e-001 6.66666687e-001 6.66666687e-001
      6.66666687e-001 5.00000000e-001 3.33333343e-001 0. 0. 0. 0. 0.
      1.73913036e-002 9.65217412e-001 9.30434763e-001 8.08695674e-001
      7.73913026e-001 9.65217412e-001 1. 9.91304338e-001 9.21739101e-001
      6.17391288e-001 1.65217385e-001 7.82608688e-002 4.34782617e-002 0.
      0. 0. 0. 0. 0. 0. 0. 0. 0. 0. 0. 0. 0. 0. 0. 3.47826071e-002
      4.34782617e-002 9.56521705e-002 1.04347825e-001 0. 0.</_>
    <_>
      2.39999995e-001 3.60000014e-001 6.39999986e-001 7.59999990e-001
      7.59999990e-001 5.60000002e-001 5.60000002e-001 5.19999981e-001
      4.39999998e-001 4.00000006e-001 4.00000006e-001 4.79999989e-001
      4.79999989e-001 4.39999998e-001 5.19999981e-001 6.39999986e-001
      5.60000002e-001 6.00000024e-001 6.00000024e-001 5.19999981e-001
      5.60000002e-001 4.79999989e-001 3.60000014e-001 4.00000006e-001
      4.00000006e-001 4.00000006e-001 4.00000006e-001 4.00000006e-001
      3.60000014e-001 2.80000001e-001 2.80000001e-001 2.39999995e-001
      2.39999995e-001 2.39999995e-001 2.39999995e-001 2.39999995e-001
      2.39999995e-001 2.80000001e-001 3.19999993e-001 4.39999998e-001
      6.00000024e-001 8.00000012e-001 9.59999979e-001 1. 9.59999979e-001
      9.59999979e-001 8.79999995e-001 8.00000012e-001 7.20000029e-001
      4.79999989e-001 3.60000014e-001 2.00000003e-001 1.19999997e-001
      1.59999996e-001 2.39999995e-001 2.80000001e-001 3.19999993e-001
      3.60000014e-001 4.00000006e-001 4.79999989e-001 5.19999981e-001
      5.19999981e-001 5.19999981e-001 5.19999981e-001 5.60000002e-001
      6.00000024e-001 6.39999986e-001 6.80000007e-001 7.20000029e-001
      8.00000012e-001 7.59999990e-001 7.59999990e-001 7.59999990e-001
      6.80000007e-001 6.00000024e-001 6.00000024e-001 5.60000002e-001
      6.00000024e-001 7.20000029e-001 8.39999974e-001 8.79999995e-001
      8.79999995e-001 8.79999995e-001 8.79999995e-001 8.79999995e-001
      8.00000012e-001 7.20000029e-001 6.39999986e-001 5.60000002e-001
      4.79999989e-001 3.60000014e-001 2.80000001e-001 2.00000003e-001
      7.99999982e-002 0. 1.59999996e-001 3.60000014e-001 4.79999989e-001
      5.60000002e-001 6.39999986e-001 7.20000029e-001 8.00000012e-001
      8.39999974e-001 8.39999974e-001 9.20000017e-001 9.20000017e-001
      9.20000017e-001 8.39999974e-001 6.80000007e-001 6.00000024e-001
      5.60000002e-001 5.60000002e-001 5.19999981e-001 5.19999981e-001
      5.19999981e-001 5.19999981e-001 4.79999989e-001 4.79999989e-001
      4.79999989e-001 5.60000002e-001 5.60000002e-001 5.60000002e-001
      6.00000024e-001 6.39999986e-001 6.39999986e-001 6.39999986e-001
      5.60000002e-001 5.60000002e-001 5.60000002e-001 5.19999981e-001
      4.39999998e-001 4.39999998e-001 3.60000014e-001 3.19999993e-001
      2.39999995e-001 1.59999996e-001 2.80000001e-001 4.39999998e-001
      5.40000021e-001 5.79999983e-001 6.10000014e-001 6.39999986e-001
      6.39999986e-001 6.20000005e-001 6.00000024e-001 5.69999993e-001
      4.60000008e-001 4.39999998e-001 5.09999990e-001 5.09999990e-001
      5.19999981e-001 5.50000012e-001 5.50000012e-001 8.00000012e-001
      8.19999993e-001 8.89999986e-001 1. 1. 9.59999979e-001
      8.39999974e-001 7.69999981e-001 6.99999988e-001 4.60000008e-001
      3.00000012e-001 2.00000003e-001 5.99999987e-002 5.00000007e-002
      3.99999991e-002 3.99999991e-002 5.99999987e-002 9.00000036e-002
      1.40000001e-001</_>
    <_>
      1.17647059e-001 1.76470593e-001 2.35294119e-001 2.94117659e-001
      3.52941185e-001 4.70588237e-001 4.11764711e-001 4.11764711e-001
      4.11764711e-001 4.11764711e-001 3.52941185e-001 4.11764711e-001
      5.29411793e-001 4.70588237e-001 7.64705896e-001 8.23529422e-001 1.
      1. 7.05882370e-001 4.11764711e-001 2.35294119e-001 1.17647059e-001
      0. 0. 1.76470593e-001 3.52941185e-001 5.29411793e-001
      4.70588237e-001 1.76470593e-001 2.35294119e-001 1.17647059e-001
      1.76470593e-001 0. 0. 5.88235296e-002 1.17647059e-001
      5.88235296e-002 5.88235296e-002 1.17647059e-001 0. 0. 0. 0. 0. 0.
      0. 0. 0. 0. 0. 0. 0. 0. 0. 0. 0. 2.35294119e-001 3.52941185e-001
      4.70588237e-001 5.29411793e-001 7.64705896e-001 7.05882370e-001
      5.88235319e-001 7.05882370e-001 7.64705896e-001 8.23529422e-001
      8.23529422e-001 7.64705896e-001 5.88235319e-001 4.70588237e-001
      4.70588237e-001 1.17647059e-001 1.17647059e-001 0. 0. 0. 0. 0. 0.
      5.88235296e-002 5.88235296e-002 5.88235296e-002 5.88235296e-002
      1.17647059e-001 5.88235296e-002 1.17647059e-001 5.88235296e-002
      1.17647059e-001 2.94117659e-001 4.11764711e-001 5.88235319e-001
      7.05882370e-001 7.64705896e-001 7.05882370e-001 6.47058845e-001
      4.70588237e-001 5.88235319e-001 5.88235319e-001 4.70588237e-001
      6.47058845e-001 5.88235319e-001 5.29411793e-001 4.11764711e-001
      2.35294119e-001 2.35294119e-001 2.94117659e-001 2.35294119e-001
      2.94117659e-001 4.70588237e-001 4.70588237e-001 3.52941185e-001
      1.17647059e-001 1.76470593e-001 1.76470593e-001 1.17647059e-001
      1.17647059e-001 1.17647059e-001 5.88235296e-002 5.88235296e-002
      5.88235296e-002 1.76470593e-001 2.94117659e-001 3.52941185e-001
      4.11764711e-001 5.88235319e-001 4.70588237e-001 5.29411793e-001
      5.29411793e-001 5.88235319e-001 5.88235319e-001 3.52941185e-001
      2.94117659e-001 2.94117659e-001 5.88235296e-002 0. 0.
      3.03030312e-001 5.45454562e-001 7.57575750e-001 7.27272749e-001
      5.45454562e-001 6.06060624e-001 8.78787875e-001 8.48484874e-001
      6.06060624e-001 3.93939406e-001 2.12121218e-001 2.42424250e-001
      7.27272749e-001 6.36363626e-001 5.45454562e-001 3.03030312e-001
      3.63636374e-001 6.06060624e-001 2.42424250e-001 6.66666687e-001
      7.57575750e-001 7.57575750e-001 6.96969688e-001 6.96969688e-001
      4.54545468e-001 5.45454562e-001 2.72727281e-001 2.72727281e-001
      6.66666687e-001 7.87878811e-001 3.63636374e-001 5.45454562e-001
      8.18181813e-001 1. 9.09090936e-001 4.54545468e-001</_>
    <_>
      5.41666687e-001 5.41666687e-001 5.41666687e-001 6.25000000e-001
      7.50000000e-001 9.58333313e-001 9.16666687e-001 8.33333313e-001
      8.33333313e-001 7.50000000e-001 7.50000000e-001 6.66666687e-001
      5.00000000e-001 5.41666687e-001 7.08333313e-001 5.83333313e-001
      5.41666687e-001 5.41666687e-001 5.83333313e-001 5.83333313e-001
      5.41666687e-001 5.83333313e-001 7.08333313e-001 7.08333313e-001
      7.08333313e-001 6.66666687e-001 5.83333313e-001 5.83333313e-001
      7.91666687e-001 6.66666687e-001 7.08333313e-001 6.66666687e-001
      7.08333313e-001 7.50000000e-001 7.50000000e-001 7.91666687e-001
      7.91666687e-001 7.91666687e-001 8.33333313e-001 7.91666687e-001
      7.91666687e-001 7.91666687e-001 7.50000000e-001 6.66666687e-001
      6.25000000e-001 5.00000000e-001 4.58333343e-001 5.41666687e-001
      5.41666687e-001 2.91666657e-001 2.08333328e-001 2.08333328e-001
      2.91666657e-001 2.50000000e-001 1.66666672e-001 8.33333358e-002
      8.33333358e-002 8.33333358e-002 4.16666679e-002 4.16666679e-002
      1.66666672e-001 3.75000000e-001 1. 8.75000000e-001 2.91666657e-001
      2.91666657e-001 3.33333343e-001 5.83333313e-001 6.25000000e-001
      7.08333313e-001 7.08333313e-001 4.58333343e-001 4.58333343e-001
      7.08333313e-001 5.83333313e-001 1.66666672e-001 1.66666672e-001
      4.16666657e-001 4.58333343e-001 5.41666687e-001 5.83333313e-001
      3.75000000e-001 4.16666657e-001 6.66666687e-001 6.25000000e-001
      4.58333343e-001 3.75000000e-001 5.00000000e-001 5.41666687e-001
      7.91666687e-001 6.66666687e-001 3.33333343e-001 2.50000000e-001
      2.50000000e-001 4.16666657e-001 2.91666657e-001 7.91666687e-001
      6.66666687e-001 2.50000000e-001 3.33333343e-001 4.16666657e-001
      6.66666687e-001 8.75000000e-001 9.16666687e-001 2.91666657e-001
      2.08333328e-001 5.41666687e-001 7.08333313e-001 6.66666687e-001
      5.00000000e-001 3.75000000e-001 0. 1.66666672e-001 3.75000000e-001
      6.25000000e-001 9.16666687e-001 7.08333313e-001 1.66666672e-001
      1.66666672e-001 4.58333343e-001 5.83333313e-001 6.25000000e-001
      6.66666687e-001 3.75000000e-001 3.33333343e-001 5.41666687e-001
      6.66666687e-001 5.00000000e-001 3.75000000e-001 2.50000000e-001
      4.16666679e-002 0. 0. 0. 0. 0. 0. 2.40963846e-002 4.81927693e-002
      7.22891539e-002 9.63855386e-002 3.25301200e-001 5.18072307e-001
      4.93975908e-001 3.37349385e-001 5.90361416e-001 7.34939754e-001
      7.71084309e-001 5.90361416e-001 6.62650585e-001 6.98795199e-001
      7.34939754e-001 8.31325293e-001 8.31325293e-001 8.67469907e-001
      7.34939754e-001 5.78313231e-001 5.90361416e-001 7.71084309e-001
      8.67469907e-001 1. 9.15662646e-001 7.71084309e-001 7.83132553e-001
      8.19277108e-001 8.31325293e-001 7.95180738e-001 8.19277108e-001
      3.01204830e-001 0. 0. 1.56626508e-001</_>
    <_>
      0. 0. 2.50000000e-001 6.94444418e-001 8.61111104e-001
      9.44444418e-001 9.72222209e-001 9.16666687e-001 9.44444418e-001
      9.44444418e-001 8.33333313e-001 4.72222209e-001 7.77777791e-001
      8.88888896e-001 9.44444418e-001 8.88888896e-001 5.83333313e-001
      6.66666687e-001 6.11111104e-001 5.83333313e-001 7.22222209e-001
      6.66666687e-001 7.22222209e-001 9.44444418e-001 9.72222209e-001
      9.72222209e-001 9.72222209e-001 9.72222209e-001 9.72222209e-001
      9.16666687e-001 7.77777791e-001 8.33333313e-001 8.05555582e-001
      8.33333313e-001 8.33333313e-001 7.50000000e-001 8.61111104e-001
      9.72222209e-001 1. 9.72222209e-001 1.66666672e-001 2.77777780e-002
      7.77777791e-001 9.72222209e-001 9.72222209e-001 9.72222209e-001 1.
      1. 1. 1. 1. 9.72222209e-001 9.72222209e-001 1. 7.22222209e-001
      6.66666687e-001 6.66666687e-001 6.66666687e-001 6.94444418e-001
      7.77777791e-001 9.44444418e-001 9.44444418e-001 9.44444418e-001
      9.44444418e-001 9.44444418e-001 9.44444418e-001 9.44444418e-001
      9.44444418e-001 8.61111104e-001 8.61111104e-001 8.33333313e-001
      8.33333313e-001 8.33333313e-001 8.33333313e-001 8.33333313e-001
      8.61111104e-001 8.61111104e-001 8.05555582e-001 7.77777791e-001
      7.77777791e-001 8.05555582e-001 8.05555582e-001 8.33333313e-001
      9.16666687e-001 8.88888896e-001 8.88888896e-001 8.88888896e-001
      8.61111104e-001 5.55555582e-001 5.55555582e-001 6.38888896e-001
      6.11111104e-001 5.00000000e-001 8.33333313e-001 8.33333313e-001
      7.22222209e-001 5.27777791e-001 5.55555582e-001 5.27777791e-001
      6.38888896e-001 3.88888896e-001 4.72222209e-001 7.50000000e-001
      7.77777791e-001 8.05555582e-001 8.61111104e-001 8.33333313e-001
      5.00000000e-001 5.55555560e-002 7.50000000e-001 8.61111104e-001
      8.33333313e-001 8.61111104e-001 8.61111104e-001 8.88888896e-001
      8.88888896e-001 3.88888896e-001 2.77777780e-002 0. 2.77777780e-002
      2.77777780e-002 2.77777780e-002 2.77777780e-002 2.77777780e-002
      2.77777780e-002 2.77777780e-002 5.55555560e-002 2.77777780e-002
      2.77777780e-002 2.77777780e-002 2.77777780e-002 2.77777780e-002
      2.77777780e-002 2.77777780e-002 2.77777780e-002 0. 8.13084126e-001
      1. 9.15887833e-001 8.50467265e-001 9.43925261e-001 9.71962631e-001
      9.15887833e-001 9.06542063e-001 8.78504694e-001 8.87850463e-001
      9.15887833e-001 8.69158864e-001 8.97196233e-001 7.28971958e-001
      7.38317728e-001 8.13084126e-001 8.97196233e-001 9.53271031e-001
      8.97196233e-001 8.50467265e-001 9.53271031e-001 9.81308401e-001
      9.81308401e-001 9.62616801e-001 9.71962631e-001 9.34579432e-001
      9.43925261e-001 8.13084126e-001 6.91588759e-001 5.32710254e-001
      5.60747683e-001 6.54205620e-001 9.15887833e-001 9.25233662e-001
      8.69158864e-001 4.39252347e-001</_>
    <_>
      2.10526317e-001 2.63157904e-001 3.15789461e-001 4.21052635e-001
      4.73684222e-001 4.21052635e-001 3.15789461e-001 2.63157904e-001
      3.15789461e-001 4.73684222e-001 7.89473712e-001 8.42105269e-001
      9.47368443e-001 1. 7.36842096e-001 2.63157904e-001 1.05263159e-001
      0. 1.05263159e-001 2.10526317e-001 4.73684222e-001 5.26315808e-001
      3.68421048e-001 2.63157904e-001 2.10526317e-001 2.10526317e-001
      1.57894731e-001 2.10526317e-001 2.10526317e-001 2.63157904e-001
      2.10526317e-001 1.05263159e-001 0. 0. 0. 0. 0. 0. 0. 0. 0. 0. 0.
      0. 0. 1.57894731e-001 3.15789461e-001 4.73684222e-001
      5.78947365e-001 7.89473712e-001 7.89473712e-001 8.42105269e-001
      7.36842096e-001 7.89473712e-001 7.36842096e-001 6.31578922e-001
      4.73684222e-001 4.21052635e-001 2.10526317e-001 1.57894731e-001
      1.05263159e-001 0. 0. 0. 0. 1.05263159e-001 1.57894731e-001
      1.05263159e-001 5.26315793e-002 5.26315793e-002 5.26315793e-002
      5.26315793e-002 1.57894731e-001 4.73684222e-001 5.78947365e-001
      6.31578922e-001 5.78947365e-001 5.78947365e-001 5.78947365e-001
      5.78947365e-001 4.73684222e-001 4.73684222e-001 5.26315808e-001
      5.26315808e-001 4.21052635e-001 2.10526317e-001 2.10526317e-001
      3.15789461e-001 4.21052635e-001 3.15789461e-001 2.63157904e-001
      1.05263159e-001 5.26315793e-002 1.57894731e-001 1.05263159e-001
      5.26315793e-002 0. 0. 0. 2.10526317e-001 2.63157904e-001
      3.68421048e-001 5.26315808e-001 3.68421048e-001 5.26315808e-001
      4.73684222e-001 5.26315808e-001 4.21052635e-001 2.63157904e-001
      2.10526317e-001 0. 0. 0. 0. 0. 0. 0. 0. 0. 0. 0. 0. 0. 0. 0. 0. 0.
      0. 0. 0. 0. 0. 0. 0. 0. 0. 4.07407403e-001 6.29629612e-001
      8.51851881e-001 7.77777791e-001 7.40740716e-001 7.77777791e-001 1.
      9.25925910e-001 7.03703701e-001 5.18518507e-001 3.70370358e-001
      5.18518507e-001 8.88888896e-001 7.77777791e-001 6.66666687e-001
      4.07407403e-001 4.07407403e-001 6.66666687e-001 6.66666687e-001
      8.88888896e-001 8.51851881e-001 8.14814806e-001 8.88888896e-001
      7.40740716e-001 5.18518507e-001 5.18518507e-001 2.96296299e-001
      2.96296299e-001 5.92592597e-001 6.66666687e-001 4.81481493e-001
      6.29629612e-001 7.40740716e-001 8.51851881e-001 8.51851881e-001
      1.85185179e-001</_>
    <_>
      5.29411793e-001 5.29411793e-001 4.70588237e-001 5.29411793e-001
      6.47058845e-001 6.47058845e-001 3.52941185e-001 2.94117659e-001
      2.94117659e-001 3.52941185e-001 2.94117659e-001 2.35294119e-001
      2.35294119e-001 1.76470593e-001 1.17647059e-001 2.35294119e-001
      2.94117659e-001 3.52941185e-001 4.11764711e-001 3.52941185e-001
      4.11764711e-001 4.11764711e-001 4.70588237e-001 4.11764711e-001
      4.70588237e-001 5.88235319e-001 5.88235319e-001 7.05882370e-001
      6.47058845e-001 5.88235319e-001 4.11764711e-001 2.35294119e-001
      2.94117659e-001 2.94117659e-001 2.94117659e-001 2.94117659e-001
      4.11764711e-001 5.29411793e-001 6.47058845e-001 6.47058845e-001
      7.05882370e-001 6.47058845e-001 5.88235319e-001 7.05882370e-001
      7.05882370e-001 8.23529422e-001 6.47058845e-001 5.29411793e-001
      5.29411793e-001 5.29411793e-001 5.88235319e-001 7.05882370e-001
      7.05882370e-001 7.64705896e-001 8.23529422e-001 7.05882370e-001
      7.64705896e-001 8.23529422e-001 6.47058845e-001 6.47058845e-001
      7.64705896e-001 7.64705896e-001 8.23529422e-001 8.82352948e-001
      8.82352948e-001 8.82352948e-001 9.41176474e-001 9.41176474e-001
      8.82352948e-001 9.41176474e-001 7.64705896e-001 6.47058845e-001
      7.64705896e-001 7.64705896e-001 7.64705896e-001 8.23529422e-001
      7.05882370e-001 7.64705896e-001 8.82352948e-001 9.41176474e-001
      7.64705896e-001 8.23529422e-001 9.41176474e-001 1. 8.82352948e-001
      8.82352948e-001 8.82352948e-001 8.82352948e-001 7.64705896e-001
      8.23529422e-001 7.05882370e-001 8.23529422e-001 8.23529422e-001
      9.41176474e-001 1. 7.64705896e-001 7.05882370e-001 6.47058845e-001
      5.88235319e-001 5.88235319e-001 5.88235319e-001 6.47058845e-001
      6.47058845e-001 8.82352948e-001 8.82352948e-001 7.05882370e-001
      8.23529422e-001 8.23529422e-001 8.82352948e-001 8.82352948e-001
      8.23529422e-001 8.23529422e-001 9.41176474e-001 9.41176474e-001
      9.41176474e-001 8.82352948e-001 7.64705896e-001 8.23529422e-001
      7.64705896e-001 8.23529422e-001 7.64705896e-001 7.05882370e-001
      7.64705896e-001 6.47058845e-001 5.29411793e-001 2.94117659e-001
      1.76470593e-001 1.76470593e-001 1.76470593e-001 1.76470593e-001
      1.17647059e-001 1.76470593e-001 1.76470593e-001 1.76470593e-001
      1.76470593e-001 5.88235296e-002 7.50000030e-002 5.00000000e-001
      4.37500000e-001 4.12499994e-001 5.37500024e-001 6.62500024e-001
      6.87500000e-001 5.62500000e-001 5.12499988e-001 6.12500012e-001
      6.75000012e-001 6.49999976e-001 6.25000000e-001 4.87500012e-001
      4.74999994e-001 6.12500012e-001 7.74999976e-001 5.12499988e-001
      4.74999994e-001 5.00000000e-001 8.24999988e-001 1. 9.49999988e-001
      6.75000012e-001 3.49999994e-001 2.75000006e-001 4.00000006e-001
      7.12499976e-001 5.50000012e-001 6.62500024e-001 3.49999994e-001
      3.75000015e-002 3.75000015e-002 1.12499997e-001 1.37500003e-001
      1.25000000e-001</_>
    <_>
      0. 0. 5.27777791e-001 1. 1. 1. 1. 1. 1. 1. 1. 1. 1.
      8.05555582e-001 6.38888896e-001 2.77777791e-001 2.22222224e-001
      1.94444448e-001 2.22222224e-001 2.50000000e-001 6.66666687e-001
      6.11111104e-001 5.83333313e-001 3.05555552e-001 1.94444448e-001
      1.66666672e-001 1.66666672e-001 1.94444448e-001 2.50000000e-001
      3.33333343e-001 4.16666657e-001 3.33333343e-001 2.77777791e-001
      2.22222224e-001 1.66666672e-001 2.22222224e-001 3.61111104e-001
      3.88888896e-001 4.16666657e-001 5.27777791e-001 6.66666687e-001
      6.94444418e-001 8.05555582e-001 8.88888896e-001 9.44444418e-001 1.
      1. 1. 1. 1. 1. 1. 1. 6.66666687e-001 0. 0. 0. 0. 0.
      8.33333358e-002 2.77777791e-001 2.50000000e-001 1.66666672e-001
      1.66666672e-001 1.66666672e-001 3.88888896e-001 3.88888896e-001
      4.44444448e-001 3.61111104e-001 1.94444448e-001 1.38888896e-001
      1.94444448e-001 1.38888896e-001 1.94444448e-001 1.66666672e-001
      2.22222224e-001 2.77777791e-001 3.33333343e-001 2.22222224e-001
      1.94444448e-001 2.77777791e-001 3.88888896e-001 5.27777791e-001
      6.66666687e-001 7.77777791e-001 8.88888896e-001 1. 1. 1. 1. 1. 1.
      1. 1. 1. 1. 6.38888896e-001 5.00000000e-001 4.72222209e-001
      4.72222209e-001 1.66666672e-001 1.66666672e-001 2.50000000e-001
      2.50000000e-001 1.94444448e-001 1.11111112e-001 2.50000000e-001
      3.33333343e-001 3.33333343e-001 3.61111104e-001 3.88888896e-001
      3.88888896e-001 3.61111104e-001 3.05555552e-001 2.22222224e-001
      5.55555560e-002 5.55555560e-002 1.94444448e-001 2.50000000e-001
      2.22222224e-001 6.11111104e-001 5.00000000e-001 4.72222209e-001
      4.72222209e-001 4.72222209e-001 6.38888896e-001 9.44444418e-001 1.
      1. 1. 1. 1. 1. 1. 6.38888896e-001 1.38888896e-001 9.10891116e-001
      8.61386120e-001 8.91089082e-001 8.61386120e-001 8.31683159e-001
      7.72277236e-001 7.12871313e-001 7.12871313e-001 7.02970326e-001
      7.02970326e-001 7.02970326e-001 6.43564343e-001 6.43564343e-001
      6.43564343e-001 6.73267305e-001 6.63366318e-001 7.82178223e-001
      7.62376249e-001 6.73267305e-001 6.13861382e-001 5.64356446e-001
      5.74257433e-001 6.43564343e-001 6.53465331e-001 6.63366318e-001
      6.43564343e-001 6.23762369e-001 5.94059408e-001 6.03960395e-001
      6.33663356e-001 5.84158421e-001 5.34653485e-001 4.65346545e-001
      5.84158421e-001 8.01980197e-001 1.</_>
    <_>
      5.00000000e-001 4.58333343e-001 4.58333343e-001 5.00000000e-001
      5.41666687e-001 5.41666687e-001 5.83333313e-001 5.83333313e-001
      6.25000000e-001 5.83333313e-001 6.25000000e-001 5.83333313e-001
      5.41666687e-001 5.41666687e-001 5.00000000e-001 4.58333343e-001
      4.58333343e-001 4.58333343e-001 5.00000000e-001 5.00000000e-001
      4.58333343e-001 5.00000000e-001 5.41666687e-001 5.41666687e-001
      5.41666687e-001 5.41666687e-001 5.00000000e-001 5.41666687e-001
      5.00000000e-001 5.00000000e-001 4.58333343e-001 4.58333343e-001
      4.58333343e-001 4.58333343e-001 4.58333343e-001 4.16666657e-001
      4.58333343e-001 4.16666657e-001 4.16666657e-001 4.16666657e-001
      3.75000000e-001 4.58333343e-001 4.58333343e-001 4.16666657e-001
      4.16666657e-001 4.16666657e-001 4.16666657e-001 6.66666687e-001
      7.08333313e-001 5.83333313e-001 5.83333313e-001 6.25000000e-001
      6.66666687e-001 4.16666657e-001 2.08333328e-001 2.08333328e-001
      8.33333358e-002 4.16666679e-002 2.08333328e-001 2.91666657e-001
      4.16666657e-001 5.83333313e-001 5.83333313e-001 6.25000000e-001
      5.41666687e-001 5.41666687e-001 5.00000000e-001 5.41666687e-001
